tree
version=v4
num_class=1
num_tree_per_iteration=1
label_index=0
max_feature_idx=14
objective=binary sigmoid:1
feature_names=mean_radius mean_perimeter mean_area mean_compactness mean_concavity mean_concave_points radius_error perimeter_error area_error worst_radius worst_perimeter worst_area worst_compactness worst_concavity worst_concave_points
feature_infos=[6.9809999999999999:27.420000000000002] [43.789999999999999:186.90000000000001] [143.5:2501] [0.019380000000000001:0.34539999999999998] [0:0.42680000000000001] [0:0.20119999999999999] [0.1115:2.5470000000000002] [0.77139999999999997:18.649999999999999] [6.8019999999999996:542.20000000000005] [7.9299999999999997:36.039999999999999] [50.409999999999997:251.19999999999999] [185.19999999999999:4254] [0.027289999999999998:1.0580000000000001] [0:1.252] [0:0.29099999999999998]
tree_sizes=1151 950 1260 1795 1677 1796 1793 1899 1686 1901 1897 1894 1690 1900 1793 1905 1787 1784 1878 1793 1791 1678 1692 1684 1990 1916 2022 2024 2123 2024 2019 2212 2008 2116 2017 2329 2342 2239 2238 2233 1919 1924 2439 2448 2233 2563 2561 2337 2341 2131 2570 2672 2670 2569 2761 2365 2885 2689 3001 2373 2667 2365 2585 2768 2588 3030 2910 2919 2928 2703 2706 2594 2258 2367 2912 2496 2817 2701 3018 2611 2921 3036 3055 3035 2396 2312 2634 2310 2731 3164 2621 2627 2146 2822 2502 2636 2962 3259 2642 2977

Tree=0
num_leaves=10
num_cat=0
split_feature=5 10 9 11 11 5 0 0 0
split_gain=255.641 33.5648 9.0349 1.6117 0.313504 0.460547 2.84217e-14 1.42109e-14 1.42109e-14
threshold=0.050100000000000006 104.10000000000001 16.240000000000006 874.85000000000014 653.45000000000016 0.026460000000000004 17.110000000000003 12.855000000000002 18.655000000000005
decision_type=2 2 2 2 2 2 2 2 2
left_child=2 -2 4 -3 7 -6 -5 -1 -8
right_child=1 3 -4 6 5 -7 8 -9 -10
leaf_value=0.70353099255519103 0.57437754349734782 0.33759622022463537 0.55285196865437392 0.27301949569571377 0.70353099255519103 0.66047984286924333 0.27301949569571377 0.70353099255519103 0.2730194956957136
leaf_weight=31.35804757475853 4.6456366777420035 4.6456366777420071 4.6456366777420035 6.736173182725909 5.3424821794033033 4.6456366777420044 4.8779185116291073 4.6456366777420035 11.381809860467909
leaf_count=135 20 20 20 29 23 20 21 20 49
internal_value=0.54558 0.325672 0.685758 0.283873 0.699182 0.683507 0.273019 0.703531 0.273019
internal_weight=0 32.2872 50.6374 27.6415 45.9918 9.98812 22.9959 36.0037 16.2597
internal_count=357 139 218 119 198 43 99 155 70
is_linear=0
shrinkage=1


Tree=1
num_leaves=8
num_cat=0
split_feature=5 10 11 11 11 3 0
split_gain=204.591 24.6166 8.18201 1.13597 0.284479 0.51102 1.42109e-14
threshold=0.050100000000000006 104.10000000000001 815.75000000000011 874.85000000000014 653.45000000000016 0.066155000000000005 12.330000000000002
decision_type=2 2 2 2 2 2 2
left_child=2 -2 4 -3 6 -6 -1
right_child=1 3 -4 -5 5 -7 -8
leaf_value=0.14948350052041573 0.026133126464367253 -0.1784315735435385 0.0053110208975826806 -0.2313925861848167 0.10517797162462941 0.15144024033096801 0.14948350052041573
leaf_weight=24.580847561359406 4.6092721819877616 4.8601990938186672 4.6189865916967383 24.294455096125603 4.4478978216648084 5.155075415968895 9.7437593936920148
leaf_count=111 20 20 20 99 20 23 44
internal_value=0 -0.188613 0.131915 -0.222564 0.145227 0.130013 0.149484
internal_weight=0 33.7639 48.5466 29.1547 43.9276 9.60297 34.3246
internal_count=357 139 218 119 198 43 155
is_linear=0
shrinkage=0.1


Tree=2
num_leaves=11
num_cat=0
split_feature=10 14 14 3 5 10 0 5 0 0
split_gain=168.317 30.3317 1.62076 0.204483 0.628607 0.0180358 0.0135853 0.00492358 0.000270093 0.000182352
threshold=113.15000000000002 0.13495000000000004 0.14620000000000002 0.058510000000000006 0.017660000000000006 99.455000000000027 15.940000000000003 0.037235000000000011 12.215000000000002 12.895000000000001
decision_type=2 2 2 2 2 2 2 2 2 2
left_child=1 3 -2 4 8 7 -4 9 -1 -5
right_child=2 -3 6 5 -6 -7 -8 -9 -10 -11
leaf_value=0.14261284886195277 -0.14152565104477788 -0.07432755125280581 -0.21012963257560049 0.14261284886195266 0.097592883222146792 0.1503560048956756 -0.20425055530875166 0.14641492698008093 0.14363984031394436 0.1433513395067823
leaf_weight=6.495086193084715 4.7568994164466885 7.793039843440055 4.9735657721757915 16.13295602798463 4.2554438412189475 4.4278861284255973 18.741879612207413 4.5187025517225257 4.2276746183633804 4.2178282439708701
leaf_count=31 20 33 20 77 20 20 75 21 20 20
internal_value=0 0.107596 -0.194798 0.139617 0.130112 0.144476 -0.205484 0.143429 0.143018 0.142766
internal_weight=0 52.0686 28.4723 44.2756 14.9782 29.2974 23.7154 24.8695 10.7228 20.3508
internal_count=357 242 115 209 71 138 95 118 51 97
is_linear=0
shrinkage=0.1


Tree=3
num_leaves=16
num_cat=0
split_feature=5 10 11 8 11 10 5 12 14 12 5 0 3 5 0
split_gain=142.177 15.5525 6.48961 0.767855 0.264116 0.582618 0.0105669 0.000271004 0.000247508 8.24935e-05 0.000165323 1.60385e-05 2.5857e-06 7.34866e-07 3.84768e-09
threshold=0.050100000000000006 104.10000000000001 815.75000000000011 31.850000000000005 653.45000000000016 97.980000000000004 0.070020000000000013 0.28535000000000005 0.098095000000000016 0.10795000000000002 0.011555000000000001 17.960000000000004 0.063185000000000005 0.028590000000000001 12.065000000000003
decision_type=2 2 2 2 2 2 2 2 2 2 2 2 2 2 2
left_child=2 -2 4 -3 8 -6 -5 -8 9 10 -1 -9 -11 14 -14
right_child=1 3 -4 6 5 -7 7 11 -10 12 -12 -13 13 -15 -16
leaf_value=0.13694006114063764 0.020500659171683033 -0.14402255682451107 0.0075566243875009875 -0.19021585805113378 0.089617937585669258 0.14134241971619432 -0.18575616624698091 -0.18476696890835639 0.13790800718035531 0.13702275643969256 0.13780668158783263 -0.18499110115997819 0.1369491602855509 0.13689604128528562 0.13694506871792575
leaf_weight=4.9246629774570518 4.5147575139999381 5.2371161729097393 4.6220040172338477 5.2253623902797726 4.0391735732555372 4.7251953780651093 5.218389809131625 4.9660021215677252 4.1759869754314414 4.1407658010721233 3.9805361330509186 8.9407569766044599 5.5162485837936384 3.9375608414411536 3.9399766176939011
leaf_count=25 20 21 20 21 20 23 21 20 21 21 20 36 28 20 20
internal_value=0 -0.15238 0.119654 -0.17876 0.132811 0.117505 -0.186231 -0.185142 0.137193 0.13708 0.137327 -0.184911 0.136954 0.136932 0.136947
internal_weight=0 34.1024 44.0021 29.5876 39.3801 8.76437 24.3505 19.1251 30.6157 26.4398 8.9052 13.9068 17.5346 13.3938 9.45623
internal_count=357 139 218 119 198 43 98 77 155 134 45 56 89 68 48
is_linear=0
shrinkage=0.1


Tree=4
num_leaves=15
num_cat=0
split_feature=5 10 10 14 7 13 9 2 11 12 1 4 5 3
split_gain=119.767 12.9749 8.29875 0.782727 0.213308 0.105715 0.0508458 0.0173629 0.00089866 4.43862e-05 6.71736e-06 1.45618e-06 2.05654e-07 1.38242e-08
threshold=0.050100000000000006 104.10000000000001 109.95 0.16030000000000003 2.6545000000000005 0.21500000000000002 18.655000000000005 584.90000000000009 632.50000000000011 0.097510000000000013 118.80000000000001 0.16475000000000004 0.026085000000000004 0.066785000000000025
decision_type=2 2 2 2 2 2 2 2 2 2 2 2 2 2
left_child=2 -2 4 -3 5 7 -5 8 9 -1 -8 -12 13 -11
right_child=1 3 -4 6 -6 -7 10 -9 -10 12 11 -13 -14 -15
leaf_value=0.13252186873333752 0.018574857127437283 -0.13397782016886078 -0.0282215138254861 -0.18206306905208938 0.10556693598938172 0.11986159185779109 -0.17046419850346722 0.13973653459954027 0.13397468604907017 0.13221083069841238 -0.17056139078975421 -0.17063063788445945 0.13218657048952942 0.13221890718833759
leaf_weight=7.0356020331382849 4.4861265122890464 6.6291229277849224 3.7169168144464484 4.9312796890735653 3.7028890550136557 6.9832875281572333 4.8498800694942501 4.0042251944541922 3.9703989624977103 4.2383387237787229 5.0935964137315732 7.5203972458839417 3.6840832382440558 4.2388837784528732
leaf_count=38 20 27 16 20 20 37 20 20 21 23 21 31 20 23
internal_value=0 -0.139698 0.114365 -0.164162 0.128364 0.130836 -0.173096 0.133656 0.132605 0.132322 -0.170564 -0.170603 0.132206 0.132215
internal_weight=0 33.5104 41.5746 29.0243 37.8577 34.1548 22.3952 27.1715 23.1673 19.1969 17.4639 12.614 12.1613 8.47722
internal_count=357 139 218 119 202 182 92 145 125 104 72 52 66 46
is_linear=0
shrinkage=0.1


Tree=5
num_leaves=16
num_cat=0
split_feature=14 9 14 9 12 0 11 5 14 11 7 5 3 1 12
split_gain=108.437 23.3265 1.54346 1.10532 0.279427 0.0652842 0.0267601 0.00569818 0.000838811 0.00042128 5.75911e-05 2.11979e-05 2.3794e-05 3.02827e-06 1.68553e-07
threshold=0.14525000000000002 17.220000000000002 0.12195000000000002 16.330000000000002 0.069710000000000008 13.890000000000002 1111.5000000000002 0.036565000000000007 0.16610000000000003 632.50000000000011 2.4895000000000005 0.017660000000000006 0.07443000000000001 123.50000000000001 0.11065000000000001
decision_type=2 2 2 2 2 2 2 2 2 2 2 2 2 2 2
left_child=1 2 4 -2 -1 7 -5 9 -8 10 11 14 -13 -10 -6
right_child=3 -3 -4 6 5 -7 8 -9 13 -11 -12 12 -14 -15 -16
leaf_value=0.10175806012765856 -0.10825570991255901 -0.12984995616761963 0.061924721630923489 -0.16833053565121489 0.12821169394510465 0.14223287001347579 -0.16105992417254122 0.13284141623732701 -0.15945011056169534 0.12957044316574493 0.12879875894365853 0.12865888775963311 0.12834394969708149 -0.15954748916339945 0.12824265278060562
leaf_weight=3.6594449132680884 4.6621586829423931 4.0534532666206351 3.9111676514148703 4.7559794634580639 3.4324469864368572 4.3898457437753668 4.7066255360841778 3.6427221149206153 5.1442788094282141 3.8714366555213919 3.6449779421091071 3.6349804848432523 7.0547993183135986 8.4214327633380872 3.6062669008970261
leaf_count=21 20 17 18 20 20 22 20 20 22 22 21 21 41 36 21
internal_value=0 0.0989561 0.121661 -0.152659 0.127986 0.130871 -0.161649 0.129144 -0.15991 0.128611 0.128437 0.128362 0.128451 -0.159511 0.128228
internal_weight=0 44.9015 40.8481 27.6905 36.9369 33.2775 23.0283 28.8876 18.2723 25.2449 21.3735 17.7285 10.6898 13.5657 7.03871
internal_count=362 244 227 118 209 188 98 166 78 146 124 103 62 58 41
is_linear=0
shrinkage=0.1


Tree=6
num_leaves=16
num_cat=0
split_feature=14 9 14 9 12 1 2 5 9 14 7 5 3 5 3
split_gain=92.4205 20.0816 1.57079 1.20541 0.275888 0.0455089 0.0176027 0.0036869 0.00115367 0.000461408 4.00318e-05 2.02137e-05 2.6194e-05 1.95178e-06 1.86298e-07
threshold=0.14525000000000002 17.220000000000002 0.12195000000000002 16.330000000000002 0.069710000000000008 89.910000000000011 770.05000000000007 0.036565000000000007 14.520000000000001 0.17100000000000001 2.4960000000000004 0.017660000000000006 0.07443000000000001 0.094885000000000011 0.053945000000000007
decision_type=2 2 2 2 2 2 2 2 2 2 2 2 2 2 2
left_child=1 2 4 -2 -1 7 -5 8 10 -8 11 14 -13 -11 -6
right_child=3 -3 -4 6 5 -7 9 -9 -10 13 -12 12 -14 -15 -16
leaf_value=0.097323755059712511 -0.096688345735070319 -0.11589689026846138 0.056738509419795163 -0.15801902515829974 0.12480997097206199 0.13771199775064125 -0.15189213117317985 0.12881685213393324 0.1270233571416878 -0.15068341700737672 0.12534034728954244 0.1252587517400105 0.12492737873369592 -0.15076460389262109 0.12484260749154888
leaf_weight=3.4542802721261969 4.6958316862583187 4.0852491706609717 3.8453519940376273 4.5710789859294918 3.6631535589695146 3.5864136815071097 4.722136095166209 3.3936829566955558 3.3268520981073371 4.6875424832105628 3.2253871709108344 3.7018137127161008 6.7081295102834702 8.0401577204465848 3.3472545444965363
leaf_count=21 20 17 18 20 23 19 21 20 20 21 20 23 42 36 21
internal_value=0 0.0948472 0.117354 -0.142686 0.124129 0.12712 -0.152495 0.125732 0.125295 -0.151048 0.125017 0.124957 0.125045 -0.150735 0.124826
internal_weight=0 42.3376 38.2523 26.7167 34.407 30.9527 22.0209 27.3663 23.9726 17.4498 20.6457 17.4204 10.4099 12.7277 7.01041
internal_count=362 244 227 118 209 188 98 169 149 78 129 109 65 57 44
is_linear=0
shrinkage=0.1


Tree=7
num_leaves=17
num_cat=0
split_feature=14 9 8 0 7 9 14 5 9 12 3 2 5 3 13 3
split_gain=79.652 16.232 6.03962 0.378693 0.259495 0.0750559 0.0638669 0.00394717 0.000603321 0.000313046 0.000147834 1.22821e-05 1.08728e-05 1.29594e-05 3.69906e-06 5.77181e-07
threshold=0.13130000000000003 17.220000000000002 24.195000000000004 14.595000000000001 3.0160000000000005 15.570000000000002 0.16030000000000003 0.034605000000000004 14.520000000000001 0.072760000000000019 0.18005000000000002 1071.5000000000002 0.017660000000000006 0.075985000000000011 0.17940000000000003 0.056560000000000006
decision_type=2 2 2 2 2 2 2 2 2 2 2 2 2 2 2 2
left_child=1 4 -2 -4 5 7 -5 8 9 -1 11 -8 15 -14 -15 -11
right_child=2 -3 3 6 -6 -7 10 -9 -10 12 -12 -13 13 14 -16 -17
leaf_value=0.12312442570679721 -0.015929476458603011 -0.11491496424197967 -0.11471062191625814 -0.15718606907404054 0.094626101724545122 0.13878020920691006 -0.14339346957776286 0.12614889919509242 0.12360652004652364 0.12189783789616465 -0.14420131550426324 -0.14361360781445467 0.12223762659811011 0.12193465233596784 0.12208410398651655 0.12195718051996261
leaf_weight=3.0497404932975902 4.597691863775256 3.1745647788047782 4.498214706778529 4.5924974679946926 3.1925418823957434 3.3247837126255027 4.2206181436777097 3.19563303887844 3.5456612110137931 3.6842481940984753 4.6697788387536994 6.3438275009393692 3.7197608351707441 3.5406233072280884 3.1115016490221024 2.9524382054805756
leaf_count=20 20 13 20 21 20 18 20 20 23 25 22 30 25 24 21 20
internal_value=0 0.101148 -0.121039 -0.140906 0.121736 0.124609 -0.146849 0.122851 0.122404 0.122191 -0.143733 -0.143526 0.122024 0.122088 0.122005 0.121924
internal_weight=0 36.4915 28.9226 24.3249 33.3169 30.1244 19.8267 26.7996 23.604 20.0583 15.2342 10.5644 17.0086 10.3719 6.65212 6.63669
internal_count=362 229 133 113 216 196 93 178 158 135 72 50 115 70 45 45
is_linear=0
shrinkage=0.1


Tree=8
num_leaves=15
num_cat=0
split_feature=14 11 8 9 1 11 5 2 0 12 14 7 3 1
split_gain=69.1082 19.0381 2.4509 1.29142 0.442855 0.708324 0.0140034 0.012682 0.000340582 9.97168e-05 8.62033e-05 1.80285e-05 6.18246e-06 2.29423e-06
threshold=0.14525000000000002 953.70000000000016 32.985000000000007 16.330000000000002 94.060000000000016 706.10000000000014 0.037415000000000004 770.05000000000007 13.005000000000001 0.080035000000000009 0.17355000000000001 2.3550000000000004 0.055715000000000008 123.50000000000001
decision_type=2 2 2 2 2 2 2 2 2 2 2 2 2 2
left_child=1 2 4 -2 5 6 8 -5 9 -1 -9 12 -11 -12
right_child=3 -3 -4 7 -6 -7 -8 10 -10 11 13 -13 -14 -15
leaf_value=0.12018155696908508 -0.080873872133582714 -0.15044725613808188 0.033525238473320347 -0.14414934539627142 0.15484823586550528 0.069969621161448461 0.12715879128427332 -0.13828542161655882 0.12072141950590876 0.11960837069235473 -0.13771558183283616 0.11977458701646751 0.11944781734845936 -0.13781127777735938
leaf_weight=2.9328217059374024 4.6926100403070476 3.0654724538326255 3.7649621218442908 4.160227537155154 3.1022540777921668 3.1003301292657843 2.9659698009490958 4.8041361868381491 3.5473202913999549 3.2886852025985709 3.9772147089242917 2.7557125240564337 8.8596862852573377 6.7690969556570053
leaf_count=21 20 13 22 20 16 19 19 24 25 24 20 20 65 34
internal_value=0 0.0883253 0.109654 -0.128021 0.119035 0.114988 0.12072 -0.139245 0.119827 0.119649 -0.137933 0.119544 0.119491 -0.137776
internal_weight=0 37.3832 34.3177 24.4033 30.5528 27.4505 24.3502 19.7107 21.3842 17.8369 15.5504 14.9041 12.1484 10.7463
internal_count=362 244 231 118 209 193 174 98 155 130 78 109 89 54
is_linear=0
shrinkage=0.1


Tree=9
num_leaves=17
num_cat=0
split_feature=14 9 8 0 12 5 14 9 8 11 3 2 5 5 4 3
split_gain=60.2009 12.7194 5.14424 0.413218 0.282958 0.0592205 0.0456769 0.00464447 0.000350776 0.000210218 0.000119973 8.33087e-06 3.37476e-06 9.9536e-06 2.30054e-06 2.53308e-07
threshold=0.13130000000000003 17.220000000000002 24.195000000000004 14.595000000000001 0.07090500000000001 0.045830000000000003 0.16030000000000003 15.345000000000001 26.445000000000004 629.05000000000007 0.18005000000000002 1071.5000000000002 0.017660000000000006 0.023115000000000004 0.048450000000000007 0.056560000000000006
decision_type=2 2 2 2 2 2 2 2 2 2 2 2 2 2 2 2
left_child=1 4 -2 -4 -1 7 -5 8 9 12 11 -8 15 -14 -15 -6
right_child=2 -3 3 6 5 -7 10 -9 -10 -11 -12 -13 13 14 -16 -17
leaf_value=0.088414878774819017 -0.012101697455281652 -0.095761627450128325 -0.10126703217646815 -0.14508586775425855 0.11720269016888292 0.13365763559717378 -0.13271775831948882 0.12201216173857872 0.11858431519657704 0.11826241407155724 -0.13348184162086893 -0.13291097480189371 0.1174569583476564 0.11717480446132059 0.11730546470306782 0.11724615276143452
leaf_weight=3.2309006601572099 4.5448746979236629 3.1378978043794623 4.3014102578163174 4.1055239140987423 2.8803742676973476 2.7613394260406485 3.7146686315536481 2.735794134438037 3.1656022667884818 2.6056402400135985 4.1232473105192176 5.5890673995018005 3.4156458824872953 2.7519267648458481 2.6405577957630157 2.5090728998184204
leaf_count=24 20 13 20 21 23 16 20 19 24 20 22 30 27 22 21 20
internal_value=0 0.095391 -0.108893 -0.129041 0.116293 0.11983 -0.135855 0.118148 0.117619 0.117437 -0.133033 -0.132834 0.117285 0.117323 0.117239 0.117223
internal_weight=0 31.8348 26.3788 21.8339 28.6969 25.466 17.5325 22.7046 19.9688 16.8032 13.427 9.30374 14.1976 8.80813 5.39248 5.38945
internal_count=362 229 133 113 216 192 93 176 157 133 72 50 113 70 43 43
is_linear=0
shrinkage=0.1


Tree=10
num_leaves=17
num_cat=0
split_feature=5 9 10 3 5 14 2 7 2 14 0 7 1 13 14 12
split_gain=51.3916 7.20428 6.22195 0.40488 1.09293 0.147685 0.138365 0.150965 0.000987376 0.000981917 0.000222611 6.11666e-05 2.07963e-05 3.00951e-06 6.36804e-07 3.591e-07
threshold=0.050100000000000006 15.870000000000003 113.15000000000002 0.058510000000000006 0.017660000000000006 0.11915000000000002 732.55000000000007 3.3985000000000007 569.95000000000016 0.16610000000000003 12.170000000000002 2.5500000000000003 81.320000000000007 0.19400000000000003 0.070705000000000018 0.38730000000000003
decision_type=2 2 2 2 2 2 2 2 2 2 2 2 2 2 2 2
left_child=2 -2 3 4 10 8 -3 -8 11 -9 -1 12 13 14 -5 -11
right_child=1 6 -4 5 -6 -7 7 9 -10 15 -12 -13 -14 -15 -16 -17
leaf_value=0.11558689633746894 -0.0034123235608842411 -0.14460179000773032 -0.046082307918377731 0.1153040982110427 0.037573962272040053 0.14198750024594736 -0.10599668324846417 -0.13076251464064065 0.11766111501473281 -0.12884749486248123 0.11681211557643362 0.11597015424493458 0.11565874686230625 0.11540678941294986 0.1152296519201586 -0.12880570366133409
leaf_weight=3.497125364840036 5.9868991971015957 4.190799459815028 2.804687798023223 2.3022266551852244 2.5025138109922409 2.5628212690353385 3.5475686937570563 3.7638416439294806 2.6353554129600516 3.4752498716115934 2.5747007355093956 2.3727919906377783 2.3389609083533287 2.3134371861815453 2.2937879711389542 5.0350690186023712
leaf_count=30 28 21 12 20 20 14 20 21 21 20 21 20 20 20 20 29
internal_value=0 -0.0996541 0.0952599 0.110871 0.0931859 0.119886 -0.128446 -0.124166 0.115914 -0.129418 0.116106 0.115517 0.115401 0.115314 0.115267 -0.128823
internal_weight=0 25.9994 28.1984 25.3937 8.57434 16.8194 20.0125 15.8217 14.2566 12.2742 6.07183 11.6212 9.24841 6.90945 4.59601 8.51032
internal_count=357 139 218 206 71 135 111 90 121 70 51 100 80 60 40 49
is_linear=0
shrinkage=0.1


Tree=11
num_leaves=17
num_cat=0
split_feature=5 14 0 10 3 10 14 8 14 11 0 7 10 4 13 5
split_gain=44.5932 6.75701 6.41846 5.62137 0.40064 1.10979 0.202974 0.341131 0.104104 0.000704103 0.000140133 4.09609e-05 2.1173e-05 1.38741e-05 2.08915e-06 4.69923e-07
threshold=0.050100000000000006 0.16030000000000003 14.595000000000001 113.15000000000002 0.058510000000000006 91.420000000000002 0.17695000000000002 40.855000000000004 0.11915000000000002 687.10000000000014 11.050000000000002 2.5500000000000003 91.960000000000022 0.16675000000000004 0.19245000000000004 0.023115000000000004
decision_type=2 2 2 2 2 2 2 2 2 2 2 2 2 2 2 2
left_child=3 2 -2 4 5 10 -3 -8 9 11 -1 12 14 -9 15 -6
right_child=1 6 -4 -5 8 -7 7 13 -10 -11 -12 -13 -14 -15 -16 -17
leaf_value=0.1138321117138279 0.068924230849085166 -0.10944351358177457 -0.11307882371069398 -0.041448697439323667 0.1136379363962325 0.033202172753439833 -0.16023086168906828 -0.12555495673775835 0.13682323174061048 0.11575848538912387 0.11486146488547953 0.11422191317327245 0.11400789027637517 -0.12529791881377073 0.11372696423514009 0.11357196584684093
leaf_weight=2.1335047855973297 4.0755034238100079 3.6674377173185375 3.6938154548406601 2.8062921911478034 2.2177937701344472 2.398353785276413 4.0450011789798728 3.2419264912605268 2.4018874689936629 2.3099652379751197 3.4794066995382309 2.1781607791781417 2.1535937339067459 5.9615635871887207 2.1225375905632973 2.1042202040553093
leaf_count=20 20 21 21 12 21 20 20 20 14 20 31 20 20 37 20 20
internal_value=0 -0.0948062 -0.0176066 0.0923211 0.108296 0.0901408 -0.130263 -0.136026 0.117687 0.114174 0.11447 0.113835 0.113736 -0.125388 0.113646 0.113606
internal_weight=0 24.6852 7.76932 26.3057 23.4994 8.01127 16.9159 13.2485 15.4882 13.0863 5.61291 10.7763 8.59815 9.20349 6.44455 4.32201
internal_count=357 139 41 218 206 71 98 77 135 121 51 101 81 57 61 41
is_linear=0
shrinkage=0.1


Tree=12
num_leaves=15
num_cat=0
split_feature=5 9 9 3 4 12 14 0 10 11 14 7 13 5
split_gain=38.8017 6.49986 5.13759 0.401241 1.28846 0.137402 0.0725231 0.0622654 0.000394485 0.000296127 3.78818e-05 3.14292e-05 2.89553e-06 5.42965e-07
threshold=0.050100000000000006 15.870000000000003 16.875000000000004 0.058510000000000006 0.022785000000000003 0.30130000000000007 0.11915000000000002 15.635000000000002 84.035000000000011 644.80000000000007 0.19720000000000001 2.4895000000000005 0.22655000000000003 0.026085000000000004
decision_type=2 2 2 2 2 2 2 2 2 2 2 2 2 2
left_child=2 -2 3 4 8 -3 9 -7 -1 11 -9 12 13 -5
right_child=1 5 -4 6 -6 7 -8 10 -10 -11 -12 -13 -14 -15
leaf_value=0.11249931975343966 0.00031565273202251062 -0.10811871260868891 -0.038228971128402053 0.11217122138489076 0.021377247210636215 -0.13829229809998481 0.13163823766190927 -0.12281829809478989 0.11421628909533299 0.11346210358982485 -0.12237589708488411 0.1126360253181217 0.1122864079952931 0.11210359634347192
leaf_weight=2.7618765607476297 5.8814725875854519 5.4779200404882458 2.7897218167781821 3.095430374145506 2.1294395923614502 3.5746956765651694 2.3958678990602484 3.0235532373189908 2.5958703681826591 2.7971365228295317 5.3786918371915817 1.9901164919137952 2.0463183000683784 1.9260482415556905
leaf_count=28 28 35 12 32 19 20 15 20 24 27 36 20 21 20
internal_value=0 -0.0906026 0.0895268 0.105922 0.0871785 -0.121238 0.11577 -0.127238 0.113331 0.112563 -0.122535 0.112285 0.112186 0.112145
internal_weight=0 23.3363 24.5278 21.7381 7.48719 17.4549 14.2509 11.9769 5.35775 11.855 8.40225 9.05791 7.0678 5.02148
internal_count=357 139 218 206 71 111 135 76 52 120 56 93 73 52
is_linear=0
shrinkage=0.1


Tree=13
num_leaves=17
num_cat=0
split_feature=10 14 11 13 5 11 8 6 4 14 3 4 7 12 5 12
split_gain=34.1153 14.2782 3.75152 3.7526 0.876288 1.04769 0.152272 0.19705 0.00478766 0.000423251 0.000247679 0.000209362 1.82771e-05 4.1301e-06 2.89128e-06 3.80688e-07
threshold=116.05000000000003 0.17695000000000002 727.10000000000002 0.26490000000000008 0.052555000000000004 653.45000000000016 44.525000000000006 0.56755000000000011 0.080495000000000025 0.16610000000000003 0.058510000000000006 0.018285000000000003 2.2245000000000004 0.39415000000000006 0.027995000000000003 0.19995000000000002
decision_type=2 2 2 2 2 2 2 2 2 2 2 2 2 2 2 2
left_child=1 2 4 -4 5 8 -2 -8 10 -9 11 -1 14 -11 15 -12
right_child=6 -3 3 -5 -6 -7 7 9 -10 13 12 -13 -14 -15 -16 -17
leaf_value=0.11134873528827434 -0.13675422783757732 -0.16904578863106265 0.10670579025936787 -0.037174665263190715 0.16750055024442562 0.046996120228475387 -0.090413918738016977 -0.12129081971356169 0.11681216758863316 -0.119915708554763 0.11087865015735734 0.11265697973905825 0.11122555286879419 -0.11975167763201994 0.11075393713414952 0.11094117879863788
leaf_weight=3.1976638734340792 3.4951588064432135 2.3973469883203498 3.1857892498373976 4.2058270648121834 2.2248383462429038 2.9918415993452063 2.9152825474739066 2.8832279145717603 1.8133650943636883 2.7697370052337646 2.0351980775594716 1.9811544641852377 1.8125995472073553 3.4433007538318634 1.7523061558604238 1.8667470216751096
leaf_count=35 21 11 23 21 11 29 20 20 17 20 23 20 20 25 20 21
internal_value=0 0.064861 0.0855781 0.0248379 0.108396 0.100861 -0.118384 -0.113038 0.112007 -0.120289 0.111318 0.111849 0.110949 -0.119825 0.110861 0.110909
internal_weight=0 29.4647 27.0673 7.39162 19.6757 17.4509 15.5067 12.0115 14.459 9.09627 12.6457 5.17882 7.46685 6.21304 5.65425 3.90195
internal_count=357 251 240 44 196 185 106 85 156 65 139 55 84 45 64 44
is_linear=0
shrinkage=0.1


Tree=14
num_leaves=16
num_cat=0
split_feature=5 14 0 10 3 4 14 2 14 9 10 7 12 5 4
split_gain=29.9779 5.55204 4.45931 4.25472 0.444807 1.44949 0.152803 0.169498 0.0582808 0.000800931 0.000290181 2.19796e-05 1.83699e-05 2.75888e-06 4.07435e-07
threshold=0.050100000000000006 0.16030000000000003 14.595000000000001 113.15000000000002 0.058510000000000006 0.023450000000000002 0.17870000000000003 799.40000000000009 0.12830000000000003 14.520000000000001 84.035000000000011 2.5500000000000003 0.38435000000000002 0.028350000000000004 0.040240000000000005
decision_type=2 2 2 2 2 2 2 2 2 2 2 2 2 2 2
left_child=3 2 -2 4 5 10 -3 -8 9 11 -1 13 -9 14 -6
right_child=1 6 -4 -5 8 -7 7 12 -10 -11 -12 -13 -14 -15 -16
leaf_value=0.11001430847361704 0.061169434146875402 -0.10339889149081155 -0.10034604764133717 -0.031368190543099569 0.10973662805636038 0.0061405386730028315 -0.14510321163087456 -0.11786467796526612 0.12985908496445495 0.11185992311325139 0.1116029253460291 0.1101259094547537 -0.11753205214088176 0.1096174388094745 0.10979956987595961
leaf_weight=2.3962186127901139 3.8334810286760357 3.7663330510258666 3.0850242972373962 2.7491445988416663 2.5873494073748571 1.8577796816825864 3.4189333841204625 3.3419319018721581 1.7851610928773869 2.4933571070432663 2.2105481252074242 1.668188728392124 3.2996585890650749 1.9197061508893964 1.7069242447614668
leaf_count=29 20 26 21 12 32 18 20 26 11 27 24 20 26 24 21
internal_value=0 -0.0839861 -0.0108518 0.0847609 0.101902 0.0807063 -0.12058 -0.127012 0.113169 0.110298 0.110777 0.109804 -0.117699 0.109717 0.109762
internal_weight=0 20.7454 6.91851 21.3744 18.6252 6.46455 13.8269 10.0605 12.1607 10.3755 4.60677 7.88217 6.64159 6.21398 4.29427
internal_count=357 139 41 218 206 71 98 72 135 124 53 97 52 77 53
is_linear=0
shrinkage=0.1


Tree=15
num_leaves=17
num_cat=0
split_feature=14 8 2 9 5 5 0 14 3 4 11 12 0 7 13 5
split_gain=29.2185 7.31386 4.27157 0.640168 0.0481924 0.0394342 0.00197513 0.00030225 0.00028042 0.000328013 8.46497e-05 6.48254e-05 4.28801e-05 2.50979e-05 5.73714e-07 4.81545e-08
threshold=0.11325000000000002 23.930000000000003 691.95000000000016 16.765000000000004 0.066985000000000003 0.044155000000000007 13.855000000000002 0.17355000000000001 0.057520000000000009 0.019955000000000004 624.35000000000014 0.072760000000000019 17.960000000000004 2.4895000000000005 0.19400000000000003 0.024185000000000002
decision_type=2 2 2 2 2 2 2 2 2 2 2 2 2 2 2 2
left_child=2 -2 5 -3 -5 6 8 -6 9 11 13 -1 -9 14 15 -10
right_child=1 3 -4 4 7 -7 -8 12 10 -11 -12 -13 -14 -15 -16 -17
leaf_value=0.10977919257168021 0.031011044066607381 -0.073920157355476579 -0.04619045303678395 -0.13062657156272575 -0.11679626172824849 0.12589467468544102 0.11301950503863752 -0.11525934898588933 0.10872548052999008 0.11104440370553258 0.10965428431721598 0.10886460011663926 -0.11579861664835088 0.1091981171134605 0.10878973157210436 0.10870198766927884
leaf_weight=1.6099366694688861 4.8774354234337833 4.1004901677370098 1.9200018048286427 2.9428944662213317 3.1935913488268834 1.6898579373955716 1.6590586155652989 2.29561947286129 2.1405453532934176 1.7711624428629873 1.6013187691569326 1.4942896217107771 4.1223530992865562 1.5395069569349287 1.4852837622165678 1.4728350341320036
leaf_count=20 28 24 9 20 26 14 17 20 29 20 20 20 35 20 20 20
internal_value=0 -0.0766858 0.0949626 -0.108225 -0.11943 0.111424 0.109769 -0.116001 0.109357 0.109959 0.109002 0.109339 -0.115606 0.108844 0.108737 0.108716
internal_weight=0 21.5324 18.3838 16.6549 12.5545 16.4638 14.7739 9.61156 13.1149 4.87539 8.23949 3.10423 6.41797 6.63817 5.09866 3.61338
internal_count=362 153 209 125 101 200 186 81 169 60 109 40 55 89 69 49
is_linear=0
shrinkage=0.1


Tree=16
num_leaves=16
num_cat=0
split_feature=14 9 8 14 10 0 10 2 5 11 3 5 12 7 10
split_gain=25.8749 8.98919 2.88628 1.03408 1.36857 0.788566 1.20798 0.104153 0.0228151 0.000585019 0.000143257 0.000144045 1.11483e-05 1.79404e-06 3.45458e-07
threshold=0.14525000000000002 17.750000000000004 32.985000000000007 0.17695000000000002 122.90000000000002 14.805000000000001 104.10000000000001 785.60000000000014 0.047885000000000004 632.50000000000011 0.057520000000000009 0.012565000000000002 0.38435000000000002 2.0830000000000006 87.715000000000018
decision_type=2 2 2 2 2 2 2 2 2 2 2 2 2 2 2
left_child=1 2 5 4 -2 6 8 -5 9 10 11 -1 -9 14 -12
right_child=3 -3 -4 7 -6 -7 -8 12 -10 -11 13 -13 -14 -15 -16
leaf_value=0.10810084106222401 -0.023026351395806829 -0.10910570516110302 -0.003971864411935323 -0.13700197705084582 -0.11451784405395678 0.17384335616299265 0.016456420793923607 -0.11411316709236162 0.12191916895357464 0.10982073540555624 0.10782274104070372 0.10936798593882147 -0.11382512819315366 0.10795497532626251 0.10788393474976155
leaf_weight=2.0077527984976862 3.2221553772687903 2.4839911684393874 2.6786267459392539 3.0934301465749723 3.3190925121307373 1.6271695122122753 1.5351970195770253 2.7082926258444786 1.411831073462962 2.7164080739021292 2.8932076469063759 1.6217505410313604 2.6668545752763748 2.1149694845080376 1.3543998450040815
leaf_count=29 18 13 22 20 30 10 10 25 11 34 43 21 25 31 20
internal_value=0 0.0702921 0.0926164 -0.0993151 -0.06945 0.107587 0.1007 -0.122383 0.109859 0.108519 0.108166 0.108667 -0.11397 0.10788 0.107842
internal_weight=0 22.4453 19.9613 15.0098 6.54125 17.2827 15.6555 8.46858 14.1203 12.7085 9.99208 3.6295 5.37515 6.36258 4.24761
internal_count=362 244 231 118 48 209 199 70 189 178 144 50 50 94 63
is_linear=0
shrinkage=0.1


Tree=17
num_leaves=16
num_cat=0
split_feature=14 8 2 10 5 4 0 14 8 3 4 0 6 7 14
split_gain=22.8791 6.03166 3.82827 0.783402 0.0372658 0.0302002 0.0015834 0.000255572 0.000156053 0.000130958 0.000173715 3.29035e-05 1.38531e-05 7.04762e-07 1.22615e-07
threshold=0.11325000000000002 23.930000000000003 691.95000000000016 111.7 0.045830000000000003 0.11130000000000001 13.890000000000002 0.17355000000000001 29.295000000000005 0.057520000000000009 0.019770000000000006 12.895000000000001 0.55885000000000007 2.1110000000000002 0.08426500000000002
decision_type=2 2 2 2 2 2 2 2 2 2 2 2 2 2 2
left_child=2 -2 4 -3 6 -5 8 -7 9 10 -1 13 -9 14 -11
right_child=1 3 -4 5 -6 7 -8 12 -10 11 -12 -13 -14 -15 -16
leaf_value=0.10734948231670149 0.027511509242528105 -0.061839799889513075 -0.042360750730216216 -0.12526241840708327 0.12570395434509982 -0.11363390628112482 0.11128351544559066 -0.11268953757547849 0.10857291091201943 0.10704395913975069 0.10874126684696844 0.10761893049649665 -0.11235940250687211 0.10711354848606779 0.10700450872021799
leaf_weight=2.160845302045344 4.7173015028238323 3.5658717378973952 1.8808625191450108 2.5687843933701506 1.3092533834278572 2.9335365965962392 1.2996259368956078 1.9885249212384222 1.4329773746430863 2.2130328565835957 1.5330326855182645 1.3110145665705202 3.5228421166539192 1.4255676269531248 1.2233624309301374
leaf_count=34 28 21 9 20 11 28 15 20 20 36 21 20 36 23 20
internal_value=0 -0.0707765 0.0915393 -0.102578 0.109647 -0.115768 0.107978 -0.11288 0.107598 0.107456 0.107927 0.107174 -0.112479 0.107054 0.10703
internal_weight=0 19.2969 15.7896 14.5796 13.9087 11.0137 12.5995 8.4449 11.2998 9.86686 3.69388 6.17298 5.51137 4.86196 3.4364
internal_count=362 153 209 125 200 104 189 84 174 154 55 99 56 79 56
is_linear=0
shrinkage=0.1


Tree=18
num_leaves=17
num_cat=0
split_feature=14 9 8 8 12 3 10 13 10 5 2 11 3 5 7 10
split_gain=20.193 6.83685 3.78794 2.27551 0.408284 0.660501 0.384437 0.15336 0.128694 0.00259754 0.001017 0.000203232 6.82333e-05 6.54118e-05 7.27937e-06 4.57527e-07
threshold=0.13130000000000003 17.750000000000004 23.930000000000003 36.100000000000009 0.40870000000000006 0.14760000000000004 108.95 0.37495000000000006 129.20000000000002 0.043115000000000007 596.25000000000011 632.50000000000011 0.057520000000000009 0.012565000000000002 2.0830000000000006 87.715000000000018
decision_type=2 2 2 2 2 2 2 2 2 2 2 2 2 2 2 2
left_child=1 3 -2 6 5 7 9 -4 -6 10 11 12 13 -1 15 -14
right_child=2 -3 4 -5 8 -7 -8 -9 -10 -11 -12 -13 14 -15 -16 -17
leaf_value=0.1066106651531431 0.011906830316140036 -0.096681265100845196 -0.12300907758564955 -0.022851884659864506 -0.14566257774584065 -0.045447071085981755 0.16595655641450449 -0.089688843296710924 -0.11107709462941695 0.11214859428787083 0.10987834312956557 0.10783621238558899 0.10631448643503004 0.10753859075265096 0.10658785575499329 0.1063919827993878
leaf_weight=1.7384386733174344 3.5579103678464881 1.9857892990112294 3.4519020617008191 1.3563288673758496 2.3644963726401329 2.2182721197605133 1.2431248724460591 2.3028277531266212 1.9742089509963987 1.1599720343947399 1.2432063035666931 1.7214557230472554 2.3462899774312977 1.3493136018514631 1.7905139215290544 1.1281129047274587
leaf_count=30 18 10 32 13 18 20 6 23 22 14 16 26 42 21 31 20
internal_value=0 0.0777376 -0.0789756 0.100711 -0.105239 -0.0918057 0.112925 -0.109676 -0.129925 0.107642 0.10718 0.106847 0.106643 0.107016 0.106424 0.10634
internal_weight=0 17.0625 15.8696 15.0768 12.3117 7.973 13.7204 5.75473 4.33871 12.4773 11.3173 10.0741 8.35267 3.08775 5.26492 3.4744
internal_count=362 229 133 219 115 75 206 55 40 200 186 170 144 51 93 62
is_linear=0
shrinkage=0.1


Tree=19
num_leaves=16
num_cat=0
split_feature=11 14 6 12 12 12 9 14 8 3 4 12 14 12 12
split_gain=18.2291 6.47919 4.09137 2.04289 1.78943 0.351354 0.182145 0.152157 0.00180171 8.79152e-05 0.000133301 7.67074e-05 1.12709e-05 7.72302e-07 1.70417e-07
threshold=689.00000000000011 0.14525000000000002 0.39920000000000005 0.28535000000000005 0.40870000000000006 0.2748000000000001 17.385000000000002 0.12515000000000001 31.005000000000006 0.057520000000000009 0.019770000000000006 0.41870000000000007 0.090275000000000008 0.16490000000000002 0.19995000000000002
decision_type=2 2 2 2 2 2 2 2 2 2 2 2 2 2 2
left_child=4 2 3 -2 7 -3 -7 8 9 10 -1 -8 13 -11 -15
right_child=1 5 -4 -5 -6 6 11 -9 -10 12 -12 -13 -14 14 -16
leaf_value=0.10592754804766387 0.10801961663749129 -0.077679938199446352 -0.096001766106647721 -0.015758681429702402 -0.014749884685429671 -0.14179917937478281 -0.1104346240788418 0.1439526834414355 0.1102588360567604 0.10578826028463487 0.10725770832600932 -0.10967031388416688 0.10605160469282832 0.1056674684675 0.10571982573111405
leaf_weight=1.7902200445532819 3.2211889326572436 2.4853660389780989 2.5733072012662888 2.2751776278018951 1.2678520269691933 2.7125145122408849 3.3320740163326263 1.2272937223315228 1.163391601294278 1.394590459764004 1.3008614927530286 2.1671160161495209 1.4959922209382055 1.1669435724616053 1.3304375670850275
leaf_count=34 33 26 17 13 8 18 39 7 15 27 21 27 28 23 26
internal_value=0 -0.0595886 0.00806176 0.0567826 0.0976761 -0.110623 -0.120593 0.11079 0.106569 0.106062 0.106487 -0.110133 0.105818 0.105729 0.105695
internal_weight=0 18.7667 8.06967 5.49637 12.1376 10.6971 8.2117 10.8697 9.64244 8.47905 3.09108 5.49919 5.38796 3.89197 2.49738
internal_count=362 173 63 46 189 110 84 181 174 159 55 66 104 76 49
is_linear=0
shrinkage=0.1


Tree=20
num_leaves=16
num_cat=0
split_feature=14 9 8 1 10 14 7 7 9 5 9 11 12 3 14
split_gain=15.4069 7.53189 1.95919 1.02557 2.23181 0.421835 0.259936 0.672025 0.0661815 0.0416024 0.000372202 0.000309201 1.98754e-05 1.32813e-05 5.89481e-06
threshold=0.16030000000000003 17.750000000000004 32.985000000000007 94.060000000000016 104.10000000000001 0.17695000000000002 1.4730000000000003 1.3410000000000004 19.190000000000001 0.048325000000000007 13.330000000000002 684.55000000000007 0.41440000000000005 0.059495000000000006 0.091835000000000014
decision_type=2 2 2 2 2 2 2 2 2 2 2 2 2 2 2
left_child=1 2 3 4 6 -2 7 10 -7 11 -1 13 -10 -8 -15
right_child=5 -3 -4 -5 -6 8 9 -9 12 -11 -12 -13 -14 14 -16
leaf_value=0.1052212113330524 -0.066940990078843396 -0.094022738535287628 -0.013917832032911401 0.15036398367856904 -0.019455693438453738 -0.12936748187556582 0.10559457698012527 0.0066284903392801343 -0.10928485657758136 0.12679023129984743 0.10790111486524717 0.10723092908189058 -0.10885312644906396 0.10515288170980815 0.1054427052808008
leaf_weight=1.0342890173196888 2.2731955051422101 2.9636327847838393 1.9918016456067551 2.4826335161924353 1.9076314345002163 2.5576781630516052 1.4418154656887052 0.99628087133169163 2.4859355688095093 1.1051700226962564 1.0387257784605024 1.0477277450263498 1.8673028424382208 2.5148364529013638 0.97342260554432858
leaf_count=22 22 25 17 18 10 20 29 18 32 9 18 18 25 54 20
internal_value=0 0.0527814 0.0790948 0.0918341 0.0797853 -0.104309 0.0984329 0.0741254 -0.116601 0.108966 0.106564 0.105671 -0.1091 0.105339 0.105234
internal_weight=0 19.498 16.5343 14.5425 12.0599 9.18411 10.1523 3.0693 6.91092 7.08297 2.07301 5.9778 4.35324 4.93007 3.48826
internal_count=357 258 233 216 198 99 188 58 77 130 40 121 57 103 74
is_linear=0
shrinkage=0.1


Tree=21
num_leaves=15
num_cat=0
split_feature=14 9 11 1 13 14 14 10 6 2 12 12 13 1
split_gain=13.4779 6.50846 1.88627 1.80136 1.55891 0.444379 0.0841013 0.0510149 0.000865076 4.38163e-05 1.99309e-05 1.80283e-05 1.50114e-06 4.13049e-07
threshold=0.16030000000000003 17.750000000000004 653.45000000000016 94.060000000000016 0.26490000000000008 0.17695000000000002 0.12105 126.80000000000003 0.40995000000000009 492.00000000000006 0.10350000000000002 0.41440000000000005 0.19780000000000003 71.095000000000013
decision_type=2 2 2 2 2 2 2 2 2 2 2 2 2 2
left_child=1 2 6 4 -4 -2 8 -7 9 10 -1 -9 13 -12
right_child=5 -3 3 -5 -6 7 -8 11 -10 -11 12 -13 -14 -15
leaf_value=0.10511227201957934 -0.062674545839436518 -0.089905350456949473 0.064108355175795759 0.10293548365502186 -0.051422145430982502 -0.12677837759046429 0.13669087319522177 -0.10832375901803798 0.10817827036156208 0.10547359273361899 0.10468843780647447 -0.10789735953751114 0.10477978155620714 0.10459949680274094
leaf_weight=1.599995180964475 2.1896302476525289 2.7981075868010512 2.1638059951364985 2.8113628625869751 2.5377748422324657 2.3094310089945793 0.97661694511771191 2.2683030962944031 0.96819594874978054 1.3194436170160768 0.85368163883686143 1.7616575993597505 1.0415545962750909 1.3445321097970007
leaf_count=35 22 25 35 22 14 19 7 32 16 28 20 26 24 32
internal_value=0 0.0505436 0.075708 0.0396129 0.00174839 -0.101513 0.10917 -0.114928 0.1054 0.104963 0.104824 -0.108137 0.104681 0.104634
internal_weight=0 18.4151 15.617 7.51294 4.70158 8.52902 8.10402 6.33939 7.1274 6.15921 4.83976 4.02996 3.23977 2.19821
internal_count=357 258 233 71 49 99 162 77 155 139 111 58 76 52
is_linear=0
shrinkage=0.1


Tree=22
num_leaves=15
num_cat=0
split_feature=14 9 11 1 10 14 14 10 6 2 12 12 13 1
split_gain=11.8067 5.64291 1.8736 1.53569 1.35755 0.466815 0.0559433 0.0393006 0.000635611 3.23517e-05 1.49207e-05 9.48287e-06 1.02236e-06 3.70497e-07
threshold=0.16030000000000003 17.750000000000004 653.45000000000016 94.060000000000016 101.80000000000003 0.17695000000000002 0.11915000000000002 125.20000000000002 0.40995000000000009 492.00000000000006 0.10350000000000002 0.41440000000000005 0.19780000000000003 71.095000000000013
decision_type=2 2 2 2 2 2 2 2 2 2 2 2 2 2
left_child=1 2 6 4 -4 -2 8 -7 9 10 -1 -9 13 -12
right_child=5 -3 3 -5 -6 7 -8 11 -10 -11 12 -13 -14 -15
leaf_value=0.10460282742526628 -0.058546105427188536 -0.085916667857888041 0.062191724352679958 0.096727825111715723 -0.047127039495473637 -0.1245156395177559 0.13041283720764579 -0.10746930888859779 0.10736024682128742 0.10492903041404014 0.10422253051375666 -0.10714932768736576 0.10429734191096414 0.10413357656500935
leaf_weight=1.4544265568256429 2.1137144938111296 2.64333876594901 2.0526149347424507 2.6986099816858768 2.5437295734882355 2.0624453984200954 0.98996875435113896 2.0679288618266587 0.88239384070038784 1.1997617520391939 0.77571999654173884 1.6774609349668024 0.90562585741281498 1.1811961606144903
leaf_count=35 22 25 35 22 14 18 9 32 16 28 20 27 23 31
internal_value=0 0.0485861 0.0727986 0.0368485 0.00169204 -0.0987855 0.108291 -0.11343 0.104868 0.10447 0.104342 -0.107326 0.104209 0.104169
internal_weight=0 17.3274 14.684 7.29495 4.59634 7.92155 7.38909 5.80784 6.39912 5.51673 4.31697 3.74539 2.86254 1.95692
internal_count=357 258 233 71 49 99 162 77 153 137 109 59 74 51
is_linear=0
shrinkage=0.1


Tree=23
num_leaves=15
num_cat=0
split_feature=14 9 8 7 13 14 7 8 10 1 3 5 12 5
split_gain=10.3373 4.88662 1.88743 0.846123 1.87962 0.488597 0.136492 0.29 0.0288862 0.00164535 2.59717e-05 1.79955e-05 6.86048e-06 3.52959e-07
threshold=0.16030000000000003 17.750000000000004 32.985000000000007 2.0755000000000003 0.21500000000000002 0.17695000000000002 2.7120000000000002 24.890000000000004 125.20000000000002 87.265000000000001 0.062730000000000022 0.010935000000000002 0.41440000000000005 0.024405000000000003
decision_type=2 2 2 2 2 2 2 2 2 2 2 2 2 2
left_child=1 2 3 4 9 -2 7 -5 -7 10 11 -1 -10 -12
right_child=5 -3 -4 6 -6 8 -8 -9 12 -11 13 -13 -14 -15
leaf_value=0.10397998265428104 -0.054565570390036837 -0.082036407856005591 -0.025463345855006998 0.13318147586312745 0.0050013580664059407 -0.12195727932244389 0.14927518281523586 0.070256562118243021 -0.10670829237710862 0.10835884491883407 0.10372785601773465 0.10460617951951463 -0.10642311383880849 0.10382497807859503
leaf_weight=0.80277809873223871 2.0448310710489741 2.4991154782474032 1.8041591159999359 1.9119550399482252 3.1483061425387859 1.9033087007701395 1.1611615940928457 1.1871768794953821 1.8838015832006934 1.2314986884593961 0.69294214993715264 1.0714354403316972 1.5276574045419691 0.81344453990459442
leaf_count=22 22 25 17 33 34 18 16 20 32 22 20 26 27 23
internal_value=0 0.0466487 0.0699111 0.0842256 0.0645681 -0.0961051 0.120033 0.109077 -0.112087 0.105229 0.104089 0.104338 -0.106581 0.10378
internal_weight=0 16.324 13.8249 12.0207 7.76041 7.3596 4.26029 3.09913 5.31477 4.6121 3.3806 1.87421 3.41146 1.50639
internal_count=357 258 233 216 147 99 69 53 77 113 91 48 59 43
is_linear=0
shrinkage=0.1


Tree=24
num_leaves=18
num_cat=0
split_feature=11 14 11 1 13 6 10 14 14 5 8 14 7 8 12 6 2
split_gain=9.10968 4.57161 3.15924 2.39879 0.973985 1.7828 0.281785 0.199977 0.00438559 0.00159365 5.09219e-05 4.0791e-05 9.93518e-06 2.13015e-05 4.05899e-06 1.97157e-06 1.58861e-06
threshold=953.70000000000016 0.17695000000000002 653.45000000000016 95.955000000000013 0.36630000000000007 0.27855000000000002 127.2 0.14620000000000002 0.16350000000000003 0.044155000000000007 26.050000000000004 0.19295000000000004 1.5145000000000002 13.245000000000003 0.41440000000000005 0.30990000000000006 432.50000000000006
decision_type=2 2 2 2 2 2 2 2 2 2 2 2 2 2 2 2 2
left_child=1 2 7 4 5 -4 -2 9 -8 10 12 -10 13 -1 -13 16 -14
right_child=6 -3 3 -5 -6 -7 8 -9 11 -11 -12 14 15 -15 -16 -17 -18
leaf_value=0.10343592481599505 -0.06019945487964512 -0.12194258688309456 0.07808543255068999 0.11426364028636248 -0.078137737084955805 -0.056886218776416468 -0.11265000838586921 0.15372237270094435 -0.10659030684855503 0.10886693907885062 0.10454881729392435 -0.1060088826137205 0.10365840701171902 0.10413145290983164 -0.10574019849655154 0.10335710257410782 0.10346398093368069
leaf_weight=0.86482858657837069 1.6346887387335289 1.5068332217633713 1.995750278234482 1.8962725810706613 1.7331280559301374 1.9202180504798887 1.4634186588227747 0.95834506303071965 1.2629258558154108 0.68701774068176735 0.66115932725369919 1.1754596754908564 0.70853884704411063 0.89709511399269104 1.0777968168258665 0.84729238785803307 1.0328678004443643
leaf_count=27 18 13 33 14 11 19 20 5 22 11 17 22 21 24 21 27 32
internal_value=0 0.0436747 0.0612461 0.0169451 -0.0157224 0.0119013 -0.0962239 0.111458 -0.10805 0.10435 0.103731 -0.106135 0.103607 0.10379 -0.10588 0.103482 0.103543
internal_weight=0 15.7093 14.2025 7.54537 5.6491 3.91597 6.61429 6.65714 4.9796 5.6988 5.01178 3.51618 4.35062 1.76192 2.25326 2.5887 1.74141
internal_count=357 254 241 77 63 52 103 164 85 159 148 65 131 51 43 80 53
is_linear=0
shrinkage=0.1


Tree=25
num_leaves=17
num_cat=0
split_feature=11 6 12 3 10 10 14 5 14 8 11 3 5 13 12 14
split_gain=10.2967 3.86193 3.42957 1.4648 0.919529 0.676689 0.119148 0.00165603 0.000649301 0.000175483 4.31205e-05 6.37717e-06 9.11417e-06 5.78096e-06 2.00285e-06 2.41726e-07
threshold=689.00000000000011 0.38455000000000006 0.28125000000000006 0.15920000000000004 110.35000000000001 130.50000000000003 0.14150000000000004 0.047885000000000004 0.17760000000000001 29.770000000000003 632.50000000000011 0.057520000000000009 0.011555000000000001 0.21500000000000002 0.39415000000000006 0.07419000000000002
decision_type=2 2 2 2 2 2 2 2 2 2 2 2 2 2 2 2
left_child=3 2 -2 6 -3 -6 7 9 -7 10 11 12 -1 15 -10 -13
right_child=1 4 -4 -5 5 8 -8 -9 14 -11 -12 13 -14 -15 -16 -17
leaf_value=0.10315042331304536 0.082674912604756845 -0.17353868848439408 -0.060899447199966018 -0.03675165945394139 -0.026598643246289425 -0.10795578268302 0.14431788250438815 0.10902945805207175 -0.10542975221170908 0.10501891209371661 0.10413013525290148 0.10300582491874113 0.10364956425766825 0.10336928549499934 -0.10523664475082309 0.10307743651741026
leaf_weight=0.76783826760947949 2.9926717393100244 1.4844304472208021 3.7466592714190483 0.76606620848178852 1.4622246809303758 1.6933090165257456 0.83994223177433003 0.61625383794307698 1.1708664111793043 0.71432215534150589 0.59780964255332936 1.0762261189520361 0.69871047511696815 0.72172771207988251 0.99225516617298115 0.83869629353284825
leaf_count=26 37 9 34 5 20 28 5 9 24 17 16 38 21 23 21 29
internal_value=0 -0.0507973 0.00285628 0.0944091 -0.103948 -0.0845254 0.109031 0.104118 -0.106489 0.103559 0.103337 0.103221 0.103388 0.103128 -0.105341 0.103037
internal_weight=0 13.5424 6.73933 7.63759 6.80309 5.31866 6.87153 6.03158 3.85643 5.41533 4.70101 4.1032 1.46655 2.63665 2.16312 1.91492
internal_count=362 173 71 189 102 93 184 179 73 170 153 137 47 90 45 67
is_linear=0
shrinkage=0.1


Tree=26
num_leaves=18
num_cat=0
split_feature=11 14 6 3 12 11 10 14 5 8 14 11 3 5 13 12 14
split_gain=9.00638 3.73331 1.89772 1.35737 1.11112 0.456604 0.0875105 0.0868476 0.00121039 0.000128955 9.08405e-05 3.16345e-05 4.68597e-06 6.69491e-06 4.24302e-06 2.86828e-06 1.77524e-07
threshold=689.00000000000011 0.14525000000000002 0.39920000000000005 0.15920000000000004 0.28535000000000005 767.10000000000002 122.90000000000002 0.14150000000000004 0.047885000000000004 29.770000000000003 0.17760000000000001 632.50000000000011 0.057520000000000009 0.011555000000000001 0.21500000000000002 0.41440000000000005 0.07419000000000002
decision_type=2 2 2 2 2 2 2 2 2 2 2 2 2 2 2 2 2
left_child=3 2 4 7 -2 -3 -7 8 9 11 -8 12 13 -1 16 -12 -14
right_child=1 5 -4 -5 -6 6 10 -9 -10 -11 15 -13 14 -15 -16 -17 -18
leaf_value=0.1028417001597481 0.092442852522784419 -0.043540606398928927 -0.070359516232943092 -0.033368447996876126 -0.0092079178512156998 -0.13398593303360223 -0.10582799324939159 0.13925286352028474 0.10810751348729919 0.10452201949219138 -0.10494160320943827 0.10372236107700578 0.10271162354854178 0.10329073850299862 0.10303849970222188 -0.10472140740013783 0.10277605055169577
leaf_weight=0.69674814864993384 2.2830060143023712 1.1511285305023191 2.153987243771553 0.75971259549260128 2.0327937081456184 1.4428949505090711 1.5520357191562655 0.78621476888656605 0.5621215235441922 0.64926134049892414 1.388514965772629 0.54293866641819466 0.97645686194300674 0.63430371321737766 0.65503587387502182 1.0306804180145261 0.76099578477442265
leaf_count=26 33 9 17 5 13 16 30 5 9 17 31 16 38 21 23 24 29
internal_value=0 -0.0476077 0.00630257 0.0928631 0.0445641 -0.100734 -0.112894 0.108173 0.103712 0.103209 -0.105231 0.103009 0.102905 0.103056 0.102822 -0.104848 0.10274
internal_weight=0 13.035 6.46979 7.02379 4.3158 6.56525 5.41413 6.26408 5.47786 4.91574 3.97123 4.26648 3.72354 1.33105 2.39249 2.4192 1.73745
internal_count=362 173 63 189 46 110 101 184 179 170 85 153 137 47 90 55 67
is_linear=0
shrinkage=0.1


Tree=27
num_leaves=18
num_cat=0
split_feature=11 14 5 3 8 10 14 5 8 14 11 3 5 12 13 6 0
split_gain=7.92439 3.38178 1.68287 1.26217 0.489409 0.0721657 0.0673776 0.00191967 0.000132089 7.74984e-05 2.32967e-05 3.91666e-06 5.9317e-06 3.71159e-06 3.23157e-06 1.38406e-07 7.46874e-08
threshold=689.00000000000011 0.14525000000000002 0.034605000000000004 0.15920000000000004 25.095000000000002 121.30000000000003 0.14525000000000002 0.050100000000000006 30.185000000000006 0.17695000000000002 632.50000000000011 0.057520000000000009 0.012565000000000002 0.41440000000000005 0.21500000000000002 0.22305000000000003 11.500000000000002
decision_type=2 2 2 2 2 2 2 2 2 2 2 2 2 2 2 2 2
left_child=3 2 -2 6 -3 -6 7 8 10 -7 11 12 -1 -11 15 -13 -17
right_child=1 4 -4 -5 5 9 -8 -9 -10 13 -12 14 -14 -15 -16 16 -18
leaf_value=0.10256601652634743 -0.050233873391492601 -0.037917497509909512 0.053341715444875197 -0.030277003089627781 -0.13199676305023073 -0.10527755561175396 0.1384930772688123 0.1091604720280307 0.10431982338620947 -0.10444938780229132 0.10335615875448197 0.10251070940256096 0.10300633937846732 -0.10418561923851524 0.10274108334093085 0.10242454456376052 0.10247700287257702
leaf_weight=0.68112182617187833 2.8949778452515584 1.0881417021155355 3.4240659903734922 0.75387616828083981 1.3199954479932783 1.4664541967213156 0.62098636478185643 0.55339373648166645 0.58791037276387204 1.2619988396763804 0.49292311258614052 0.52465866506099734 0.55541767179965973 0.92411926761269558 0.59432929940521706 0.60058726929128148 0.49517600610852242
leaf_count=28 33 9 30 5 15 31 4 8 16 31 16 22 20 24 23 26 21
internal_value=0 -0.0452961 0.00589007 0.0913319 -0.0986641 -0.111957 0.107397 0.1036 0.102922 -0.104715 0.102713 0.102621 0.102764 -0.104338 0.102542 0.102468 0.102448
internal_weight=0 12.3798 6.31904 6.46038 6.06071 4.97257 5.7065 5.08552 4.53212 3.65257 3.94421 3.45129 1.23654 2.18612 2.21475 1.62042 1.09576
internal_count=362 173 63 189 110 101 184 180 172 86 156 140 48 55 92 69 47
is_linear=0
shrinkage=0.1


Tree=28
num_leaves=19
num_cat=0
split_feature=11 14 14 6 12 8 14 10 5 8 14 11 13 3 5 12 6 0
split_gain=6.94511 3.08431 1.84414 1.60627 1.01294 0.537352 0.101704 0.0544322 0.0014 9.4461e-05 5.66057e-05 1.58746e-05 3.20929e-06 4.40262e-06 4.363e-06 2.71358e-06 1.43884e-07 5.49131e-08
threshold=689.00000000000011 0.14525000000000002 0.17355000000000001 0.39920000000000005 0.28535000000000005 24.195000000000004 0.14525000000000002 121.30000000000003 0.050100000000000006 30.185000000000006 0.17695000000000002 632.50000000000011 0.22655000000000003 0.057520000000000009 0.012565000000000002 0.41440000000000005 0.22305000000000003 11.500000000000002
decision_type=2 2 2 2 2 2 2 2 2 2 2 2 2 2 2 2 2 2
left_child=2 3 6 4 -2 -3 8 -7 9 11 -9 12 13 14 -1 -12 -15 -18
right_child=1 5 -4 -5 -6 7 -8 10 -10 -11 15 -13 -14 16 -16 -17 17 -19
leaf_value=0.10231591094778264 0.088985259643594675 -0.030019156787761486 -0.075685882173606153 -0.064941286579844049 -0.0095619024889248908 -0.12850595998180378 0.1445785916386117 -0.10475053625043007 0.10822986712581262 0.10389416654370665 -0.1040081664413411 0.10302704708147595 0.10260898617508957 0.10227565613416947 0.10271240687173491 -0.10377152720592758 0.10218851051576093 0.10223574530194168
leaf_weight=0.61773430742323776 2.1627936288714391 0.99673086777329434 0.60490423440933216 2.1485418230295181 2.0145606845617294 1.282198831439018 0.68301811441779126 1.3332377783954146 0.50481658056378353 0.53403162956237782 1.1465008221566675 0.44736742414534081 0.55556887947022904 0.49932138063013531 0.50392760336399078 0.83934422396123398 0.54462512210011482 0.44905725866556168
leaf_count=28 33 8 4 17 13 16 4 31 8 16 31 16 23 23 20 24 26 21
internal_value=0 -0.0425221 0.0897958 0.00532172 0.0414601 -0.0965868 0.108543 -0.111007 0.103257 0.102653 -0.104247 0.102469 0.102391 0.102344 0.102494 -0.103908 0.102232 0.10221
internal_weight=0 11.9239 5.94437 6.3259 4.17735 5.59801 5.33947 4.60128 4.65645 4.15163 3.31908 3.6176 3.17023 2.61467 1.12166 1.98585 1.493 0.993682
internal_count=362 173 189 63 46 110 185 102 181 173 86 157 141 118 48 55 70 47
is_linear=0
shrinkage=0.1


Tree=29
num_leaves=18
num_cat=0
split_feature=11 14 14 5 3 14 9 5 14 8 11 6 13 3 5 6 0
split_gain=6.11702 2.78868 1.66035 1.47105 0.554555 0.0723779 0.0643237 0.00102714 0.000146173 6.95089e-05 1.16741e-05 5.90294e-06 2.36707e-06 3.24113e-06 3.21145e-06 1.05914e-07 4.0396e-08
threshold=689.00000000000011 0.14525000000000002 0.17355000000000001 0.034605000000000004 0.10495000000000002 0.14525000000000002 16.045000000000005 0.050100000000000006 0.17695000000000002 30.185000000000006 632.50000000000011 0.55885000000000007 0.22655000000000003 0.057520000000000009 0.012565000000000002 0.22305000000000003 11.500000000000002
decision_type=2 2 2 2 2 2 2 2 2 2 2 2 2 2 2 2 2
left_child=2 3 5 -2 -3 7 -6 9 -8 10 12 -10 13 14 -1 -15 -17
right_child=1 4 -4 -5 6 -7 8 -9 11 -11 -12 -13 -14 15 -16 16 -18
leaf_value=0.10209070158052209 -0.047619270065563678 -0.031232123258851094 -0.06985067432081267 0.050191261030298334 -0.13308772279751188 0.13898630723478769 -0.10500938567896488 0.10739927778433458 -0.10383154278303844 0.10351175311735006 0.10273106928516279 -0.10345943216612274 0.10235499819264955 0.10205443766602995 0.10244790394414882 0.10197592165920893 0.10201846912484372
leaf_weight=0.56011934392154639 2.859653363004325 1.0921591520309446 0.59066706895828236 3.326125230640173 1.0285824462771413 0.64158526808023442 1.2384553067386153 0.46012888103723515 0.68518397770822037 0.48490597121417511 0.40590161643922318 1.1283439081162212 0.50388338975608338 0.45273414999246575 0.45708982646465302 0.49377221055328846 0.40714511461555958
leaf_count=28 33 17 4 30 9 4 29 8 20 16 16 35 23 23 20 26 21
internal_value=0 -0.0403368 0.088477 0.00497396 -0.0945214 0.107691 -0.111461 0.102939 -0.104172 0.102394 0.102229 -0.1036 0.102158 0.102116 0.102251 0.102015 0.101995
internal_weight=0 11.3585 5.45793 6.18578 5.17272 4.86727 4.08057 4.22568 3.05198 3.76555 3.28065 1.81353 2.87474 2.37086 1.01721 1.35365 0.900917
internal_count=362 173 189 63 110 185 93 181 84 173 157 55 141 118 48 70 47
is_linear=0
shrinkage=0.1


Tree=30
num_leaves=18
num_cat=0
split_feature=13 11 1 11 12 7 10 7 5 9 9 14 14 3 5 12 6
split_gain=5.01581 3.61907 2.50973 2.38466 1.55177 0.750713 0.563716 0.178793 0.0450206 0.0209318 0.000203611 0.000181634 2.24374e-05 2.59617e-06 3.50702e-06 1.24449e-06 3.7184e-08
threshold=0.21500000000000002 953.70000000000016 94.060000000000016 653.45000000000016 0.069710000000000008 2.8510000000000004 91.695000000000007 2.3550000000000004 0.050100000000000006 16.210000000000004 14.815000000000003 0.16350000000000003 0.18685000000000004 0.062255000000000012 0.010935000000000002 0.41440000000000005 0.22305000000000003
decision_type=2 2 2 2 2 2 2 2 2 2 2 2 2 2 2 2 2
left_child=4 2 3 6 -1 7 -2 9 -3 10 13 -10 -13 14 -6 -14 -15
right_child=1 8 -4 -5 5 -7 -8 -9 11 -11 -12 12 15 16 -16 -17 -18
leaf_value=-0.062826031456939699 0.11602011504560601 -0.13046826308264892 0.10584348532046715 -0.074876580085275743 0.10183506831005947 0.22948264461415577 0.0082592118747805473 0.040404090582493654 -0.10504689982206705 0.12487651490235606 0.10390279556961524 -0.10380462280048004 -0.10324697345622816 0.10185786324023061 0.10223964002760338 -0.10306350843601209 0.10181475720889979
leaf_weight=0.56994598731398838 0.9866020530462245 0.79196178168058384 1.9575797840952871 3.5424593798816204 0.35324689187109626 0.4901980236172675 0.95566156506538391 0.47656617127358902 0.92352997511625323 0.50609009899198998 0.79193501919507969 0.8262263182550672 0.72993139736354329 0.35730840638279915 0.54458068497478962 0.74924483522772789 0.45487250946462154
leaf_count=18 26 5 18 30 20 13 15 14 22 6 24 24 24 20 26 26 26
internal_value=0 -0.0326593 0.00864094 -0.0260521 0.0914861 0.113613 0.062998 0.0973128 -0.109102 0.106329 0.102577 -0.103862 -0.103387 0.101963 0.10208 -0.103154 0.101834
internal_weight=0 11.4632 7.4423 5.48472 4.54474 3.9748 1.94226 3.4846 4.02089 3.00803 2.50194 3.22893 2.3054 1.71001 0.897828 1.47918 0.812181
internal_count=357 190 89 71 167 149 41 136 101 122 116 96 74 92 46 50 46
is_linear=0
shrinkage=0.1


Tree=31
num_leaves=20
num_cat=0
split_feature=14 8 7 9 13 0 11 7 8 9 10 9 9 14 8 3 5 12 5
split_gain=4.59559 2.90749 2.59524 2.58185 1.84172 2.04303 1.82606 0.965776 0.580655 0.0157657 0.00809416 0.000481153 9.14797e-05 8.86087e-06 5.59528e-06 2.61128e-06 1.35937e-06 6.67822e-07 1.71577e-08
threshold=0.16030000000000003 56.915000000000006 3.1455000000000006 17.750000000000004 0.21500000000000002 14.405000000000003 727.10000000000002 1.6490000000000002 19.400000000000002 16.210000000000004 110.35000000000001 14.710000000000003 19.885000000000005 0.18440000000000004 25.095000000000002 0.062255000000000012 0.010935000000000002 0.41440000000000005 0.024185000000000002
decision_type=2 2 2 2 2 2 2 2 2 2 2 2 2 2 2 2 2 2 2
left_child=1 2 3 4 9 6 7 -6 -2 11 -10 14 -12 -14 15 16 -1 -15 -17
right_child=8 -3 -4 -5 5 -7 -8 -9 10 -11 12 -13 13 17 -16 18 -18 -19 -20
leaf_value=0.1017877893269626 -0.010141008190699304 -0.13603761002121981 0.18823066502120669 -0.12448110251234952 -0.062192733748134936 0.092724273779749733 -0.12587990351720565 0.10721904519250858 -0.11508100963114286 0.12246833279335972 -0.10435896758770953 0.10458365763000571 -0.10333438083709441 -0.1029374612596647 0.10224181200890313 0.10164673066852958 0.10202437933636654 -0.10278877745104076 0.10167656969765669
leaf_weight=0.47703285515307781 0.77783241868019182 0.90330621786415655 1.2163368789479143 0.93735836446285326 0.5776433013379576 1.7717397250235078 1.3865740522742269 0.80608239211142063 0.7727315500378612 0.46647186763584603 0.7158449795097116 0.95355764590203751 0.61931469291448582 0.6641145162284372 0.34161163587123144 0.38244453351944685 0.4947031382471323 0.55416044779121876 0.38841474987566471
leaf_count=28 6 17 19 8 15 13 7 25 8 6 20 29 20 24 17 24 26 21 24
internal_value=0 0.0359178 0.0511461 0.0325855 0.0508832 0.00886026 -0.0447748 0.0364972 -0.087924 0.105351 -0.106114 0.102723 -0.1034 -0.103026 0.101872 0.101799 0.101908 -0.10287 0.101662
internal_weight=0 11.1033 10.2 8.98363 8.04628 4.54204 2.7703 1.38373 4.104 3.50424 3.32617 3.03776 2.55343 1.83759 2.08421 1.7426 0.971736 1.21827 0.770859
internal_count=357 258 241 222 214 60 47 40 99 154 93 148 85 65 119 102 54 45 48
is_linear=0
shrinkage=0.1


Tree=32
num_leaves=18
num_cat=0
split_feature=14 8 13 3 11 8 7 7 9 11 9 11 14 2 12 12 12
split_gain=4.03182 2.50113 2.27144 4.32951 1.43733 0.67276 0.627799 0.178082 0.0120527 0.00629416 0.000133404 9.31144e-05 6.68728e-06 1.85792e-06 1.3792e-06 5.49737e-07 2.57795e-08
threshold=0.16030000000000003 56.915000000000006 0.21500000000000002 0.080635000000000012 727.10000000000002 19.205000000000002 3.1455000000000006 2.5680000000000005 16.210000000000004 759.80000000000007 14.710000000000003 1224.5000000000002 0.18440000000000004 487.40000000000003 0.10350000000000002 0.41440000000000005 0.18075000000000002
decision_type=2 2 2 2 2 2 2 2 2 2 2 2 2 2 2 2 2
left_child=1 2 6 -4 -5 -2 7 8 10 -7 13 -11 -13 14 -1 -14 -16
right_child=5 -3 3 4 -6 9 -8 -9 -10 11 -12 12 15 -15 16 -17 -18
leaf_value=0.10171016279594552 0.0034506910681419709 -0.12930100221045357 -0.1429824961468569 0.13301580684849532 0.015788961174171164 -0.11366859251373532 0.22958902983703147 0.034534922432882399 0.12029077491445349 -0.10411235874315916 0.10322976477650066 -0.10300718586345861 -0.10265015800948381 0.10182588105633346 0.10151414343779833 -0.10251019872106473 0.10147667685918674
leaf_weight=0.51972823962569037 0.69075408205390099 0.8577935993671425 1.40298490319401 1.6347177466377614 2.903947975486517 0.74364388361573253 0.39419614523649205 0.41154142934828986 0.4293301124125718 0.67834992893040214 0.77260535210371006 0.56206838972866524 0.60251185670495011 0.4265987230464815 0.43986805249005556 0.52533454075455666 0.31527935899794102
leaf_count=32 5 17 16 37 22 8 11 12 6 20 28 20 24 25 30 22 22
internal_value=0 0.0343377 0.0488824 0.0105512 0.0580112 -0.085826 0.110285 0.0960978 0.104824 -0.105643 0.10214 -0.103123 -0.102725 0.101645 0.101585 -0.102585 0.101499
internal_weight=0 10.5086 9.6508 5.94165 4.53867 3.80266 3.70915 3.31495 2.90341 3.11191 2.47408 2.36826 1.68991 1.70147 1.27488 1.12785 0.755147
internal_count=357 258 241 75 59 99 166 155 143 94 137 86 66 109 84 46 52
is_linear=0
shrinkage=0.1


Tree=33
num_leaves=19
num_cat=0
split_feature=14 8 13 3 11 8 6 8 9 11 9 9 14 3 5 12 9 4
split_gain=3.53424 2.13392 2.07565 3.58346 1.35245 0.711869 0.399039 0.210265 0.0090796 0.00454566 8.94318e-05 7.94528e-05 5.1489e-06 1.76829e-06 6.17825e-07 3.23748e-07 1.40008e-07 2.84423e-08
threshold=0.16030000000000003 56.915000000000006 0.21500000000000002 0.080635000000000012 727.10000000000002 18.555000000000003 0.43210000000000004 29.295000000000005 16.210000000000004 759.80000000000007 19.795000000000005 14.815000000000003 0.18685000000000004 0.057520000000000009 0.010935000000000002 0.41440000000000005 13.530000000000003 0.033300000000000003
decision_type=2 2 2 2 2 2 2 2 2 2 2 2 2 2 2 2 2 2
left_child=1 2 6 -4 -5 -2 7 8 11 -7 -11 13 -12 14 -1 -14 17 -15
right_child=5 -3 3 4 -6 9 -8 -9 -10 10 12 -13 15 16 -16 -17 -18 -19
leaf_value=0.1014858793083183 0.011355757196524624 -0.12185341145001286 -0.13031169295632561 0.13119937961947167 0.014218210589768127 -0.11222562076225846 0.19087591538868193 0.02436518016435512 0.11832284158282363 -0.10387384933712258 -0.10270274284549624 0.1028718015959481 -0.10238117224705144 0.10136159857280339 0.10166574442027619 -0.10226573958385446 0.1014275776612281 0.1013168759548489
leaf_weight=0.36990129388868609 0.64211744070053223 0.82119404897093851 1.386380963027477 1.4985996996983884 2.9023716486990452 0.68108439072966609 0.49822685681283463 0.3771044649183749 0.39460391737520684 0.63714490830898318 0.58414450101554372 0.53833333589136589 0.52167672850191593 0.30444095470011234 0.39480085670948029 0.45477967709302902 0.27477101050317287 0.26684714201837778
leaf_count=26 4 17 16 37 22 8 12 11 6 20 23 22 23 23 25 21 20 21
internal_value=0 0.0326055 0.046383 0.00988712 0.0540521 -0.0838517 0.108159 0.0940494 0.10438 -0.105088 -0.102875 0.10182 -0.102468 0.101469 0.101579 -0.102327 0.101369 0.101341
internal_weight=0 10.0276 9.20638 5.78735 4.40097 3.52095 3.41903 2.9208 2.5437 2.87883 2.19775 2.14909 1.5606 1.61076 0.764702 0.976456 0.846059 0.571288
internal_count=357 258 241 75 59 99 166 154 143 95 87 137 67 115 51 44 64 44
is_linear=0
shrinkage=0.1


Tree=34
num_leaves=18
num_cat=0
split_feature=14 11 6 7 6 13 14 2 5 6 13 12 11 12 12 6 9
split_gain=3.11991 2.64966 0.9767 2.57366 1.61838 0.858575 0.0292303 0.00950421 0.000603746 0.000219422 1.31122e-05 2.56548e-06 7.40041e-07 6.30907e-07 4.03013e-07 7.89298e-08 7.83622e-09
threshold=0.17695000000000002 653.45000000000016 0.39920000000000005 2.1185000000000005 0.22855000000000003 0.25230000000000002 0.15580000000000002 519.60000000000002 0.050100000000000006 0.46775000000000005 0.22655000000000003 0.075060000000000002 588.90000000000009 0.10350000000000002 0.41440000000000005 0.30990000000000006 12.495000000000003
decision_type=2 2 2 2 2 2 2 2 2 2 2 2 2 2 2 2 2
left_child=1 6 3 4 -3 -4 8 -2 10 -9 11 -1 13 -13 -11 16 -15
right_child=7 2 5 -5 -6 -7 -8 9 -10 14 -12 12 -14 15 -16 -17 -18
leaf_value=0.10161240917320875 -0.11856209127012429 0.033751389484615112 0.010683024300065336 0.10722063003946035 -0.10237907749161453 -0.112967261091587 0.12797172489474901 -0.10446909753280918 0.10649881408225588 -0.10216391397899299 0.1019473959910588 0.101374528533899 0.10143957504796719 0.10123427404509466 -0.10203978196268729 0.10114897611646544 0.1012092157366429
leaf_weight=0.30319489073008243 0.51173141226172569 1.7375089097768071 0.9773056656122211 2.0160383824259043 1.7558435909450052 1.3200171105563638 0.53685719519853581 0.62517634406685818 0.27287680841982354 0.51780305430293061 0.48252465203404415 0.28863692656159379 0.25796646252274502 0.24025752861052752 0.52849850244820118 0.21648950036615133 0.25968404393643141
leaf_count=20 5 27 9 23 26 31 4 20 7 25 30 22 19 20 27 20 22
internal_value=0 0.0245714 -0.00558949 0.017251 -0.0346711 -0.0603651 0.106943 -0.106638 0.10208 -0.102987 0.101492 0.101351 0.101288 0.10125 -0.102101 0.101199 0.101221
internal_weight=0 10.6652 7.80671 5.50939 3.49335 2.29732 2.85849 2.18321 2.32163 1.67148 2.04875 1.56623 1.26303 1.00507 1.0463 0.716431 0.499942
internal_count=357 280 116 76 53 40 164 77 160 72 153 123 103 84 52 62 42
is_linear=0
shrinkage=0.1


Tree=35
num_leaves=21
num_cat=0
split_feature=8 2 14 13 5 5 14 3 9 2 7 14 10 2 14 13 3 4 12 6
split_gain=3.46596 2.3913 2.82828 1.75463 1.24375 1.2135 0.19467 0.0515772 0.0338852 0.00348563 0.00103831 0.000468794 0.000382545 4.69174e-05 1.61528e-05 3.73221e-06 9.29794e-07 4.64005e-07 1.73257e-07 2.0598e-08
threshold=22.025000000000002 691.95000000000016 0.13495000000000004 0.35900000000000004 0.038060000000000004 0.050100000000000006 0.13495000000000004 0.063185000000000005 17.220000000000002 645.25000000000011 3.0655000000000006 0.10970000000000001 97.980000000000004 548.70000000000016 0.17695000000000002 0.19780000000000003 0.057520000000000009 0.016855000000000005 0.41440000000000005 0.23125000000000004
decision_type=2 2 2 2 2 2 2 2 2 2 2 2 2 2 2 2 2 2 2 2
left_child=3 2 7 6 -3 -6 8 -2 11 12 -7 13 -9 15 -12 16 17 -1 -16 -18
right_child=1 4 -4 -5 5 10 -8 9 -10 -11 14 -13 -14 -15 18 -17 19 -19 -20 -21
leaf_value=0.10120870239064686 0.07003023829911928 -0.20258119308907735 -0.066158863678729488 -0.013261336250915759 0.063557827485018745 -0.10740718952452361 0.18133950458969392 0.1016875626628343 0.13513090223732546 0.11363332710343155 -0.10257392231378622 0.10598834908577284 0.10580644244608664 0.10249983912819392 -0.10194609982804957 0.10164140025705244 0.10112748116898768 0.10139177424317579 -0.10185209324309426 0.1010856260665733
leaf_weight=0.29096271935850448 0.50240487465634931 0.91775107383728061 2.288104759529233 1.5860482342541216 0.55768423527479205 0.5235054176300763 0.41941730305552472 0.5211235675960777 0.37135586142539967 0.53335877694189548 0.65419381856918313 0.28347906097769726 0.39747433830052614 0.42996550723910321 0.4112644474953413 0.24633892439305771 0.21886363439261913 0.26411848142743111 0.37465452216565609 0.25407102564349771
leaf_count=25 24 6 29 16 4 18 3 37 2 7 28 9 10 20 22 17 20 20 21 24
internal_value=0 -0.0409336 0.0093011 0.07066 -0.102904 -0.0666213 0.118563 0.0976472 0.107403 0.107203 -0.103593 0.102223 0.10347 0.101597 -0.102207 0.101292 0.101208 0.101296 -0.101901 0.101105
internal_weight=0 7.68152 4.24247 4.36462 3.43905 2.5213 2.77857 1.95436 2.35916 1.45196 1.96362 1.9878 0.918598 1.70432 1.44011 1.27435 1.02802 0.555081 0.785919 0.472935
internal_count=362 206 107 156 99 93 140 78 137 54 89 135 47 126 71 106 89 45 43 44
is_linear=0
shrinkage=0.1


Tree=36
num_leaves=21
num_cat=0
split_feature=8 2 14 13 5 5 14 3 10 7 2 14 10 1 14 13 3 4 12 6
split_gain=2.98868 2.09113 2.45183 1.62055 1.04729 1.45928 0.164929 0.0572667 0.024034 0.00337713 0.00255027 0.00042312 0.000281757 3.78871e-05 1.32268e-05 2.53701e-06 6.86614e-07 3.42565e-07 1.39763e-07 1.52204e-08
threshold=22.025000000000002 691.95000000000016 0.13495000000000004 0.35900000000000004 0.033025000000000006 0.045830000000000003 0.14525000000000002 0.063185000000000005 113.60000000000001 2.8510000000000004 645.25000000000011 0.11325000000000002 97.980000000000004 85.450000000000017 0.17695000000000002 0.19780000000000003 0.057520000000000009 0.016855000000000005 0.41440000000000005 0.23125000000000004
decision_type=2 2 2 2 2 2 2 2 2 2 2 2 2 2 2 2 2 2 2 2
left_child=3 2 7 6 -3 -6 8 -2 11 -7 12 13 -9 15 -11 16 17 -1 -16 -18
right_child=1 4 -4 -5 5 9 -8 10 -10 14 -12 -13 -14 -15 18 -17 19 -19 -20 -21
leaf_value=0.10109239518468943 0.066162470334249546 -0.19613172891389871 -0.060992241739431158 -0.011947014355740193 0.090179748262179893 -0.11139881471816547 0.18015996201438575 0.10152509083972722 0.13078160236125741 -0.10233996967123914 0.11223369321239707 0.10576246634675393 0.10523458204410219 0.10226443852302257 -0.10175811072345463 0.10146961082814238 0.10101906003140898 0.10125766400900711 -0.10167274564217264 0.10098125525188924
leaf_weight=0.26356144342571564 0.47980990866199125 0.82604718953371081 2.2365488642826676 1.5845626490190623 0.48094988614320788 0.52520122285932291 0.3541542962193488 0.47224829532206036 0.34660823643207539 0.6190658602863548 0.48831280134618282 0.26766438223421563 0.3615043293684721 0.42956621665507544 0.44071159232407808 0.21964177396148443 0.19823774229735136 0.23928469885140657 0.33956897351890802 0.23011849215254188
leaf_count=25 24 5 29 16 4 14 2 37 2 29 7 8 10 22 26 17 20 20 21 24
internal_value=0 -0.0390303 0.00894563 0.0674664 -0.0989852 -0.0656251 0.116836 0.0957549 0.106618 -0.104561 0.106495 0.102086 0.103133 0.101463 -0.101995 0.101164 0.101092 0.101171 -0.101721 0.100999
internal_weight=0 7.26997 4.03842 4.1334 3.23154 2.4055 2.54884 1.80188 2.19468 1.92455 1.32207 1.84807 0.833753 1.58041 1.39935 1.15084 0.931202 0.502846 0.780281 0.428356
internal_count=362 206 107 156 99 94 140 78 138 90 54 136 47 128 76 106 89 45 47 44
is_linear=0
shrinkage=0.1


Tree=37
num_leaves=20
num_cat=0
split_feature=11 6 14 12 12 14 8 14 8 14 0 14 8 13 3 9 12 3 8
split_gain=2.71503 1.70226 1.50074 1.49942 1.18073 2.85319 0.0436067 0.0262572 0.00189187 0.000738158 1.52281e-05 1.16761e-05 3.09641e-06 2.30733e-06 6.91621e-07 2.91359e-07 1.17741e-07 2.46618e-08 7.13622e-09
threshold=689.00000000000011 0.38455000000000006 0.18585000000000004 0.28125000000000006 0.099210000000000007 0.11325000000000002 36.100000000000009 0.15580000000000002 49.350000000000009 0.13320000000000001 13.040000000000001 0.17760000000000001 29.770000000000003 0.21500000000000002 0.057520000000000009 12.825000000000001 0.41440000000000005 0.088350000000000012 18.920000000000005
decision_type=2 2 2 2 2 2 2 2 2 2 2 2 2 2 2 2 2 2 2
left_child=2 3 7 -2 -3 -6 -7 9 -8 10 12 -10 13 14 15 -1 -13 18 -16
right_child=1 4 -4 -5 5 6 8 -9 11 -11 -12 16 -14 -15 17 -17 -18 -19 -20
leaf_value=0.10099922620253175 0.080685478453336679 -0.22654230423107535 -0.11857343840731588 -0.038541406412577896 0.12311572457401823 -0.13547583333708596 -0.10934354994659373 0.12786195663119201 -0.10215580509298171 0.10720962850700649 0.10180361899635962 -0.10159762705536146 0.10145460484540675 0.10131239109438749 0.10090559915273445 0.10115547213229779 -0.10151421231310437 0.10087249082574778 0.10093197579769751
leaf_weight=0.27914674161002151 1.793858549557626 0.49304032325744662 0.33362473547458638 2.5603214986622334 0.66545489430427585 0.57572731375694308 0.45307193137705315 0.47486911714076985 0.62991895619779803 0.23216993547976006 0.38368531689047802 0.3555115070194006 0.21162551129236806 0.25597784714773286 0.22199476510286331 0.20848168712109327 0.32291794661432505 0.16960539110004902 0.19067131448537111
leaf_count=29 37 2 3 34 6 5 12 3 32 5 25 23 17 22 25 19 22 20 21
internal_value=0 -0.0311464 0.0812163 0.0105783 -0.0831189 -0.0595681 -0.111584 0.106577 -0.103774 0.101884 0.10124 -0.101846 0.101099 0.101043 0.100978 0.101066 -0.101558 0.100905 0.100918
internal_weight=0 7.84982 2.96185 4.35418 3.49564 3.0026 2.33715 2.62823 1.76142 2.15336 1.92119 1.30835 1.5375 1.32588 1.0699 0.487628 0.678429 0.582271 0.412666
internal_count=362 173 189 71 102 100 94 186 89 183 178 77 153 136 114 48 45 66 46
is_linear=0
shrinkage=0.1


Tree=38
num_leaves=20
num_cat=0
split_feature=11 6 14 12 12 14 8 14 8 14 0 14 8 13 3 9 12 3 8
split_gain=2.39972 1.49175 1.34616 1.25317 0.863405 2.50156 0.0311875 0.0188791 0.00140802 0.000544797 1.1256e-05 8.61434e-06 2.2889e-06 1.70641e-06 5.11047e-07 2.15232e-07 8.68024e-08 1.82152e-08 5.27458e-09
threshold=689.00000000000011 0.38455000000000006 0.18585000000000004 0.28125000000000006 0.099210000000000007 0.11325000000000002 36.100000000000009 0.15580000000000002 49.350000000000009 0.13320000000000001 13.040000000000001 0.17760000000000001 29.770000000000003 0.21500000000000002 0.057520000000000009 12.825000000000001 0.41440000000000005 0.088350000000000012 18.920000000000005
decision_type=2 2 2 2 2 2 2 2 2 2 2 2 2 2 2 2 2 2 2
left_child=2 3 7 -2 -3 -6 -7 9 -8 10 12 -10 13 14 15 -1 -13 18 -16
right_child=1 4 -4 -5 5 6 8 -9 11 -11 -12 16 -14 -15 17 -17 -18 -19 -20
leaf_value=0.10090326186970924 0.075261044185118753 -0.20090174404931718 -0.11660049137871864 -0.035064277092928794 0.11374021826594238 -0.13127760243274039 -0.10844602653000759 0.124628255395836 -0.10194689853514521 0.10649675578333676 0.10162980963257884 -0.10144329053209783 0.10131463071065605 0.10118623084530365 0.10081868152142388 0.10104436916927401 -0.10136804942082318 0.1007887845886534 0.10084251095152748
leaf_weight=0.25281041581183739 1.7340781353414056 0.49986599385738406 0.30672127008438099 2.5342331221327186 0.64916766807436976 0.53673235140740905 0.4131761360913514 0.44025002419948567 0.57108275406062581 0.21141045913100232 0.34773635398596514 0.32214461080729961 0.19173777243122447 0.23189242742955685 0.20103353541344404 0.1888388954102993 0.29258810821920633 0.1535862754099071 0.17267181444913149
leaf_count=29 37 2 3 34 6 5 12 3 32 5 25 23 17 22 25 19 22 20 21
internal_value=0 -0.0292288 0.0806316 0.00975737 -0.0798885 -0.0581676 -0.11042 0.105923 -0.103419 0.101703 0.101121 -0.101667 0.100994 0.100943 0.100884 0.100964 -0.101407 0.100818 0.10083
internal_weight=0 7.55307 2.69869 4.26831 3.28476 2.78489 2.13572 2.39197 1.59899 1.95172 1.74031 1.18582 1.39257 1.20083 0.968941 0.441649 0.614733 0.527292 0.373705
internal_count=362 173 189 71 102 100 94 186 89 183 178 77 153 136 114 48 45 66 46
is_linear=0
shrinkage=0.1


Tree=39
num_leaves=20
num_cat=0
split_feature=11 6 14 12 3 14 8 14 8 14 0 14 8 13 3 9 12 3 8
split_gain=2.12406 1.31242 1.2086 1.04414 0.657525 2.1969 0.0223919 0.0136222 0.0010474 0.00040224 8.32178e-06 6.35805e-06 1.69233e-06 1.2622e-06 3.77721e-07 1.59042e-07 6.40295e-08 1.34567e-08 3.90017e-09
threshold=689.00000000000011 0.38455000000000006 0.18585000000000004 0.28125000000000006 0.061475000000000009 0.11325000000000002 36.100000000000009 0.15580000000000002 49.350000000000009 0.13320000000000001 13.040000000000001 0.17760000000000001 29.770000000000003 0.21500000000000002 0.057520000000000009 12.825000000000001 0.41440000000000005 0.088350000000000012 18.920000000000005
decision_type=2 2 2 2 2 2 2 2 2 2 2 2 2 2 2 2 2 2 2
left_child=2 3 7 -2 -3 -6 -7 9 -8 10 12 -10 13 14 15 -1 -13 18 -16
right_child=1 4 -4 -5 5 6 8 -9 11 -11 -12 16 -14 -15 17 -17 -18 -19 -20
leaf_value=0.10081659016490414 0.069946408641677671 -0.18254516164660275 -0.11485685909567525 -0.031864610959718591 0.10478537535668608 -0.12765888100053049 -0.10763520757189748 0.12183032548789954 -0.1017585650713532 0.10585675163349882 0.10147293812786254 -0.10130406475896923 0.10118826108434403 0.10107230887117971 0.10074016820247396 0.10094404995270284 -0.1012361727200079 0.10071316811283032 0.10076170162035832
leaf_weight=0.22893897630274362 1.6820818213745949 0.49527974426746402 0.28152960538864125 2.511113409884274 0.63495819270610843 0.49870786163955916 0.37652979884296645 0.40702993422746647 0.51764472760260083 0.19238960370421399 0.3151065339334308 0.29186871368438005 0.17369715264067043 0.21004941407591105 0.18203722033649683 0.1710296724922955 0.26507199183106422 0.13906964100897312 0.15635884832590818
leaf_count=29 37 2 3 34 6 5 12 3 32 5 25 23 17 22 25 19 22 20 21
internal_value=0 -0.0274301 0.0801081 0.00897643 -0.076994 -0.0567689 -0.109379 0.105336 -0.103097 0.10154 0.101013 -0.101506 0.100898 0.100852 0.100799 0.100871 -0.101272 0.100739 0.10075
internal_weight=0 7.27326 2.45724 4.1932 3.08006 2.58478 1.94982 2.17571 1.45112 1.76868 1.57629 1.07459 1.26118 1.08748 0.877434 0.399969 0.556941 0.477466 0.338396
internal_count=362 173 189 71 102 100 94 186 89 183 178 77 153 136 114 48 45 66 46
is_linear=0
shrinkage=0.1


Tree=40
num_leaves=17
num_cat=0
split_feature=14 11 8 6 7 14 5 11 14 10 13 8 6 3 5 4
split_gain=1.78301 1.6441 1.38241 1.237 1.21921 0.745699 0.00900256 0.00233623 0.00103364 8.73983e-05 5.46398e-06 1.27976e-06 4.6218e-07 2.11026e-07 6.37252e-08 9.02428e-09
threshold=0.17695000000000002 653.45000000000016 19.935000000000006 0.36630000000000001 2.1185000000000005 0.10970000000000001 0.068540000000000018 734.05000000000007 0.14620000000000002 129.20000000000002 0.22440000000000002 26.930000000000003 0.61220000000000019 0.057520000000000009 0.011555000000000001 0.038400000000000011
decision_type=2 2 2 2 2 2 2 2 2 2 2 2 2 2 2 2
left_child=1 6 -3 4 -4 -5 8 -2 10 -9 11 13 -11 14 -1 -15
right_child=7 2 3 5 -6 -7 -8 9 -10 12 -12 -13 -14 15 -16 -17
leaf_value=0.10073395931685632 -0.11087306763330465 -0.08910461309045109 -0.010844374214701134 0.021456585393324096 0.11435907560632286 -0.10717203690500639 0.12102931763870582 -0.10321404456347812 0.10884198244919459 -0.10131133961668347 0.10124578000332969 0.10104334082932516 -0.10113653750062652 0.10067879815500794 0.10081855655664132 0.10064755984697933
leaf_weight=0.19225657125934759 0.41148549318313665 1.494711000472307 1.4047909062355759 0.8676444888114927 1.7424814756959675 0.93789064977318048 0.29975449293851841 0.32536320108920336 0.18889985233545292 0.24339418858289719 0.32833684654906392 0.14325145352631807 0.39957246650010347 0.2537488411180675 0.16586050344631076 0.14550739340484142
leaf_count=27 6 26 28 8 17 37 3 15 3 20 33 16 36 38 21 23
internal_value=0 0.0183447 -0.00481582 0.0206217 0.0584743 -0.0453599 0.105284 -0.104561 0.101955 -0.101879 0.100897 0.100769 -0.101203 0.100717 0.100773 0.100667
internal_weight=0 8.16513 6.44752 4.95281 3.14727 1.80554 1.71762 1.37982 1.41786 0.96833 1.22896 0.900625 0.642967 0.757373 0.358117 0.399256
internal_count=357 280 116 90 45 45 164 77 161 71 158 125 56 109 48 61
is_linear=0
shrinkage=0.1


Tree=41
num_leaves=17
num_cat=0
split_feature=14 11 8 6 14 9 5 11 14 10 13 8 6 3 5 4
split_gain=1.59111 1.49366 1.10245 1.03239 0.681115 0.588489 0.00651567 0.00172005 0.000758788 6.46667e-05 4.0448e-06 9.46677e-07 3.42082e-07 1.56033e-07 4.71022e-08 6.66989e-09
threshold=0.17695000000000002 653.45000000000016 19.935000000000006 0.36630000000000001 0.10970000000000001 16.400000000000002 0.068540000000000018 734.05000000000007 0.14620000000000002 129.20000000000002 0.22440000000000002 26.930000000000003 0.61220000000000019 0.057520000000000009 0.011555000000000001 0.038400000000000011
decision_type=2 2 2 2 2 2 2 2 2 2 2 2 2 2 2 2
left_child=1 6 -3 5 -5 -4 8 -2 10 -9 11 13 -11 14 -1 -15
right_child=7 2 3 4 -6 -7 -8 9 -10 12 -12 -13 -14 15 -16 -17
leaf_value=0.10066364332212446 -0.10978300592028729 -0.078534863874455477 0.09497667723387343 0.019351290702160611 -0.10652961418044304 0.0077743859725773207 0.11869372442040904 -0.10290379347985897 0.10794252253797053 -0.10118522347181225 0.10112635232241092 0.10094325087247308 -0.10102721624540285 0.1006137878067762 0.10074007671108245 0.1005855633154516
leaf_weight=0.17407627636566736 0.37583522126078583 1.5246064830571411 1.6257607890293004 0.8659296818077562 0.85349586606025696 1.4769596122205255 0.27629079390317191 0.29524319712072611 0.17227506265044201 0.22049269638955593 0.29742446728050709 0.12974126031622291 0.36191944777965546 0.22974225459620357 0.15018775826320052 0.13173755677416921
leaf_count=27 6 26 30 8 37 15 3 15 3 20 33 16 36 38 21 23
internal_value=0 0.0171434 -0.00441307 0.0190218 -0.043134 0.0534666 0.104762 -0.104122 0.101767 -0.101698 0.100811 0.100696 -0.101087 0.100649 0.100699 0.100604
internal_weight=0 7.90823 6.34675 4.82215 1.71943 3.10272 1.56148 1.25349 1.28518 0.877655 1.11291 0.815485 0.582412 0.685744 0.324264 0.36148
internal_count=357 280 116 90 45 45 164 77 161 71 158 125 56 109 48 61
is_linear=0
shrinkage=0.1


Tree=42
num_leaves=22
num_cat=0
split_feature=8 8 14 0 11 14 10 11 0 14 10 14 6 11 1 13 0 14 0 12 12
split_gain=1.50438 2.74343 1.96317 1.04211 0.787194 0.434415 0.365393 0.242789 0.104095 0.00152731 0.000807252 0.000656059 5.27271e-05 3.33283e-05 1.92813e-05 3.07582e-06 2.69039e-06 1.12527e-06 3.53128e-07 4.20797e-08 2.64526e-08
threshold=18.515000000000004 19.935000000000006 0.16030000000000003 14.965000000000002 784.1500000000002 0.16030000000000003 106.70000000000002 750.00000000000011 15.635000000000002 0.14260000000000003 104.45000000000002 0.11575000000000002 0.42050000000000004 689.00000000000011 86.680000000000021 0.22440000000000002 12.955000000000002 0.18225000000000002 12.455000000000002 0.10350000000000002 0.41440000000000005
decision_type=2 2 2 2 2 2 2 2 2 2 2 2 2 2 2 2 2 2 2 2 2
left_child=5 -2 3 4 6 8 7 11 9 14 -4 13 -12 16 15 18 -3 -14 19 -1 -19
right_child=1 2 10 -5 -6 -7 -8 -9 -10 -11 12 -13 17 -15 -16 -17 -18 20 -20 -21 -22
leaf_value=0.10061974732491985 -0.16828666728933639 0.10065461271655617 -0.1074535851752829 -0.027301503834809254 0.011492710115087609 0.0012086608066868511 0.17089319132502989 -0.0087115020784728665 0.1760879542506919 0.11098698912704108 -0.10258375985404616 0.10759147412922745 -0.10120617949187205 0.102346176686357 0.10191540819777455 0.1011696751775826 0.10119747637268642 -0.10095688644211992 0.10077948058196176 0.10054420562085947 -0.10090875613797892
leaf_weight=0.126467539463192 1.0532566318288443 0.31144285155460261 0.29752251878380753 1.6981241060420869 1.32550348713994 0.43338795006275166 0.67946301400661457 0.25082835648208857 0.24538984894752502 0.19485196471214294 0.31706190668046474 0.22317879134789109 0.22376837581396103 0.20935908425599337 0.19812764879316092 0.14290977222844958 0.12914938014000654 0.22508241422474384 0.11816525692120194 0.17686235415749252 0.23177841305732727
leaf_count=21 25 52 5 29 14 4 3 4 1 3 17 7 20 12 12 15 13 24 17 33 26
internal_value=0 -0.0192102 0.00643646 0.0357692 0.0699988 0.0870492 0.113 0.0780028 0.11798 0.103086 -0.102882 0.102914 -0.101519 0.101307 0.101067 0.100769 0.100814 -0.101022 0.100633 0.100576 -0.100932
internal_weight=0 7.17552 6.12226 4.82705 3.12892 1.63616 1.80342 1.12396 1.20277 0.957385 1.29521 0.87313 0.997691 0.649951 0.762533 0.564405 0.440592 0.680629 0.421495 0.30333 0.456861
internal_count=357 251 226 134 105 106 91 88 102 101 92 84 87 77 98 86 65 70 71 54 50
is_linear=0
shrinkage=0.1


Tree=43
num_leaves=22
num_cat=0
split_feature=8 8 14 0 11 14 1 0 13 14 10 6 10 1 9 13 14 8 0 12 12
split_gain=1.29646 2.17208 1.73298 0.881632 0.730706 0.410517 0.115384 0.0694972 0.0104932 0.00112242 0.000592468 3.90422e-05 3.53785e-05 1.42481e-05 4.80818e-06 2.27581e-06 8.32016e-07 4.03606e-07 2.6139e-07 3.11237e-08 1.9539e-08
threshold=18.515000000000004 19.935000000000006 0.16030000000000003 14.965000000000002 750.00000000000011 0.16030000000000003 94.060000000000016 15.635000000000002 0.65160000000000007 0.14260000000000003 104.45000000000002 0.42050000000000004 97.980000000000004 86.680000000000021 14.520000000000001 0.22440000000000002 0.18225000000000002 27.485000000000003 12.455000000000002 0.10350000000000002 0.41440000000000005
decision_type=2 2 2 2 2 2 2 2 2 2 2 2 2 2 2 2 2 2 2 2 2
left_child=5 -2 3 4 6 7 8 9 12 13 -4 -12 14 15 17 18 -13 -3 19 -1 -18
right_child=1 2 10 -5 -6 -7 -8 -9 -10 -11 11 16 -14 -15 -16 -17 20 -19 -20 -21 -22
leaf_value=0.10056043275678822 -0.14879844946293969 0.10056131530844384 -0.10670378093153783 -0.024754094513077293 0.024915258209685688 0.0010877740548029733 0.18056486197294719 0.16380309943067228 0.1245507941108748 0.1098698018537784 -0.10233533412816825 -0.10109024941539405 0.10244818709453847 0.10173066384028331 0.10136269102569562 0.1010575145922757 -0.10086500033133693 0.10078924671233612 0.10070487352613529 0.10049215251517696 -0.10082153257109101
leaf_weight=0.11449662595987298 1.0711232991889117 0.23118680855259321 0.27100455388426758 1.6862448910251258 1.7956369426101444 0.43339604884386052 0.28733227401971817 0.23779217898845673 0.27447615563869476 0.17801032401621342 0.28755046613514423 0.20269438391551375 0.18872222397476435 0.17958229966461658 0.12417180743068457 0.12944632722064853 0.20383908599615097 0.11700528301298618 0.10699552902951837 0.16011035535484552 0.20989398751407862
leaf_count=21 25 44 5 29 19 4 2 1 2 3 17 20 11 12 10 15 24 17 17 33 26
internal_value=0 -0.0178265 0.00603278 0.0331637 0.0655183 0.083587 0.125138 0.115902 0.108115 0.102789 -0.102603 -0.101373 0.101291 0.100964 0.100828 0.100695 -0.100924 0.100638 0.100572 0.100521 -0.100843
internal_weight=0 6.95088 5.87976 4.70478 3.01853 1.53983 1.22289 1.10643 0.935562 0.868641 1.17498 0.903978 0.661086 0.690631 0.472364 0.511049 0.616427 0.348192 0.381603 0.274607 0.413733
internal_count=357 251 226 134 105 106 86 102 84 101 92 87 82 98 71 86 70 61 71 54 50
is_linear=0
shrinkage=0.1


Tree=44
num_leaves=20
num_cat=0
split_feature=13 12 10 6 7 7 0 0 11 1 5 9 10 14 0 12 8 12 3
split_gain=1.18768 1.9407 1.80348 1.56488 1.31752 1.27037 0.277731 0.410424 0.0129405 0.00859475 0.000378213 5.84906e-05 8.35844e-06 1.1937e-06 3.37878e-07 2.98407e-07 6.34132e-08 2.48873e-08 1.65325e-08
threshold=0.21500000000000002 0.19230000000000003 116.05000000000003 1.1950000000000001 2.1185000000000005 1.7375000000000003 17.800000000000004 15.160000000000002 874.85000000000014 96.720000000000013 0.056150000000000012 14.710000000000003 132.75000000000003 0.17760000000000001 12.955000000000002 0.085575000000000026 18.515000000000004 0.41440000000000005 0.058510000000000006
decision_type=2 2 2 2 2 2 2 2 2 2 2 2 2 2 2 2 2 2 2
left_child=3 -2 4 6 5 -3 7 9 -4 11 -10 14 -12 -14 15 -1 18 -15 -17
right_child=1 2 8 -5 -6 -7 -8 -9 10 -11 12 -13 13 17 -16 16 -18 -19 -20
leaf_value=0.10066088670535762 -0.18486970228489033 0.056810437887759274 -0.1274042701051262 -0.17014646705109343 0.094128391298364575 -0.085765404062631723 0.19863292653421061 -0.056482248224758336 -0.10618523812618826 0.12572759676539766 -0.10156981131707687 0.10202251682291713 -0.10107033989293886 -0.10079216442664632 0.10074355907170712 0.10049729761334177 0.10054436958982692 -0.10074166583490532 0.10044353498025448
leaf_weight=0.15798854595050194 0.64671026449650515 1.1915343161672356 0.24873116053640831 0.24230363965034474 1.802943183109164 1.3142254380509255 0.24998815357685078 0.18084297329187382 0.17458269745111443 0.16275638341903675 0.23891980526968837 0.47516271937638521 0.19952418282628059 0.23281194269657135 0.099452777300029993 0.096655004657804966 0.17888636863790452 0.16802965849637985 0.14011168014258146
leaf_count=26 12 21 3 1 36 22 1 3 4 1 19 32 20 30 15 20 36 23 32
internal_value=0 -0.0208951 -0.00186116 0.0679637 0.0289379 -0.017968 0.101087 0.0847409 -0.106965 0.104221 -0.10195 0.101173 -0.10107 -0.10087 0.100573 0.100544 0.100499 -0.100771 0.100465
internal_weight=0 6.21801 5.5713 1.98415 4.3087 2.50576 1.74184 1.49186 1.2626 1.31101 1.01387 1.14826 0.839286 0.600366 0.673094 0.573642 0.415653 0.400842 0.236767
internal_count=357 190 178 167 79 43 166 165 99 162 96 161 92 73 129 114 88 53 52
is_linear=0
shrinkage=0.1


Tree=45
num_leaves=23
num_cat=0
split_feature=8 2 5 12 12 13 1 2 3 3 2 14 12 4 2 1 13 12 8 3 4 10
split_gain=1.86591 0.892334 1.41555 0.807228 0.737987 0.609915 0.273304 0.735624 0.106713 0.0459746 0.0244512 0.00714129 0.00604401 6.51433e-05 5.26783e-05 2.0241e-05 9.19452e-07 7.03699e-07 1.37433e-07 5.19114e-08 5.26007e-08 2.374e-08
threshold=22.025000000000002 691.95000000000016 0.045125000000000005 0.32205000000000006 0.34780000000000005 0.12085000000000001 87.820000000000007 572.05000000000007 0.055715000000000008 0.063185000000000005 718.05000000000007 0.12830000000000003 0.20130000000000003 0.060705000000000009 863.80000000000007 85.450000000000017 0.21500000000000002 0.30720000000000008 18.515000000000004 0.062730000000000022 0.018285000000000003 164.20000000000002
decision_type=2 2 2 2 2 2 2 2 2 2 2 2 2 2 2 2 2 2 2 2 2 2
left_child=3 2 9 6 -4 -3 7 15 -7 -2 -10 13 -12 -11 -14 16 18 -16 19 20 -1 -19
right_child=1 5 4 -5 -6 8 -8 -9 10 11 12 -13 14 -15 17 -17 -18 21 -20 -21 -22 -23
leaf_value=0.10043132572782283 0.061812059495382682 0.015673885795074085 0.024368270506068747 -0.026933841371680478 -0.11552618797600807 -0.17291908546672941 0.12486555749315305 -0.12973446229278449 -0.07251182913034189 0.10129289043677843 -0.11545713541502821 0.12282982503433711 -0.10270842542022432 0.10388056125934585 -0.10095297284981296 0.10206303222097773 0.10082493680192139 -0.10074759543093087 0.10057773922916212 0.10040153909346286 0.10053782396058707 -0.10069014598938296
leaf_weight=0.088688717223704638 0.25016320124268565 0.48075257241725955 0.6551997144706545 0.71344214677810658 0.88840143987908959 0.24386830627918232 1.2870996128767727 0.17666451632976532 0.24248633952811349 0.18963347095996141 0.51940806116908766 0.31734545528888702 0.20704060047864914 0.19977596052922308 0.23735832702368498 0.10696357116103172 0.10229561547748744 0.15277676563709974 0.12894536438398063 0.11500348686240613 0.097211684100329876 0.13592604780569673
leaf_count=21 24 2 18 15 22 1 24 1 5 28 8 3 15 12 27 8 15 21 24 29 19 20
internal_value=0 -0.0378708 0.00309392 0.0649808 -0.0561463 -0.0840198 0.0961647 0.0508814 -0.111583 0.0986542 -0.101577 0.111695 -0.107204 0.10262 -0.101357 0.100808 0.100555 -0.100825 0.100491 0.100454 0.100487 -0.100721
internal_weight=0 4.72014 2.50052 2.81631 1.5436 2.21962 2.10287 0.815773 1.73886 0.956918 1.495 0.706755 1.25251 0.389409 0.733102 0.639108 0.532145 0.526061 0.429849 0.300904 0.1859 0.288703
internal_count=362 206 107 156 40 99 141 117 97 67 96 43 91 40 83 116 108 68 93 69 40 41
is_linear=0
shrinkage=0.1


Tree=46
num_leaves=23
num_cat=0
split_feature=8 14 2 12 5 10 9 3 14 14 14 12 10 14 2 10 10 13 14 8 3 12
split_gain=1.62483 0.791676 0.871145 0.7364 0.67318 0.248276 0.122705 0.0484956 0.0375715 0.00772292 0.00550753 0.0015322 0.000306822 0.000112125 7.75996e-05 8.41637e-06 2.66033e-06 2.19323e-07 1.35058e-07 1.22394e-07 3.31164e-08 1.14747e-08
threshold=22.025000000000002 0.14525000000000002 691.95000000000016 0.32205000000000006 0.050100000000000006 113.15000000000002 15.125000000000002 0.063185000000000005 0.14260000000000003 0.14895000000000003 0.13320000000000001 0.31370000000000003 119.45 0.12195000000000002 588.05000000000007 93.695000000000007 132.75000000000003 0.21005000000000004 0.17870000000000003 18.515000000000004 0.057520000000000009 0.39415000000000006
decision_type=2 2 2 2 2 2 2 2 2 2 2 2 2 2 2 2 2 2 2 2 2 2
left_child=3 2 4 5 7 8 -3 -2 11 -8 14 13 -11 15 -9 17 -14 19 -18 20 -1 -20
right_child=1 6 -4 -5 -6 -7 9 10 -10 12 -12 -13 16 -15 -16 -17 18 -19 21 -21 -22 -23
leaf_value=0.10043436368211665 0.057815322757056177 -0.022511870842808108 -0.066950119100894365 -0.0243673824286046 -0.033321187093332302 0.029011049395360533 -0.11965168012090913 0.10088303301271793 0.13648990949008247 -0.10453948186891726 0.12019246482184523 0.11223389186119009 -0.10113644325883349 0.10380767380310363 0.10360719877593888 0.10121130048096423 -0.10075000484804704 0.10062038012305936 -0.10065100019992859 0.10052743300159879 0.10036266483259576 -0.10061012197236059
leaf_weight=0.14688033843413018 0.24119761749170743 0.19933516904711712 1.3142712181434033 0.70992259541526426 0.68510842695832253 0.44272491335868824 0.34300759760662891 0.19541256874799728 0.50484953075647354 0.34503632737323642 0.29348836373537779 0.14981323108077049 0.17517847614362836 0.14200018998235464 0.22492516692727804 0.23310789884999394 0.15399424778297544 0.08274039370007813 0.15971547784283757 0.11305657215416431 0.11474566324613988 0.12045806180685759
leaf_count=35 24 4 14 15 12 3 7 36 3 13 3 2 18 5 9 23 21 15 25 23 32 20
internal_value=0 -0.036307 -0.00628944 0.0627153 0.0423192 0.0947488 -0.0955589 0.0965816 0.114318 -0.106782 0.10968 0.102924 -0.102157 0.101249 0.102341 0.100722 -0.100807 0.100473 -0.100675 0.10044 0.100403 -0.100633
internal_weight=0 4.45113 2.9544 2.63984 1.64013 1.92992 1.49673 0.955024 1.48719 1.29739 0.713826 0.982344 0.954383 0.832531 0.420338 0.690531 0.609346 0.457423 0.434168 0.374683 0.261626 0.280174
internal_count=362 206 98 156 84 141 108 72 138 104 48 135 97 133 45 128 84 105 66 90 67 45
is_linear=0
shrinkage=0.1


Tree=47
num_leaves=21
num_cat=0
split_feature=8 14 0 13 12 0 3 14 10 3 8 14 2 2 10 10 13 8 3 10
split_gain=1.3953 0.739433 1.17928 0.712495 0.226519 0.406941 0.0550934 0.0196613 0.0138381 0.00228221 0.000646638 0.000403124 0.000197481 5.55199e-05 8.88915e-06 6.59127e-06 1.87802e-07 9.17934e-08 2.49853e-08 1.66241e-08
threshold=22.025000000000002 0.13605000000000003 14.595000000000001 0.35900000000000004 0.33850000000000008 14.65 0.063185000000000005 0.14750000000000005 108.30000000000001 0.12145000000000002 60.940000000000005 0.12515000000000001 596.25000000000011 588.05000000000007 130.50000000000003 93.695000000000007 0.21500000000000002 18.515000000000004 0.057520000000000009 158.55000000000004
decision_type=2 2 2 2 2 2 2 2 2 2 2 2 2 2 2 2 2 2 2 2
left_child=3 2 6 8 5 -3 -2 -6 11 13 -7 15 -9 -8 -14 16 17 18 -1 -16
right_child=1 4 -4 -5 7 10 9 12 -10 -11 -12 -13 14 -15 19 -17 -18 -19 -20 -21
leaf_value=0.10039286702831374 0.04825087614322969 0.040887688310649838 -0.052076882765338367 0.0034369850785464181 -0.13129476699853979 -0.10839092129642636 0.10082154593914826 -0.10436217730781237 0.12252562611051283 0.11374568642459806 -0.1007059252571009 0.10669181486000555 -0.10154230728512881 0.10317302562087693 -0.10061390628431213 0.10109402504215879 0.10057039457148696 0.10047701708842199 0.10032796551969764 -0.10056013215008251
leaf_weight=0.13295496604405366 0.20948920655064318 0.34068541042506684 1.4948754264041779 1.187684674747288 0.35510171949863412 0.23117469483986497 0.19760091905482113 0.30786910699680448 0.53692462854087353 0.282566097099334 0.20800712890923023 0.13383097806945443 0.16944637661799788 0.20413526380434632 0.11969200614839792 0.23166074068285525 0.077184746041893959 0.10234653670340776 0.1070964599493891 0.11062399717047811
leaf_count=35 23 5 17 16 2 10 38 10 5 5 31 4 16 9 20 25 15 23 33 20
internal_value=0 -0.0344618 0.00225395 0.0596512 -0.0820584 -0.0411287 0.0931228 -0.112094 0.110154 0.10686 -0.104751 0.101693 -0.102459 0.102016 -0.100993 0.100666 0.100429 0.100398 0.100364 -0.100588
internal_weight=0 4.23127 2.38867 2.50968 1.8426 0.779867 0.893791 1.06273 1.322 0.684302 0.439182 0.785074 0.707631 0.401736 0.399762 0.651243 0.419583 0.342398 0.240051 0.230316
internal_count=362 206 92 156 114 46 75 68 140 52 41 135 66 47 56 131 106 91 68 40
is_linear=0
shrinkage=0.1


Tree=48
num_leaves=21
num_cat=0
split_feature=8 13 14 0 12 0 3 14 10 3 8 14 2 2 6 10 13 8 3 12
split_gain=1.1976 0.673183 0.664029 1.01714 0.213054 0.365945 0.0586184 0.0139263 0.0100329 0.00167042 0.000479731 0.000298095 0.000145448 4.09318e-05 6.64504e-06 4.8761e-06 1.38989e-07 6.79349e-08 1.8493e-08 1.65157e-08
threshold=22.025000000000002 0.35900000000000004 0.13605000000000003 14.595000000000001 0.33850000000000008 14.65 0.063185000000000005 0.14750000000000005 108.30000000000001 0.12145000000000002 60.940000000000005 0.12515000000000001 596.25000000000011 588.05000000000007 0.44800000000000006 93.695000000000007 0.21500000000000002 18.515000000000004 0.057520000000000009 0.41870000000000007
decision_type=2 2 2 2 2 2 2 2 2 2 2 2 2 2 2 2 2 2 2 2
left_child=1 8 3 6 5 -4 -2 -6 11 13 -7 15 -9 -8 -14 16 17 18 -1 -16
right_child=2 -3 4 -5 7 10 9 12 -10 -11 -12 -13 14 -15 19 -17 -18 -19 -20 -21
leaf_value=0.10035534801598273 0.044502978415483813 0.0030928810497637153 0.037206628937702622 -0.047631082202634421 -0.12748992568799564 -0.10758418554492098 0.10074340596654954 -0.1039339219175614 0.1200691632266242 0.1123307764344606 -0.10063833655560593 0.1060362329695903 -0.1013926058128732 0.1028640949135691 -0.10055373780448283 0.10098910871048968 0.10051586358081532 0.10043143582557067 0.10029665842863843 -0.10049716743630002
leaf_weight=0.12034531799145065 0.20468282187357578 1.1878320155665276 0.33714885264635064 1.4722053762525318 0.33039942383766174 0.2106640157289803 0.17892833414953202 0.27966080419719219 0.49525628611445427 0.25873172888532281 0.18833260796964169 0.12180574936792254 0.15510545624420047 0.18523569358512759 0.10857610311359167 0.20982199278660119 0.069875608198344707 0.092646866803988814 0.096933594206348062 0.098360905423760414
leaf_count=35 23 16 5 17 2 10 38 10 5 5 31 4 16 9 20 25 15 23 33 20
internal_value=0 0.0565342 -0.0328495 0.00223053 -0.0800771 -0.0394941 0.0909309 -0.110809 0.10914 0.106187 -0.104306 0.101533 -0.102221 0.101822 -0.100898 0.100602 0.100388 0.10036 0.100329 -0.100527
internal_weight=0 2.39452 4.00803 2.29978 1.70825 0.736145 0.827579 0.972103 1.20669 0.622896 0.398997 0.711429 0.641703 0.364164 0.362042 0.589623 0.379801 0.309926 0.217279 0.206937
internal_count=362 156 206 92 114 46 75 68 140 52 41 135 66 47 56 131 106 91 68 40
is_linear=0
shrinkage=0.1


Tree=49
num_leaves=19
num_cat=0
split_feature=8 13 14 3 7 10 7 10 3 10 14 10 10 14 13 8 3 12
split_gain=1.02622 0.635237 0.596093 0.906777 0.692181 0.705236 0.202847 0.436046 0.151815 0.0072902 0.000220464 3.60773e-06 3.27064e-06 1.7051e-07 1.02872e-07 5.02849e-08 1.36891e-08 1.64991e-09
threshold=22.025000000000002 0.35900000000000004 0.13605000000000003 0.059495000000000006 3.1455000000000006 116.05000000000003 2.6545000000000005 111.7 0.07813500000000001 108.30000000000001 0.12515000000000001 93.695000000000007 130.50000000000003 0.17760000000000001 0.21500000000000002 18.515000000000004 0.057520000000000009 0.36745000000000005
decision_type=2 2 2 2 2 2 2 2 2 2 2 2 2 2 2 2 2 2
left_child=1 9 3 -2 5 8 -4 -8 -5 10 11 14 -9 -14 15 16 -1 -15
right_child=2 -3 6 4 -6 -7 7 12 -10 -11 -12 -13 13 17 -16 -17 -18 -19
leaf_value=0.1003214242815917 -0.091820518963367612 0.0027832582695731891 -0.11330371696722477 -0.00021681850721375534 0.13554842581147383 -0.11033537628976127 0.05316009535294091 -0.10109889658391978 0.10437512355933354 0.11790993539007273 0.10544645457289062 0.10089432545294374 -0.10060480838485471 -0.1004714219220422 0.10046656853467313 0.10039022913241001 0.1002683486568641 -0.10045342230896466
leaf_weight=0.1089278969448062 0.70150855975225646 1.1879676883108912 0.80516352783888556 0.22602618276141562 0.54757553746458143 0.38434340059757233 0.29867038130760193 0.1357780834659934 0.359515271615237 0.4559100866317749 0.11079940386116505 0.19002407416701317 0.13961375877261162 0.093218901194632053 0.063255509361624718 0.083863012259826064 0.087732648127712309 0.11224400997161865
leaf_count=35 20 16 21 18 21 5 6 18 28 5 4 25 24 20 15 23 33 25
internal_value=0 0.0534928 -0.0312556 0.00219872 0.045663 -0.00508435 -0.0781003 -0.041739 0.0640014 0.108232 0.101387 0.100545 -0.100683 -0.10052 0.100351 0.100325 0.100298 -0.100462
internal_weight=0 2.28848 3.80366 2.21897 1.51746 0.969885 1.58469 0.779525 0.585541 1.10051 0.644603 0.533803 0.480855 0.345077 0.343779 0.280524 0.196661 0.205463
internal_count=362 156 206 92 72 51 114 93 46 140 135 131 87 69 106 91 68 45
is_linear=0
shrinkage=0.1


Tree=50
num_leaves=23
num_cat=0
split_feature=3 13 5 11 0 6 1 5 9 13 10 10 10 11 10 9 14 11 8 13 13 8
split_gain=1.71726 3.73978 1.37741 1.29069 0.813156 1.04478 0.746966 0.67104 0.984961 0.247463 0.00322184 0.00179024 0.000101449 1.49482e-05 4.48442e-06 2.42609e-06 2.11653e-06 9.22573e-07 1.37909e-07 8.19091e-08 3.35995e-08 2.1298e-08
threshold=0.058510000000000006 0.16280000000000003 0.050100000000000006 727.10000000000002 14.405000000000003 0.25260000000000005 95.520000000000024 0.034605000000000004 16.875000000000004 0.26490000000000008 112.05000000000001 117.80000000000003 101.80000000000003 1047.0000000000002 97.745000000000019 14.710000000000003 0.16735000000000003 623.30000000000007 18.515000000000004 0.22655000000000003 0.42835000000000006 18.515000000000004
