tree
version=v4
num_class=1
num_tree_per_iteration=1
label_index=0
max_feature_idx=14
objective=binary sigmoid:1
feature_names=mean_radius mean_perimeter mean_area mean_compactness mean_concavity mean_concave_points radius_error perimeter_error area_error worst_radius worst_perimeter worst_area worst_compactness worst_concavity worst_concave_points
feature_infos=[6.9809999999999999:27.420000000000002] [43.789999999999999:186.90000000000001] [143.5:2501] [0.019380000000000001:0.34539999999999998] [0:0.42680000000000001] [0:0.20119999999999999] [0.1115:2.5470000000000002] [0.75700000000000001:18.649999999999999] [6.8019999999999996:542.20000000000005] [7.9299999999999997:36.039999999999999] [50.409999999999997:251.19999999999999] [185.19999999999999:4254] [0.027289999999999998:1.0580000000000001] [0:1.252] [0:0.29099999999999998]
tree_sizes=1154 1142 1246 1444 1573 1687 1577 1791 1671 1787 1679 1558 1674 1785 1781 1678 1777 1692 1803 1799 1698 1799 1806 1915 2021 2015 1891 2007 2118 2014 2127 2023 2024 2026 1696 2114 1909 2136 2232 2345 2029 2127 2125 2134 2027 2245 2146 2338 2153 2453 2251 2132 2133 2154 2247 2150 2370 2155 2263 2700 2150 2153 2254 1934 1933 2465 2276 2494 2282 2383 2264 2264 2269 2496 2499 2700 2281 2585 2283 2578 2721 2717 2724 2714 2275 2625 2633 2829 2839 2638 2367 2614 1846 1970 2280 2845 2859 2312 2087 2428

Tree=0
num_leaves=10
num_cat=0
split_feature=14 11 14 1 9 0 0 1 1
split_gain=254.259 33.6245 5.86463 1.59574 0.195509 2.84217e-14 1.42109e-14 1.42109e-14 7.10543e-15
threshold=0.14655000000000004 874.85000000000014 0.12195000000000002 94.285000000000011 15.495000000000003 17.970000000000002 12.875000000000002 76.840000000000018 70.350000000000009
decision_type=2 2 2 2 2 2 2 2 2
left_child=1 2 4 -2 6 -5 7 8 -1
right_child=3 -3 -4 5 -6 -7 -8 -9 -10
leaf_value=0.74064788283835681 0.3707266283370324 0.45051356558241606 0.62711706304255399 0.30544640695444569 0.71888780904416139 0.30544640695444553 0.74064788283835692 0.74064788283835692 0.74064788283835692
leaf_weight=10.340038463473325 4.5955726504325893 4.8253512829542151 5.2849085479974738 7.8124735057354 4.5955726504325858 12.408046156167982 9.8804811984300596 10.110259830951689 10.340038463473318
leaf_count=45 20 21 23 34 20 54 43 44 45
internal_value=0.584934 0.702726 0.726801 0.317535 0.738439 0.305446 0.740648 0.740648 0.740648
internal_weight=0 55.3767 50.5513 24.8161 45.2664 20.2205 40.6708 30.7903 20.6801
internal_count=349 241 220 108 197 88 177 134 90
is_linear=0
shrinkage=1


Tree=1
num_leaves=10
num_cat=0
split_feature=14 9 5 10 9 14 0 0 0
split_gain=199.998 23.8188 4.93776 3.37891 0.00891567 0.0011368 9.64523e-06 1.42109e-14 7.10543e-15
threshold=0.14235000000000003 16.765000000000004 0.064790000000000014 101.55000000000003 20.150000000000002 0.1072 13.465000000000002 12.875000000000002 11.725000000000003
decision_type=2 2 2 2 2 2 2 2 2
left_child=1 3 -2 5 -4 6 7 8 -1
right_child=2 -3 4 -5 -6 -7 -8 -9 -10
leaf_value=0.14768048843560166 -0.12532571633492717 -0.088237702691963057 -0.24003991386496254 0.067629489436326268 -0.23572308840529377 0.14936239739749826 0.14783884411253209 0.14768048843560172 0.14768048843560172
leaf_weight=16.396672278642662 4.7854941487312344 5.1910900175571433 6.8035003244876888 6.0210668593645087 16.121053665876389 4.641010344028472 4.3774529993534079 5.0283128321170798 10.275247961282728
leaf_count=75 20 22 28 27 66 21 20 23 47
internal_value=0 0.11498 -0.217717 0.13755 -0.237004 0.147889 0.1477 0.14768 0.14768
internal_weight=0 51.9309 27.71 46.7398 22.9246 40.7187 36.0777 31.7002 26.6719
internal_count=349 235 114 213 94 186 165 145 122
is_linear=0
shrinkage=0.1


Tree=2
num_leaves=11
num_cat=0
split_feature=14 9 11 11 5 14 10 10 1 0
split_gain=163.499 19.3426 10.9013 0.672771 0.0876033 0.00123708 0.000512279 2.73929e-06 9.40005e-10 7.10543e-15
threshold=0.1358 16.765000000000004 809.05000000000007 749.50000000000011 0.075500000000000012 0.1072 138.80000000000004 96.200000000000017 82.620000000000019 20.110000000000003
decision_type=2 2 2 2 2 2 2 2 2 2
left_child=1 3 -2 5 -4 7 -6 8 -1 -8
right_child=2 -3 4 -5 6 -7 9 -9 -10 -11
leaf_value=0.14113427630144817 -0.057194302479174543 -0.069902023912529296 -0.22215736538587119 0.099695768083974262 -0.2083959729943437 0.14292649113448355 -0.20722113347961787 0.14122092891219953 0.14113265054892529 -0.20722113347961787
leaf_weight=25.607109725475315 5.7045814692974117 5.0476117581129065 5.1774960160255459 4.314667895436286 4.9904351681470898 4.4028845131397238 8.4896782338619214 4.1337129473686209 4.1301107406616202 5.9927140474319449
leaf_count=124 24 21 21 20 20 21 34 20 20 24
internal_value=0 0.115192 -0.181767 0.13713 -0.210596 0.14135 -0.207522 0.141145 0.141134 -0.207221
internal_weight=0 47.6361 30.3549 42.5885 24.6503 38.2738 19.4728 33.8709 29.7372 14.4824
internal_count=349 226 123 205 99 185 78 164 144 58
is_linear=0
shrinkage=0.1


Tree=3
num_leaves=13
num_cat=0
split_feature=14 9 11 14 5 11 10 14 0 12 0 1
split_gain=135.432 16.9897 8.9797 0.706324 0.0469824 0.00607471 0.000276079 2.01791e-07 1.06421e-08 7.5886e-12 7.10543e-14 7.10543e-15
threshold=0.1358 16.765000000000004 809.05000000000007 0.111 0.075500000000000012 711.30000000000007 138.80000000000004 0.094525000000000012 13.185 0.21295000000000003 12.690000000000001 128.20000000000002
decision_type=2 2 2 2 2 2 2 2 2 2 2 2
left_child=1 3 -2 5 -4 7 -6 8 9 10 -1 -8
right_child=2 -3 4 -5 6 -7 11 -9 -10 -11 -12 -13
leaf_value=0.13571989351275349 -0.050950506547504638 -0.062099717309170278 -0.19805965038451717 0.093817253170799739 -0.18801728264912521 0.13982210166741479 -0.18715362145394504 0.13569472514304035 0.13571422324825574 0.13571974351752999 0.13571990833093076 -0.18715362145394504
leaf_weight=16.0953774303198 5.7600986361503628 5.1100042760372153 5.2229649722576168 4.4229214191436759 4.9778976291418102 4.0667869746685019 5.7229084819555274 3.8771053552627555 3.8781127333641043 3.8783965408802024 3.8784050941467276 8.7087737768888456
leaf_count=83 24 21 21 22 20 20 23 20 20 20 20 35
internal_value=0 0.109626 -0.163356 0.131511 -0.189641 0.136184 -0.187375 0.135716 0.135719 0.13572 0.13572 -0.187154
internal_weight=0 45.2071 30.3926 40.0971 24.6325 35.6742 19.4096 31.6074 27.7303 23.8522 19.9738 14.4317
internal_count=349 226 123 205 99 183 78 163 143 123 103 58
is_linear=0
shrinkage=0.1


Tree=4
num_leaves=14
num_cat=0
split_feature=14 11 14 2 6 0 9 13 13 14 1 12 1
split_gain=114.246 19.5436 4.79263 4.12104 0.801682 0.0299755 0.00926619 0.00010247 2.99549e-05 1.21872e-07 4.15041e-08 5.52802e-12 3.83693e-13
threshold=0.14655000000000004 930.75000000000011 0.111 562.55000000000007 0.33200000000000007 15.960000000000003 15.345000000000001 0.40345000000000003 0.53495000000000015 0.094525000000000012 85.555000000000021 0.21050000000000002 81.360000000000014
decision_type=2 2 2 2 2 2 2 2 2 2 2 2 2
left_child=1 2 6 -4 -2 -6 9 -7 -9 10 11 12 -1
right_child=4 -3 3 -5 5 7 -8 8 -10 -11 -12 -13 -14
leaf_value=0.13118657740306386 -0.12955163510465487 -0.11785761666384086 0.11962055138340839 -0.017675636259024068 -0.18110888867535985 -0.17190164798819507 0.13638557343899768 -0.17259305092962268 -0.17225044140546308 0.131165388321733 0.13117502959392563 0.13118644945013341 0.13118661362604189
leaf_weight=15.221875011920941 4.9333438575267818 3.9543724358081809 4.2326646447181684 4.521671861410141 4.9186167567968395 6.3260991126298931 3.8684827089309684 4.8733568638563138 5.3572539240121841 3.6229600757360449 3.6235506683588019 3.6242481768131247 3.6242583394050589
leaf_count=84 20 16 21 20 20 26 20 20 22 20 20 20 20
internal_value=0 0.0947482 0.114605 0.0487062 -0.165904 -0.174254 0.131782 -0.172218 -0.172414 0.131183 0.131185 0.131187 0.131187
internal_weight=0 46.2941 42.3397 8.75434 26.4087 21.4753 33.5854 16.5567 10.2306 29.7169 26.0939 22.4704 18.8461
internal_count=349 241 225 41 108 88 184 68 42 164 144 124 104
is_linear=0
shrinkage=0.1


Tree=5
num_leaves=15
num_cat=0
split_feature=14 11 5 4 10 11 14 8 8 4 10 14 10 1
split_gain=105.667 17.2465 1.81924 0.184549 0.123242 0.0867647 0.00900482 0.000371272 3.08952e-07 5.5553e-07 1.35189e-07 2.04423e-11 3.55271e-14 3.55271e-15
threshold=0.14655000000000004 901.75000000000011 0.049230000000000003 0.22955000000000003 119.60000000000001 764.75000000000011 0.10135000000000001 52.940000000000005 22.200000000000003 0.021405000000000004 92.500000000000014 0.082490000000000022 86.345000000000013 69.825000000000017
decision_type=2 2 2 2 2 2 2 2 2 2 2 2 2 2
left_child=1 2 5 4 -2 6 8 -6 10 -10 11 12 13 -1
right_child=3 -3 -4 -5 7 -7 -8 -9 9 -11 -12 -13 -14 -15
leaf_value=0.12735231779359737 -0.17937208408069102 -0.083088754917791746 0.060838775544131085 -0.14404584567911013 -0.16164883365661498 0.11142494680123588 0.13254845791909609 -0.16057411693583376 0.1274030372286786 0.12735162227776209 0.1273304227993439 0.12735259624673151 0.12735232956603407 0.12735231694641325
leaf_weight=5.5653734207153409 4.890412434935576 4.7220622301101676 4.7990677654743186 4.9686824381351462 4.9517637342214575 3.5167067199945441 3.773723527789115 9.1618253588676435 3.3764784187078458 5.5652930438518524 3.3714031726121894 3.3729734122753134 3.5416024178266516 4.2161919921636581
leaf_count=33 20 19 24 21 21 18 21 39 20 33 20 20 21 25
internal_value=0 0.0979066 0.118702 -0.161205 -0.165692 0.126352 0.127953 -0.160951 0.127356 0.127371 0.127349 0.127352 0.127352 0.127352
internal_weight=0 45.8209 41.0988 23.9727 19.004 36.2997 32.783 14.1136 29.0093 8.94177 20.0675 16.6961 13.3232 9.78157
internal_count=355 254 235 101 80 211 193 60 172 53 119 99 79 58
is_linear=0
shrinkage=0.1


Tree=6
num_leaves=14
num_cat=0
split_feature=14 11 9 5 8 14 6 7 14 8 0 12 0
split_gain=90.5391 12.3457 1.65691 0.967762 0.021791 0.0108065 0.000155114 0.000123393 5.49191e-07 3.4609e-07 8.77214e-08 2.13163e-13 3.55271e-15
threshold=0.14235000000000003 901.75000000000011 15.780000000000001 0.066165000000000015 43.815000000000005 0.10975000000000001 0.40490000000000009 4.5695000000000006 0.091335000000000013 22.200000000000003 12.945000000000002 0.20440000000000003 11.895000000000001
decision_type=2 2 2 2 2 2 2 2 2 2 2 2 2
left_child=1 2 5 -2 -5 6 8 -6 9 10 11 12 -1
right_child=3 -3 -4 4 7 -7 -8 -9 -10 -11 -12 -13 -14
leaf_value=0.1240816206002652 -0.10355939717214886 -0.063579034752386396 0.064119088912676203 -0.16002906860538474 -0.1518742993770715 0.13020897413608457 0.12477646157802287 -0.15244946382959015 0.12404032356044725 0.12410777460942052 0.12406309077805018 0.12408164950196332 0.12408161702902534
leaf_weight=7.6641997992992525 4.7041702121496227 4.2461113929748526 5.2315648049116126 4.6390509158372906 6.7463910728693 3.2973783761262885 3.6546432375907889 8.3422801941633207 3.1249454766511908 5.16499139368534 3.1267621517181388 3.1282474994659415 3.1282447874546051
leaf_count=49 20 17 27 20 30 19 23 37 20 33 20 20 20
internal_value=0 0.0980364 0.116326 -0.144316 -0.154035 0.124784 0.124167 -0.152192 0.12408 0.124085 0.124078 0.124082 0.124082
internal_weight=0 41.7671 37.521 24.4319 19.7277 32.2894 28.992 15.0887 25.3374 22.2124 17.0475 13.9207 10.7924
internal_count=355 248 231 107 87 204 185 67 162 142 109 89 69
is_linear=0
shrinkage=0.1


Tree=7
num_leaves=16
num_cat=0
split_feature=5 10 11 3 12 5 14 14 8 9 6 1 8 14 3
split_gain=79.245 9.13055 4.9808 0.766273 1.49723 0.338869 0.15419 0.237954 0.0071432 0.00157528 2.52293e-08 4.23988e-10 1.83707e-10 7.18003e-12 3.10862e-13
threshold=0.049230000000000003 103.25000000000001 901.75000000000011 0.13295000000000004 0.38915000000000005 0.073820000000000011 0.11415000000000002 0.096235000000000015 60.055000000000007 14.975000000000003 0.37765000000000004 82.620000000000019 21.630000000000006 0.081490000000000021 0.048545000000000005
decision_type=2 2 2 2 2 2 2 2 2 2 2 2 2 2 2
left_child=2 -2 6 5 -5 -3 7 9 -6 10 11 12 13 14 -1
right_child=1 3 -4 4 8 -7 -8 -9 -10 -11 -12 -13 -14 -15 -16
leaf_value=0.12127152279986919 0.026837246697613577 -0.18096332304632676 -0.0097646085342378511 -0.075537406757266293 -0.15042169155756852 -0.14494954847371611 0.14084835537669108 0.092543864996236597 -0.14481592754620304 0.1236863448064191 0.12126154388845999 0.12127005980697188 0.1212706551138254 0.1212716707515327 0.12127148389945697
leaf_weight=2.8927495181560676 3.7672198414802578 4.6388254612684268 3.2236906439065924 4.2324033975601187 4.4013635665178281 5.9819514751434326 3.3956031352281562 3.1840037256479254 4.7010027319192886 3.0747755020856848 3.1810556054115287 2.8926210403442374 2.8926733285188666 3.0374013036489478 7.0872280299663544
leaf_count=20 20 20 13 20 20 28 19 21 22 20 22 20 20 21 49
internal_value=0 -0.117881 0.108649 -0.140639 -0.124677 -0.160679 0.120715 0.118294 -0.147527 0.121566 0.12127 0.121271 0.121271 0.121272 0.121271
internal_weight=0 27.7228 34.8618 23.9555 13.3348 10.6208 31.6381 28.2425 9.10237 25.0585 21.9837 18.8027 15.9101 13.0174 9.97998
internal_count=355 130 225 110 62 48 212 193 42 172 152 130 110 90 69
is_linear=0
shrinkage=0.1


Tree=8
num_leaves=15
num_cat=0
split_feature=14 9 14 4 10 9 5 12 14 12 9 0 8 6
split_gain=68.6933 17.3223 1.81174 0.155522 0.0515465 0.0488706 0.000342386 0.000290778 8.92149e-06 1.03032e-07 1.46895e-07 1.30446e-07 3.11306e-09 3.01785e-09
threshold=0.14655000000000004 17.795000000000005 0.111 0.22955000000000003 119.60000000000001 15.720000000000001 0.033375000000000009 0.38915000000000005 0.084940000000000015 0.12430000000000001 13.790000000000001 12.465000000000002 19.575000000000006 0.31235000000000007
decision_type=2 2 2 2 2 2 2 2 2 2 2 2 2 2
left_child=1 2 5 4 -2 6 8 -6 9 11 13 12 -1 -11
right_child=3 -3 -4 -5 7 -7 -8 -9 -10 10 -12 -13 -14 -15
leaf_value=0.11884214907164317 -0.15157575110269172 -0.12651138554495533 0.064058269863711201 -0.12109134576422437 -0.13932872382859704 0.13288547201383594 0.12001953755966153 -0.13830980750048705 0.11903086178882956 0.11884215016322582 0.1188132068661594 0.11886659504670112 0.11883767661446104 0.118837934095526
leaf_weight=3.7354891002178316 4.4207257926464143 3.4377329349517813 7.1871238052844992 4.3548037409782401 7.6913640797138196 2.8232969194650641 2.9091553986072531 4.4048532247543335 2.8203819990158072 4.6693611443042737 2.6653899401426315 2.6705451458692551 2.6677739173173904 2.6677987575531006
leaf_count=28 20 14 38 21 38 17 21 22 21 35 20 20 20 20
internal_value=0 0.0876395 0.108785 -0.137903 -0.142335 0.120419 0.119 -0.138958 0.118865 0.11884 0.118833 0.118848 0.11884 0.118841
internal_weight=0 38.254 34.8163 20.8717 16.5169 27.6292 24.8059 12.0962 21.8967 19.0764 10.0025 9.07381 6.40326 7.33716
internal_count=355 254 240 101 80 202 185 60 164 143 75 68 48 55
is_linear=0
shrinkage=0.1


Tree=9
num_leaves=16
num_cat=0
split_feature=5 14 11 11 14 1 4 0 5 14 12 2 10 8 6
split_gain=60.6339 7.1457 4.16069 0.380426 0.054529 0.0417468 0.000694544 0.000287618 2.06455e-05 1.68467e-06 7.54989e-08 8.95463e-08 7.94765e-08 1.85131e-09 1.7991e-09
threshold=0.049230000000000003 0.14655000000000004 930.75000000000011 779.80000000000007 0.10530000000000002 95.955000000000013 0.21475000000000002 17.640000000000004 0.028735000000000004 0.083100000000000021 0.12430000000000001 476.60000000000008 88.110000000000014 19.310000000000002 0.2798000000000001
decision_type=2 2 2 2 2 2 2 2 2 2 2 2 2 2 2
left_child=2 -2 3 4 8 -3 7 -7 9 10 11 14 13 -12 -1
right_child=1 5 -4 -5 -6 6 -8 -9 -10 -11 12 -13 -14 -15 -16
leaf_value=0.11673083368167608 -0.011483593491681078 -0.14539992659254172 -0.021904343600754748 0.082990637975106418 0.13202302949669281 -0.13312758588147153 -0.1352294874017326 -0.1341714382722399 0.11700364103775546 0.11681833760727285 0.11673087680642971 0.11675221937786645 0.11670761068283671 0.1167271929254429 0.11672713260224686
leaf_weight=2.8240624144673507 5.985508635640147 4.225572437047961 2.449593558907508 3.458562731742858 2.6321422159671775 4.6708796322345716 4.2363304346799842 6.0696855187416077 3.5981674864888182 2.4646505638957015 3.0696379393339157 2.4579213336110115 2.453258216381073 2.4553250595927238 2.4553184136748314
leaf_count=23 31 20 10 20 18 25 22 32 29 20 25 20 20 20 20
internal_value=0 -0.106885 0.103047 0.11403 0.118428 -0.136622 -0.134145 -0.133717 0.116785 0.116741 0.116729 0.116736 0.116723 0.116729 0.116729
internal_weight=0 25.188 30.3186 27.869 24.4105 19.2025 14.9769 10.7406 21.7783 18.1802 15.7155 7.7373 7.97822 5.52496 5.27938
internal_count=355 130 225 215 195 99 79 57 177 148 128 63 65 45 43
is_linear=0
shrinkage=0.1


Tree=10
num_leaves=15
num_cat=0
split_feature=5 11 9 3 8 9 14 12 14 12 13 10 5 9
split_gain=48.736 7.65258 6.46697 0.421896 0.480595 0.272197 0.113204 0.000548688 1.02052e-05 2.7738e-07 4.65062e-07 1.54846e-07 6.58703e-09 2.21838e-09
threshold=0.049230000000000003 805.30000000000007 16.850000000000005 0.12835000000000002 50.955000000000005 15.890000000000002 0.1072 0.38915000000000005 0.087895000000000015 0.12535000000000004 0.079605000000000009 91.960000000000022 0.023835000000000005 12.595000000000001
decision_type=2 2 2 2 2 2 2 2 2 2 2 2 2 2
left_child=2 -2 5 -3 -5 6 8 -6 9 10 13 12 -11 -1
right_child=1 3 -4 4 7 -7 -8 -9 -10 11 -12 -13 -14 -15
leaf_value=0.11488750552898382 0.00082550700981537807 -0.14799697728159453 -0.025798058491158911 -0.086884823075240591 -0.13140118609735149 0.082657418923624659 0.13761607086096422 -0.12979917588615453 0.11511475329513091 0.11488682714372207 0.1149407047501482 0.11485415212824031 0.11488025534456919 0.11488312353934915
leaf_weight=2.3686215430498256 5.8877462744712856 7.4162342250347164 3.8699171692132941 3.5681450664997092 3.9962488412857038 2.4880087673664084 2.5011454299092284 4.5975774079561234 2.2809289395809165 4.2859319671988469 2.2615693211555481 2.2520608827471733 2.367765799164772 2.255337305366993
leaf_count=21 31 39 16 20 22 17 18 26 20 38 20 20 21 20
internal_value=0 -0.0991367 0.0938247 -0.129198 -0.117735 0.113899 0.117677 -0.130544 0.114917 0.114888 0.114904 0.114877 0.114884 0.114885
internal_weight=0 25.466 26.9313 19.5782 12.162 23.0614 20.5734 8.59383 18.0722 15.7913 6.88553 8.90576 6.6537 4.62396
internal_count=349 138 211 107 68 195 178 48 160 140 61 79 59 41
is_linear=0
shrinkage=0.1


Tree=11
num_leaves=14
num_cat=0
split_feature=14 8 11 13 4 10 4 3 12 5 13 8 4
split_gain=43.3638 12.043 1.75976 0.722021 0.179084 0.168573 0.000792955 0.000349834 0.000163139 3.5837e-07 9.66087e-08 7.92955e-09 1.6537e-11
threshold=0.111 23.330000000000002 888.50000000000011 0.19285000000000005 0.11275 100.05500000000002 0.047010000000000003 0.13295000000000004 0.40180000000000005 0.024115000000000001 0.10575000000000001 20.705000000000002 0.013555000000000003
decision_type=2 2 2 2 2 2 2 2 2 2 2 2 2
left_child=3 -2 -3 5 -4 6 9 -6 -9 10 11 12 -1
right_child=1 2 4 -5 7 -7 -8 8 -10 -11 -12 -13 -14
leaf_value=0.11327165382569729 0.041556549015381278 -0.066683620243553052 -0.15092683989627953 0.072281672555629603 -0.1256883510937338 0.14319553675222971 0.1153104428081496 -0.12738916150765217 -0.12650469185148616 0.11323377589973137 0.11329024577155589 0.11326424709074137 0.11327125876307619
leaf_weight=2.1722102761268669 6.2186244353652027 5.4247240796685245 3.9423418343067196 4.4747750908136359 3.7376446276903144 2.2148753851652137 2.2452774569392195 3.3737960308790189 5.4609085321426392 2.5802368968725196 3.1064068004488945 2.3780669420957565 2.0687243863940239
leaf_count=21 34 29 20 36 23 15 20 20 33 25 30 23 20
internal_value=0 -0.081281 -0.116099 0.107969 -0.132331 0.117494 0.113582 -0.126499 -0.126842 0.113267 0.113276 0.113269 0.113271
internal_weight=0 28.158 21.9394 21.2406 16.5147 16.7658 14.5509 12.5723 8.8347 12.3056 9.72541 6.619 4.24093
internal_count=349 159 125 190 96 154 139 76 53 119 94 64 41
is_linear=0
shrinkage=0.1


Tree=12
num_leaves=15
num_cat=0
split_feature=14 8 11 10 14 5 11 3 12 13 7 4 8 11
split_gain=37.694 10.4711 1.8701 0.85134 0.128859 0.00146087 0.000403955 0.000286639 0.000217565 5.80489e-05 1.8259e-07 9.20172e-08 2.09637e-09 1.29856e-10
threshold=0.111 23.330000000000002 888.50000000000011 107.80000000000001 0.15510000000000002 0.033800000000000004 698.20000000000016 0.13295000000000004 0.40180000000000005 0.19285000000000005 1.2365000000000002 0.03759500000000001 20.705000000000002 464.35000000000008
decision_type=2 2 2 2 2 2 2 2 2 2 2 2 2 2
left_child=3 -2 -3 5 -4 6 9 -6 -9 10 -1 12 13 -12
right_child=1 2 4 -5 7 -7 -8 8 -10 -11 11 -13 -14 -15
leaf_value=0.1118729143701561 0.037800833899117363 -0.060144038034040816 -0.14466503118417515 0.045029203657276737 -0.12256545153466923 0.11489996370578018 0.11344143978216265 -0.12428851232866556 -0.12322206407570167 0.11242568557530697 0.11185041837600013 0.11182525622392676 0.11184616698671708 0.11184924750152872
leaf_weight=2.4664088413119378 6.1562410518527058 5.4136831313371685 3.7303990274667731 2.0937770158052436 3.6018199026584616 2.1900189444422713 2.0642216056585303 3.1411935538053495 4.8924645036458969 2.0642060264945021 1.8944730982184395 2.3640866130590439 2.6515114232897758 1.8943255990743635
leaf_count=26 34 29 20 10 24 20 20 20 32 21 20 25 28 20
internal_value=0 -0.0767484 -0.110685 0.105308 -0.128492 0.112483 0.11214 -0.123307 -0.123639 0.111938 0.111849 0.111842 0.111848 0.11185
internal_weight=0 26.9358 20.7796 19.683 15.3659 17.5893 15.3992 11.6355 8.03366 13.335 11.2708 8.8044 6.44031 3.7888
internal_count=349 159 125 190 96 180 160 76 52 140 119 93 68 40
is_linear=0
shrinkage=0.1


Tree=13
num_leaves=16
num_cat=0
split_feature=5 13 9 11 8 3 14 3 10 13 11 4 6 8 0
split_gain=33.3399 6.30153 5.38593 0.9423 0.885866 0.215007 0.113016 0.0351682 0.00101125 7.33047e-05 2.1516e-06 1.39494e-07 3.46679e-08 4.10348e-10 1.5635e-10
threshold=0.049230000000000003 0.26490000000000008 17.570000000000004 779.80000000000007 28.915000000000003 0.11185000000000002 0.11415000000000002 0.18330000000000005 141.25000000000003 0.19285000000000005 671.50000000000011 0.03759500000000001 0.18255000000000002 22.800000000000001 11.285000000000002
decision_type=2 2 2 2 2 2 2 2 2 2 2 2 2 2 2
left_child=2 -2 3 6 -3 -6 9 8 -7 10 11 12 -1 14 -14
right_child=1 4 -4 -5 5 7 -8 -9 -10 -11 -12 -13 13 -15 -16
leaf_value=0.11061142462678458 0.032570811693028792 -0.072656389520759562 -0.055223157174092964 0.056241441852224128 -0.14739939760029513 -0.12297773140553724 0.13669934865899599 -0.10939903580709492 -0.12055933384325045 0.11120204404698042 0.1107121037195003 0.11057272894640208 0.11059639114774673 0.11059397501496089 0.11059511663990773
leaf_weight=1.7345623895526019 3.6287873834371593 4.3873284906148937 2.3911972343921652 3.45521456003189 3.1085658073425284 2.9915564358234388 1.893616348505019 3.5608999133110046 4.096926674246788 2.5334424450993529 1.7447004914283741 2.7670925483107567 2.1657885015010838 1.7323114052414892 1.7324625700712202
leaf_count=20 22 22 10 22 20 20 14 25 29 28 20 32 25 20 20
internal_value=0 -0.087726 0.0865248 0.103679 -0.111784 -0.124261 0.113732 -0.117507 -0.12158 0.110714 0.11061 0.110592 0.110599 0.110595 0.110596
internal_weight=0 21.7741 22.1504 19.7592 18.1453 13.7579 16.304 10.6494 7.08848 14.4104 11.8769 10.1322 7.36512 5.63056 3.89825
internal_count=349 138 211 201 116 94 179 74 49 165 137 117 85 65 45
is_linear=0
shrinkage=0.1


Tree=14
num_leaves=16
num_cat=0
split_feature=14 8 13 9 5 6 5 9 9 5 13 13 4 8 0
split_gain=29.4329 8.78648 5.94665 1.18533 0.674239 0.430804 0.00539108 0.000493974 0.000174522 8.56955e-05 3.439e-05 1.6359e-07 6.84759e-08 1.27098e-09 3.77317e-10
threshold=0.111 31.085000000000004 0.36000000000000004 16.765000000000004 0.068670000000000023 0.51365000000000005 0.040810000000000006 15.070000000000002 22.785000000000004 0.12430000000000001 0.19285000000000005 0.16155000000000003 0.036510000000000008 23.125000000000004 11.285000000000002
decision_type=2 2 2 2 2 2 2 2 2 2 2 2 2 2 2
left_child=3 2 -2 6 -3 -6 7 10 -7 -10 11 12 13 14 -1
right_child=1 4 -4 -5 5 8 -8 -9 9 -11 -12 -13 -14 -15 -16
leaf_value=0.10948682965332955 0.075430027759896379 -0.15622332816541074 -0.079452831697529258 0.021011163982305733 -0.073030707472209175 -0.11925788312730348 0.11560120997482506 0.11138252841288357 -0.11787207357726759 -0.1186726608084487 0.1099442162834661 0.10951584397901451 0.10946205139808468 0.1094827732506601 0.10948508421732793
leaf_weight=2.6907677352428454 5.2676016092300433 3.7089299559593192 4.6825455948710442 1.6399111598730076 2.7980604022741309 2.6769788265228254 1.8159400820732106 1.7113834545016278 2.697932131588459 2.650603786110878 1.9741374179720867 1.5866983234882344 1.5793508812785146 1.5822440087795255 2.2947176024317741
leaf_count=34 31 21 26 7 20 20 17 19 21 20 24 20 20 20 29
internal_value=0 -0.0698571 0.00254206 0.101792 -0.119428 -0.106819 0.110488 0.109796 -0.118599 -0.118269 0.109564 0.109486 0.109481 0.109485 0.109486
internal_weight=0 24.4827 9.95015 16.8752 14.5325 10.8236 15.2352 13.4193 8.02551 5.34854 11.7079 9.73378 8.14708 6.56773 4.98549
internal_count=349 159 57 190 102 81 183 166 61 41 147 123 103 83 63
is_linear=0
shrinkage=0.1


Tree=15
num_leaves=15
num_cat=0
split_feature=14 9 14 4 8 10 5 8 3 13 9 4 8 14
split_gain=30.0838 9.42175 1.45535 0.229531 0.0456158 0.0394345 0.000972834 0.00054659 0.000122642 2.07035e-05 8.53812e-06 4.6522e-08 5.23073e-10 8.38893e-11
threshold=0.14655000000000004 17.795000000000005 0.111 0.24155000000000001 34.760000000000012 102.65000000000002 0.033800000000000004 52.940000000000005 0.13295000000000004 0.19285000000000005 14.765000000000002 0.03759500000000001 24.195000000000004 0.065225000000000019
decision_type=2 2 2 2 2 2 2 2 2 2 2 2 2 2
left_child=1 2 5 4 -2 6 9 -6 -9 10 11 12 13 -1
right_child=3 -3 -4 -5 7 -7 -8 8 -10 -11 -12 -13 -14 -15
leaf_value=0.10850284807475885 -0.13045012923829616 -0.094066960100604682 0.054080895331244161 -0.087088636559509991 -0.11759846660595159 0.1251201782515042 0.11118466666009899 -0.11527865453492359 -0.11628850008411323 0.10888559092319799 0.10875849987962039 0.10848439620628308 0.10850045962639072 0.10850198604300812
leaf_weight=3.9001012891531044 3.3764188885688764 3.023675173521041 6.4178947284817687 2.4812679141759864 2.637653760612011 1.6789809614419926 1.6418987736105908 2.2943696901202202 2.5273944586515427 2.0232997313141814 1.4728220477700222 1.8743571788072584 1.4441398233175275 1.5887944027781484
leaf_count=54 20 14 38 19 21 14 19 20 21 27 20 26 20 22
internal_value=0 0.071466 0.0941731 -0.114524 -0.120806 0.110641 0.108898 -0.116441 -0.115808 0.108593 0.108536 0.108498 0.108502 0.108503
internal_weight=0 25.066 22.0423 13.3171 10.8358 15.6244 13.9454 7.45942 4.82176 12.3035 10.2802 8.80739 6.93304 5.4889
internal_count=355 254 240 101 82 202 188 62 41 169 142 122 96 76
is_linear=0
shrinkage=0.1


Tree=16
num_leaves=16
num_cat=0
split_feature=14 9 4 3 9 9 4 8 14 8 3 4 13 0 5
split_gain=26.4124 8.19795 1.57102 2.63012 0.490412 0.466502 0.237665 0.0320075 0.00288669 0.000389105 8.6391e-05 6.80151e-05 1.24506e-06 1.30932e-07 7.61786e-09
threshold=0.14655000000000004 17.795000000000005 0.077310000000000018 0.12835000000000002 16.765000000000004 15.780000000000001 0.24155000000000001 34.760000000000012 0.099515000000000006 52.940000000000005 0.13295000000000004 0.052580000000000009 0.16155000000000003 13.275 0.022240000000000003
decision_type=2 2 2 2 2 2 2 2 2 2 2 2 2 2 2
left_child=1 2 4 -4 5 8 7 -2 11 -9 -11 12 13 14 -1
right_child=6 -3 3 -5 -6 -7 -8 9 -10 10 -12 -13 -14 -15 -16
leaf_value=0.1076282302085258 -0.1268334835987491 -0.087197165177632235 -0.010791102475614872 0.13178953415633643 0.16110468824372429 0.049154579194853082 -0.083106641786501345 -0.1156560446151722 0.11234562739006537 -0.11361604729998671 -0.11450074675188489 0.10835637715092827 0.10772298002278408 0.10759150657070976 0.10762008102046315
leaf_weight=4.7413702607154899 3.1376989781856519 2.9401375949382773 3.2959938421845427 2.1297407671809196 1.5545015782117833 1.4970724582672108 2.347196787595748 2.4246659055352211 1.5648090392351139 2.1048485189676285 2.3207489773631096 1.5363710895180691 1.3972247987985609 1.3114632815122602 1.5132059231400488
leaf_count=72 20 14 27 16 7 14 19 21 18 20 21 22 21 20 23
internal_value=0 0.0689813 0.0913351 0.0451755 0.107904 0.101805 -0.11174 -0.118469 0.108339 -0.114638 -0.11408 0.107742 0.107636 0.10762 0.107626
internal_weight=0 23.4819 20.5418 5.42573 15.116 13.5615 12.3352 9.98796 12.0644 6.85026 4.4256 10.4996 8.96326 7.56604 6.25458
internal_count=355 254 240 43 197 190 101 82 176 62 41 158 136 115 95
is_linear=0
shrinkage=0.1


Tree=17
num_leaves=15
num_cat=0
split_feature=5 14 9 6 3 4 14 11 4 9 3 13 13 13
split_gain=23.5495 4.30997 3.70883 0.367825 0.324077 0.572815 0.169656 0.0224419 0.000304876 0.000279111 7.43384e-05 3.6028e-05 2.62096e-06 3.73959e-07
threshold=0.049230000000000003 0.14655000000000004 17.795000000000005 0.43220000000000008 0.060420000000000008 0.024925000000000003 0.10300000000000001 930.75000000000011 0.16975000000000004 14.765000000000002 0.12645000000000003 0.20795000000000002 0.062220000000000004 0.15175000000000002
decision_type=2 2 2 2 2 2 2 2 2 2 2 2 2 2
left_child=2 -2 3 4 5 12 9 -3 10 11 -9 13 -1 -6
right_child=1 7 -4 -5 6 -7 -8 8 -10 -11 -12 -13 -14 -15
leaf_value=0.10684851938307777 -0.0043840319154605425 -0.12326767002789403 -0.049436044600256357 0.050618795543145516 0.10684577770103057 0.02654445032372818 0.13459824416243557 -0.11208907363280407 -0.11377191327512277 0.10867544252476243 -0.11295705550738402 0.10744581389601532 0.10703483395586666 0.10691355696184993
leaf_weight=1.9795815683901339 5.0539452508091953 3.0314866676926595 1.7868380844593037 1.2504043802618969 2.0988147556781755 1.2265315838158128 3.5782045982778072 1.9212452769279482 4.0197852030396461 1.3477573394775388 2.028528980910778 1.6076395288109777 1.2205739729106424 1.3297426104545591
leaf_count=33 31 21 8 16 35 19 28 20 38 19 20 25 20 22
internal_value=0 -0.0808264 0.0870486 0.102642 0.107163 0.0846495 0.117167 -0.115944 -0.113159 0.107397 -0.112535 0.107055 0.10692 0.106872
internal_weight=0 16.055 17.4261 15.6393 14.3888 4.42669 9.96216 11.001 7.96956 6.38395 3.94977 5.0362 3.20016 3.42856
internal_count=355 130 225 217 201 72 129 99 78 101 40 82 53 57
is_linear=0
shrinkage=0.1


Tree=18
num_leaves=16
num_cat=0
split_feature=5 14 9 11 14 11 3 13 13 5 10 13 6 13 2
split_gain=20.5555 4.09834 3.32725 0.397368 0.0518603 0.0159637 0.000217771 0.000101841 5.90736e-05 1.13573e-05 6.51451e-06 1.62355e-06 6.868e-07 7.96191e-08 2.13726e-09
threshold=0.049230000000000003 0.14655000000000004 17.795000000000005 779.80000000000007 0.11575000000000002 930.75000000000011 0.12965000000000002 0.26000000000000006 0.52385000000000004 0.022750000000000003 88.835000000000022 0.14285000000000003 0.34690000000000004 0.082640000000000005 389.70000000000005
decision_type=2 2 2 2 2 2 2 2 2 2 2 2 2 2 2
left_child=2 -2 3 4 7 -3 -7 9 -8 11 -11 12 13 14 -1
right_child=1 5 -4 -5 -6 6 8 -9 -10 10 -12 -13 -14 -15 -16
leaf_value=0.10615592600426285 -0.0039415960895946497 -0.1206346392813355 -0.045118134323672565 0.06728870010561426 0.12843740627924088 -0.11092485728668044 -0.11173090383094311 0.10729181388752058 -0.11241719668599462 0.10632826228647518 0.10660188438794796 0.10631687820859864 0.10625491959053955 0.10618582036934399 0.10614966960922115
leaf_weight=1.0925337262451709 5.0588458478450766 2.7997774258255941 1.763332039117812 2.9002972096204749 1.1924648284912098 2.214815117418766 2.2526395544409752 1.1772202476859082 2.8297924920916557 2.0683583952486519 1.5019725598394869 1.2285699956119058 1.1073107086122034 1.0969038344919679 1.0915444679558275
leaf_count=20 31 21 8 22 11 25 24 19 29 37 26 22 20 20 20
internal_value=0 -0.0774073 0.0845656 0.100383 0.108688 -0.114215 -0.111752 0.106416 -0.112113 0.106304 0.106443 0.106215 0.106187 0.106164 0.106153
internal_weight=0 15.1559 16.2205 14.4572 11.5569 10.097 7.29725 10.3644 5.08243 9.18719 3.57033 5.61686 4.38829 3.28098 2.18408
internal_count=355 130 225 217 195 99 78 184 53 165 63 102 80 60 40
is_linear=0
shrinkage=0.1


Tree=19
num_leaves=16
num_cat=0
split_feature=14 11 1 11 13 10 13 5 4 10 5 3 4 6 1
split_gain=18.6786 5.96694 2.29182 7.02898 0.608158 0.355111 0.0298472 0.00142698 0.000132522 6.33493e-06 2.52863e-06 1.52878e-06 5.23144e-07 2.89032e-07 5.44187e-11
threshold=0.10975000000000001 739.85000000000002 94.52500000000002 977.00000000000011 0.22545000000000001 102.65000000000002 0.34810000000000008 0.035450000000000002 0.16975000000000004 96.200000000000017 0.022240000000000003 0.075880000000000017 0.024925000000000003 0.31380000000000002 71.920000000000016
decision_type=2 2 2 2 2 2 2 2 2 2 2 2 2 2 2
left_child=4 -2 -3 -4 5 7 -5 9 -8 10 12 -12 13 14 -1
right_child=1 2 3 6 -6 -7 8 -9 -10 -11 11 -13 -14 -15 -16
leaf_value=0.10553578085408384 0.058060260510524091 -0.16383163719775443 0.070526699179829719 -0.12383249245873132 0.058034084886855353 0.1646621278445751 -0.11004064454529344 0.10976797877980336 -0.11103347840925602 0.10589677134212683 0.10580070728554136 0.1056317404738914 0.10563413510965114 0.10560107957505863 0.10553473444129197
leaf_weight=0.99405265226960382 3.4217341020703342 3.1844637468457213 2.7542864605784398 2.4752390310168266 2.5053287222981444 1.1836573258042324 2.3172453939914703 0.95552214235067356 3.2023691907525063 0.98844824358820904 1.035071447491646 1.109417703002691 1.2611911185085771 1.0040765777230261 0.99388439953327179
leaf_count=20 28 22 17 20 35 10 28 13 36 19 20 22 25 20 20
internal_value=0 -0.0602624 -0.0893194 -0.067245 0.101874 0.113405 -0.114708 0.106132 -0.110617 0.105661 0.105625 0.105713 0.10558 0.105557 0.105535
internal_weight=0 17.3553 13.9336 10.7491 12.0307 9.52532 7.99485 8.34166 5.51961 7.38614 6.39769 2.14449 4.2532 2.99201 1.98794
internal_count=355 151 123 101 204 169 84 159 64 146 127 42 85 60 40
is_linear=0
shrinkage=0.1


Tree=20
num_leaves=15
num_cat=0
split_feature=11 13 13 5 12 4 14 5 8 13 13 4 3 0
split_gain=16.5718 7.73678 2.85035 1.87605 0.949147 0.366715 0.212856 0.00205103 0.00139929 0.000165151 3.73957e-06 1.3653e-06 4.04577e-06 5.61243e-08
threshold=705.80000000000007 0.20795000000000002 0.31575000000000003 0.056025000000000012 0.33950000000000008 0.15635000000000002 0.13235000000000002 0.040810000000000006 67.760000000000005 0.23435000000000003 0.17885000000000004 0.023650000000000004 0.067345000000000016 11.070000000000002
decision_type=2 2 2 2 2 2 2 2 2 2 2 2 2 2
left_child=3 -2 -3 6 -4 -6 7 9 -7 10 11 13 -13 -1
right_child=1 2 4 -5 5 8 -8 -9 -10 -11 -12 12 -14 -15
leaf_value=0.10501085046967401 0.10940242620582873 -0.027588876771894214 -0.15859148045800642 -0.024518784286161298 -0.059827431073752685 -0.11325802334509497 0.15135339368358203 0.11016340622516414 -0.10962988097767556 0.10633746183208953 0.10525721137793959 0.10526044020790071 0.10500328359440643 0.10497949669603646
leaf_weight=0.90857270732522222 2.3179744035005596 5.3400052785873404 3.6630317568778974 1.135415844619273 2.0467123091220856 1.908782787621021 1.1733194291591633 0.98028670251369465 2.3990870490670204 1.2588976509869096 0.99295182898640622 0.94844171777367625 1.7236190624535082 1.5362256765365598
leaf_count=20 24 37 33 8 21 20 6 14 30 23 21 20 38 34
internal_value=0 -0.0608921 -0.0865952 0.0969834 -0.118049 -0.0946791 0.111471 0.105866 -0.111237 0.105295 0.10508 0.105045 0.105095 0.104991
internal_weight=0 17.6756 15.3576 10.6577 10.0176 6.35458 9.52231 8.349 4.30787 7.36871 6.10981 5.11686 2.67206 2.4448
internal_count=349 165 141 184 104 71 176 170 50 156 133 112 58 54
is_linear=0
shrinkage=0.1


Tree=21
num_leaves=16
num_cat=0
split_feature=11 13 9 5 12 12 4 14 5 8 13 13 4 3 0
split_gain=14.4786 6.75756 3.03123 1.76487 1.32373 0.854249 0.397459 0.161425 0.00245504 0.00102076 0.00012498 2.48016e-06 8.67868e-07 3.18747e-06 4.09801e-08
threshold=705.80000000000007 0.31575000000000003 17.795000000000005 0.056025000000000012 0.20550000000000004 0.33950000000000008 0.15635000000000002 0.13810000000000003 0.04142500000000001 67.760000000000005 0.23435000000000003 0.17885000000000004 0.023650000000000004 0.067345000000000016 11.070000000000002
decision_type=2 2 2 2 2 2 2 2 2 2 2 2 2 2 2
left_child=3 2 4 7 -2 -3 -7 8 10 -8 11 12 14 -14 -1
right_child=1 5 -4 -5 -6 6 9 -9 -10 -11 -12 -13 13 -15 -16
leaf_value=0.10451135588497143 0.010528136871682952 -0.15452344011096059 -0.072417408593968932 -0.021946375429440557 0.11516811528231437 -0.055289365535935303 -0.11187112885419757 0.14813269730861855 0.11039261617996084 -0.10863030403612398 0.10569453225054584 0.10471677481463587 0.10473492645926788 0.10449654739322355 0.10448325402750686
leaf_weight=0.82583922147751065 2.5583930760622051 3.3972631208598596 2.6876862421631813 1.1413219347596157 2.2920038588345051 1.9960013478994367 1.7474511638283732 0.99885755777358998 0.87479011341929425 2.1897355169057846 1.1955031603574751 0.94285256788134564 0.86227175965905223 1.6050751730799673 1.396299537271261
leaf_count=20 26 33 19 8 16 21 20 5 12 30 24 22 20 39 34
internal_value=0 -0.0576464 0.0127706 0.094974 0.0599747 -0.114536 -0.0916402 0.11031 0.105405 -0.110069 0.104766 0.104569 0.104539 0.10458 0.104494
internal_weight=0 16.8685 7.53808 9.84281 4.8504 9.33045 5.93319 8.70149 7.70263 3.93719 6.82784 5.63234 4.68949 2.46735 2.22214
internal_count=349 165 61 184 42 104 71 176 171 50 159 135 113 59 54
is_linear=0
shrinkage=0.1


Tree=22
num_leaves=16
num_cat=0
split_feature=14 9 13 13 10 0 10 5 4 4 2 4 3 4 3
split_gain=12.9427 5.12135 2.7992 0.796326 0.763201 0.342626 0.329825 0.000807514 0.000164846 2.94912e-05 2.65709e-05 1.08292e-06 2.75445e-06 2.06515e-07 6.09342e-08
threshold=0.10910000000000002 14.875000000000002 0.31575000000000003 0.22545000000000001 113.35000000000001 15.310000000000002 104.35000000000001 0.033375000000000009 0.14845000000000003 0.22130000000000002 562.55000000000007 0.024925000000000003 0.067345000000000016 0.039370000000000009 0.052285000000000005
decision_type=2 2 2 2 2 2 2 2 2 2 2 2 2 2 2
left_child=3 -2 -3 6 -4 -6 7 10 -7 -10 11 14 -13 -14 -1
right_child=1 2 4 -5 5 8 -8 -9 9 -11 -12 12 13 -15 -16
leaf_value=0.10403931989199244 0.076829536294057393 -0.01799323508935434 -0.16196876392625648 0.037814520599057766 -0.056697834704080186 -0.10895076555466483 0.17134746847075621 0.10757388269288132 -0.10739187089129093 -0.10797706649604333 0.10472128486951326 0.10430576126239928 0.10404446258616339 0.10411605679393608 0.10407544272914443
leaf_weight=1.231479380279781 2.549766410142186 5.0570759624242774 2.2225671559572202 1.7800277434289453 1.7777291536331175 1.368664678186178 0.84524587541818608 0.82421514391899098 1.9130304567515852 1.566230773925781 0.84097705781459797 0.79070997238159213 0.85925902798771836 0.75859521329402924 0.75222286954522122
leaf_count=33 23 36 16 27 16 20 7 15 30 23 20 20 23 20 20
internal_value=0 -0.0534518 -0.0773411 0.0974512 -0.111261 -0.0942505 0.11283 0.104665 -0.108021 -0.107655 0.104206 0.104108 0.104153 0.104078 0.104053
internal_weight=0 16.4551 13.9053 8.68273 8.84822 6.62566 6.9027 6.05746 4.84793 3.47926 5.23324 4.39227 2.40856 1.61785 1.9837
internal_count=349 164 141 185 105 89 158 151 73 53 136 116 63 43 53
is_linear=0
shrinkage=0.1


Tree=23
num_leaves=17
num_cat=0
split_feature=14 10 13 12 13 10 5 5 9 12 9 11 4 3 4 8
split_gain=11.2744 4.87776 2.05255 1.69286 0.808434 0.228753 0.0779713 0.000599377 0.000539749 3.03553e-05 1.37992e-05 2.95991e-06 7.54293e-07 1.58592e-06 1.43517e-07 4.4596e-08
threshold=0.10910000000000002 116.25000000000001 0.36000000000000004 0.26535000000000003 0.22545000000000001 103.25000000000001 0.066165000000000015 0.033375000000000009 20.445000000000004 0.33950000000000008 14.875000000000002 1744.0000000000002 0.024925000000000003 0.067345000000000016 0.038840000000000006 20.590000000000003
decision_type=2 2 2 2 2 2 2 2 2 2 2 2 2 2 2 2
left_child=4 2 3 -2 5 7 -3 10 -8 -10 12 -11 15 -14 -15 -1
right_child=1 6 -4 -5 -6 -7 8 -9 9 11 -12 -13 13 14 -16 -17
leaf_value=0.10364021109719719 -0.016612188725539875 -0.13172702401247724 -0.063058953343975988 0.094249062466812805 0.034777670289288569 0.1599927406976151 -0.1090951869232397 0.10681641191067862 -0.10638947609601168 -0.10688824807780067 0.10416637905514103 -0.10710853930463266 0.10386100442626217 0.10364653611012922 0.10371053414986836 0.10367245796486575
leaf_weight=1.1522555276751538 2.9043352715671045 1.7863690331578244 3.3702515363693237 2.6199367046356201 1.7438882701098917 0.84900648146867741 1.4159238822758196 0.75079907476901997 1.2227125987410548 1.2030544243752959 0.75237875059247006 1.2371669150888918 0.71502229198813472 0.71279130503535248 0.68922155722975731 0.68311955034732808
leaf_count=34 20 15 26 21 27 8 20 15 22 20 20 20 20 21 20 20
internal_value=0 -0.0504333 -0.00155661 0.0359648 0.0950384 0.111707 -0.113757 0.104193 -0.107437 -0.106796 0.103774 -0.107 0.103699 0.10374 0.103678 0.103652
internal_weight=0 15.7598 8.89452 5.52427 8.04848 6.30459 6.86523 5.45559 5.07886 3.66293 4.70479 2.44022 3.95241 2.11704 1.40201 1.83538
internal_count=349 164 67 41 185 158 97 150 82 62 135 40 115 61 41 54
is_linear=0
shrinkage=0.1


Tree=24
num_leaves=18
num_cat=0
split_feature=11 13 5 9 0 5 14 5 13 13 12 14 4 4 3 9 6
split_gain=10.4295 4.97019 2.28131 2.08236 5.41272 0.133971 0.111665 0.00419652 0.000169821 0.000167676 3.91737e-05 4.55624e-06 1.72757e-06 6.36847e-07 1.72411e-06 1.63216e-07 3.63121e-08
threshold=711.30000000000007 0.20795000000000002 0.056480000000000009 17.720000000000002 14.405000000000003 0.059630000000000009 0.14115000000000003 0.047625000000000008 0.23435000000000003 0.3715500000000001 0.35635000000000006 0.08426500000000002 0.21475000000000002 0.024925000000000003 0.072230000000000003 13.345000000000001 0.29695000000000005
decision_type=2 2 2 2 2 2 2 2 2 2 2 2 2 2 2 2 2
left_child=2 -2 6 4 -3 -5 7 8 11 -7 -11 13 -12 16 -15 -16 -1
right_child=1 3 -4 5 -6 9 -8 -9 -10 10 12 -13 -14 14 15 -17 -18
leaf_value=0.10328073055190751 0.098522697726570338 -0.14326098097569812 -0.048190531030587958 -0.13838270118151885 0.046339707238914313 -0.10748833775884668 0.14466302691032012 0.11108611769648763 0.10476907605878366 -0.105579041852433 -0.10624500897438525 0.10361953612844409 -0.10642085893278622 0.10349775584441046 0.10333877935921075 0.10326613266853818 0.10331080738097922
leaf_weight=1.1379759963601848 1.8895799256861199 2.6175981871783716 1.0590614750981329 1.8735012486577032 3.5446163527667522 1.1953623853623865 0.78514452278614033 0.88308419845998276 1.0980779267847536 0.99239186197519336 1.1035210862755778 0.66336671635508526 1.1314859129488466 0.71637561544775952 0.62465921789407708 0.61251823790371418 0.62016611732542504
leaf_count=37 22 22 8 13 24 20 4 11 26 20 20 20 20 22 20 20 20
internal_value=0 -0.0526035 0.0887726 -0.0755248 -0.0341993 -0.115971 0.109084 0.104689 0.103657 -0.106477 -0.106102 0.103378 -0.106334 0.103335 0.103374 0.103303 0.103291
internal_weight=0 14.3481 8.20043 12.4585 6.16221 6.29626 7.14137 6.35622 5.47314 4.42276 3.2274 4.37506 2.23501 3.7117 1.95355 1.23718 1.75814
internal_count=349 161 188 139 46 93 180 176 165 80 60 139 40 119 62 40 57
is_linear=0
shrinkage=0.1


Tree=25
num_leaves=18
num_cat=0
split_feature=5 13 9 10 11 5 3 14 10 14 13 3 10 7 4 3 0
split_gain=9.94902 3.69229 2.36794 1.17006 0.351418 0.337737 0.0499272 0.0323382 0.00309852 0.00025513 5.45273e-05 1.51994e-05 1.57529e-06 3.80038e-07 2.28024e-07 4.99772e-07 3.55249e-11
threshold=0.049230000000000003 0.26490000000000008 17.795000000000005 101.55000000000003 779.80000000000007 0.058085000000000005 0.18330000000000005 0.13405000000000003 127.90000000000002 0.10300000000000001 0.22545000000000001 0.12965000000000002 95.765000000000015 2.4940000000000002 0.024925000000000003 0.072230000000000003 12.085000000000003
decision_type=2 2 2 2 2 2 2 2 2 2 2 2 2 2 2 2 2
left_child=2 -2 4 -3 7 -5 8 9 -7 10 12 -10 13 14 16 -16 -1
right_child=1 3 -4 5 -6 6 -8 -9 11 -11 -12 -13 -14 -15 15 -17 -18
leaf_value=0.10295990222426923 0.062595647400433205 -0.01029710089173881 -0.040384451299004233 -0.15693564879212013 0.06138674278665647 -0.1114523519544374 -0.08581214573143596 0.12650950282735735 -0.1051728095267585 0.1052974073351364 0.10387399396830109 -0.10568545525202462 0.10317574236758281 0.10306680315847919 0.10308678805796655 0.10296521919287832 0.10295889133083587
leaf_weight=0.92141447775066143 1.801806166768072 1.3253000825643537 1.5463589504361142 1.3963802456855772 2.4523206278681755 1.3631920143961909 1.4542638473212717 0.67685183510184277 1.0017725601792338 0.63988910056650627 0.93041424080729473 1.3683301098644731 0.62143575213849533 0.74971165321767319 0.58005883544683434 0.81090923957526684 0.55825304985046387
leaf_count=33 18 9 8 10 22 19 25 5 22 15 26 27 21 26 20 29 20
internal_value=0 -0.0665942 0.0738746 -0.096025 0.0936353 -0.113281 -0.101531 0.105823 -0.107654 0.103414 0.103181 -0.105469 0.103029 0.103003 0.102987 0.103016 0.10296
internal_weight=0 9.71105 10.4876 7.90924 8.94126 6.58394 5.18756 6.48894 3.73329 5.81209 5.1722 2.3701 4.24178 3.62035 2.87064 1.39097 1.47967
internal_count=355 130 225 112 217 103 93 195 68 190 175 49 149 128 102 49 53
is_linear=0
shrinkage=0.1


Tree=26
num_leaves=17
num_cat=0
split_feature=13 9 5 12 0 14 9 5 13 11 3 14 5 8 13 4
split_gain=8.88615 4.98654 3.21892 1.33499 0.221786 0.0848856 0.00875856 0.0066271 0.000746554 7.33155e-05 4.1167e-05 1.67263e-06 2.83369e-07 7.05506e-08 1.77511e-08 4.88349e-11
threshold=0.20795000000000002 17.720000000000002 0.049230000000000003 0.21295000000000003 16.245000000000001 0.13010000000000002 15.125000000000002 0.052625000000000005 0.3715500000000001 698.20000000000016 0.13765000000000002 0.083100000000000021 0.022240000000000003 23.23 0.093985000000000013 0.010325000000000003
decision_type=2 2 2 2 2 2 2 2 2 2 2 2 2 2 2 2
left_child=4 2 3 -2 7 -3 -5 9 -7 11 -10 12 13 14 15 -1
right_child=1 5 -4 6 -6 8 -8 -9 10 -11 -12 -13 -14 -15 -16 -17
leaf_value=0.10267034623521094 -0.013736407129775034 -0.13409289618317419 -0.049267484252539594 0.1093459741113658 0.16542698078143489 -0.10808977818790418 0.12068320221245753 0.11336091025169426 -0.10442184230828794 0.10392634685434439 -0.10525131769085126 0.1028987607617497 0.10275270603387301 0.10271945724163774 0.10269229419542414 0.10266900657981454
leaf_weight=0.55731410533190151 1.1416415683925136 1.4794631451368321 4.217162236571312 1.3498279210180046 0.67757041752338398 1.0783416889607909 1.376132611185312 0.70808778330683697 0.8871707692742351 0.6040601935237645 1.8377870656549928 0.53868358768522728 0.96328059025108803 0.51508985832333554 0.51030215248465527 0.5317279789596796
leaf_count=22 13 9 38 34 3 19 11 9 22 18 39 20 37 20 20 21
internal_value=0 -0.0382112 0.0111597 0.0770483 0.111783 -0.113769 0.115069 0.104409 -0.105863 0.102907 -0.104981 0.102736 0.102708 0.102687 0.102677 0.10267
internal_weight=0 13.3675 8.08476 3.8676 5.60612 5.28276 2.72596 4.92855 3.8033 4.22046 2.72496 3.6164 3.07771 2.11443 1.59934 1.08904
internal_count=355 185 96 58 170 89 45 167 80 158 61 140 120 83 63 43
is_linear=0
shrinkage=0.1


Tree=27
num_leaves=18
num_cat=0
split_feature=13 9 5 12 0 14 9 5 13 11 12 13 14 5 8 13 4
split_gain=7.87907 4.51571 2.74143 1.366 0.152737 0.0608935 0.00574456 0.00492962 0.000552969 5.40468e-05 3.00749e-05 1.30861e-06 1.23264e-06 2.08274e-07 5.18464e-08 1.30509e-08 3.57652e-11
threshold=0.20795000000000002 17.720000000000002 0.049230000000000003 0.20550000000000004 16.245000000000001 0.13010000000000002 15.125000000000002 0.052625000000000005 0.3715500000000001 698.20000000000016 0.34805000000000003 0.57285000000000019 0.083100000000000021 0.022240000000000003 23.23 0.093985000000000013 0.010325000000000003
decision_type=2 2 2 2 2 2 2 2 2 2 2 2 2 2 2 2 2
left_child=4 2 3 -2 7 -3 -5 9 -7 12 -10 -12 13 14 15 16 -1
right_child=1 5 -4 6 -6 8 -8 -9 10 -11 11 -13 -14 -15 -16 -17 -18
leaf_value=0.10240978506658226 -0.021181391751770057 -0.13014485095652187 -0.044673199029230136 0.10847692089813771 0.15591465577066765 -0.10728870579755492 0.11792124774566237 0.1120553528832134 -0.10394425396890949 0.10354153633340782 -0.10479293490231259 -0.10461987924808649 0.10261561552875334 0.10248392413528551 0.10245399269994263 0.10242954635413899 0.10240858127959969
leaf_weight=0.50549633428454777 1.06779497489333 1.377172991633415 4.1874284483492374 1.2551126610487702 0.64850327372550953 0.98263698071241412 1.3228398226201532 0.64778717234730709 0.72649014368653331 0.54850405454635609 0.907764922827482 0.84249892085790634 0.48869747482240189 0.87378182820975769 0.46721867658197869 0.4628645833581686 0.48228855989873409
leaf_count=22 11 9 38 35 3 19 12 9 20 18 21 20 20 37 20 20 21
internal_value=0 -0.0363846 0.0105268 0.0739284 0.110558 -0.112361 0.113323 0.103988 -0.105281 0.102623 -0.104485 -0.10471 0.102469 0.102443 0.102425 0.102416 0.102409
internal_weight=0 12.6697 7.83318 3.64575 5.12514 4.83656 2.57795 4.47664 3.45939 3.82885 2.47675 1.75026 3.28035 2.79165 1.91787 1.45065 0.987785
internal_count=355 185 96 58 170 89 47 167 80 158 61 41 140 120 83 63 43
is_linear=0
shrinkage=0.1


Tree=28
num_leaves=19
num_cat=0
split_feature=14 13 12 9 0 4 0 14 8 5 1 11 2 14 5 7 13 4
split_gain=7.00761 3.04385 3.13317 1.55276 0.60765 0.19357 0.106262 0.0106477 0.00432618 0.00366694 9.84488e-05 3.98629e-05 6.5692e-06 9.08871e-07 1.53197e-07 3.81635e-08 9.61837e-09 2.65586e-11
threshold=0.14655000000000004 0.20795000000000002 0.20550000000000004 16.485000000000003 10.955000000000002 0.24435000000000004 16.245000000000001 0.13010000000000002 30.430000000000003 0.052625000000000005 103.75000000000001 698.20000000000016 1017.0000000000001 0.083100000000000021 0.022240000000000003 2.3275000000000006 0.091325000000000003 0.010325000000000003
decision_type=2 2 2 2 2 2 2 2 2 2 2 2 2 2 2 2 2 2
left_child=1 6 -3 4 -4 8 9 -6 -2 11 -10 13 -12 14 15 16 17 -1
right_child=5 2 3 -5 7 -7 -8 -9 10 -11 12 -13 -14 -15 -16 -17 -18 -19
leaf_value=0.10217521021902032 -0.11157087471280727 -0.087603266315499362 0.014799543713371627 -0.03080933840013261 0.10775440998311454 -0.054073893827153045 0.14818394863752934 0.12073374946107457 -0.10521807962501878 0.11088185766658686 -0.10415407485900895 0.10319544109236437 -0.1037666099879837 0.10236077081877114 0.10224198768794412 0.10221504037562029 0.10219302315194219 0.1021741208744954
leaf_weight=0.4583874363452225 1.2039564177393907 2.3943825662136078 0.80609055608511004 1.5460128448903558 1.2178589757531884 0.85657688602805127 0.61578291654586781 1.3139774389564989 0.88514902256429229 0.5920281596481799 0.75494221225380886 0.49788667820394028 1.0408609639853237 0.44323659874498833 0.7924060821533202 0.42369670420885075 0.41973861865699291 0.43734104372560978
leaf_count=22 14 19 13 11 30 17 3 11 20 9 20 18 30 20 37 20 20 21
internal_value=0 0.0465596 0.00610216 0.0520418 0.0904157 -0.0971036 0.109472 0.11449 -0.106591 0.103607 -0.104355 0.102367 -0.103929 0.102229 0.102206 0.102189 0.102181 0.102175
internal_weight=0 11.9588 7.27832 4.88394 3.33793 4.74149 4.6805 2.53184 3.88491 4.06472 2.68095 3.47269 1.7958 2.97481 2.53157 1.73916 1.31547 0.895728
internal_count=355 254 84 65 54 101 170 41 84 167 70 158 50 140 120 83 63 43
is_linear=0
shrinkage=0.1


Tree=29
num_leaves=18
num_cat=0
split_feature=13 9 5 12 0 14 7 5 13 14 3 9 5 7 4 3 4
split_gain=6.21221 3.90104 2.25939 1.10271 0.0745458 0.0376145 0.00401267 0.00275536 0.000901788 0.000100803 2.03188e-05 4.53383e-06 1.21832e-06 1.10245e-07 5.58024e-08 1.30203e-07 9.85234e-12
threshold=0.20795000000000002 17.720000000000002 0.049230000000000003 0.20550000000000004 16.245000000000001 0.12550000000000003 1.9315000000000002 0.055760000000000011 0.36345000000000005 0.091335000000000013 0.13765000000000002 14.875000000000002 0.10915000000000001 2.4940000000000002 0.024925000000000003 0.072670000000000012 0.010325000000000003
decision_type=2 2 2 2 2 2 2 2 2 2 2 2 2 2 2 2 2
left_child=4 2 3 -2 7 -3 -5 9 -7 11 -10 13 -12 14 16 -16 -1
right_child=1 5 -4 6 -6 8 -8 -9 10 -11 12 -13 -14 -15 15 -17 -18
leaf_value=0.1019640304312453 -0.0096156857754495974 -0.12631689917952715 -0.04024228881741132 0.116061470595232 0.14180262284303827 -0.10750587621945873 0.10755649403862805 0.11070649406390248 -0.10323533906081961 0.10369104541199137 -0.10380615011041475 0.10234950459457777 -0.10398837157648799 0.10203160410780365 0.10204118211997056 0.10196387083272761 0.10196339745790638
leaf_weight=0.43449233099818474 1.116588700562714 1.1131128519773481 3.9371718131005764 1.1963143367320301 0.58093804121017445 0.87524094060063395 1.0343875288963316 0.43831532821059216 0.66404982097446952 0.42768304422497738 0.6994320787489412 0.413622636348009 0.77177591994404793 0.52625321783125389 0.39149690978229035 0.49109943956136703 0.56655318103730679
leaf_count=23 11 8 38 24 3 18 23 7 22 15 20 19 21 27 20 26 30
internal_value=0 -0.0328881 0.0111091 0.0715099 0.108506 -0.11061 0.112118 0.103264 -0.104803 0.10226 -0.103694 0.102044 -0.103902 0.101991 0.10198 0.101998 0.101964
internal_weight=0 11.4081 7.28446 3.34729 4.27045 4.12361 2.2307 3.68952 3.0105 3.2512 2.13526 2.82352 1.47121 2.4099 1.88364 0.882596 1.00105
internal_count=355 185 96 58 170 89 47 167 81 160 63 145 41 126 99 46 53
is_linear=0
shrinkage=0.1


Tree=30
num_leaves=19
num_cat=0
split_feature=11 2 4 13 9 10 2 5 14 5 9 13 13 4 13 3 4 14
split_gain=6.36554 3.28156 4.09303 2.74447 1.29918 1.16359 0.968811 0.296661 0.0122699 0.0004285 0.000203177 3.02067e-05 2.17803e-05 6.55429e-06 2.50088e-07 5.78636e-08 2.45661e-07 2.47988e-08
threshold=779.80000000000007 584.45000000000016 0.068860000000000018 0.3715500000000001 16.765000000000004 102.25000000000001 584.45000000000016 0.056025000000000012 0.12550000000000003 0.04142500000000001 20.300000000000001 0.22545000000000001 0.37870000000000009 0.22130000000000002 0.17885000000000004 0.068590000000000026 0.023650000000000004 0.061960000000000008
decision_type=2 2 2 2 2 2 2 2 2 2 2 2 2 2 2 2 2 2
left_child=3 -2 -3 5 -4 6 8 -6 9 11 -9 14 -12 -14 15 16 -1 -17
right_child=1 2 4 -5 7 -7 -8 10 -10 -11 12 -13 13 -15 -16 17 -18 -19
leaf_value=0.10177979565159352 -0.2218420813360798 0.060801104198595468 0.0037100461553697985 -0.032122387222778208 -0.17047254035309253 0.24288596489794434 -0.044511444919934091 -0.10541575488258621 0.11612902028956662 0.10538529097278947 -0.10399509953301077 0.10265101639957031 -0.10312582807748223 -0.1035477678392915 0.10188908320882484 0.10179752784986706 0.10187840377860154 0.10176180356348821
leaf_weight=0.75575363263488016 1.1019001826643924 2.7383583784103394 1.1117144115269182 2.009226294234395 0.86781902611255679 0.55276409722864617 0.48397262766957272 0.786167407408357 0.81730318069457997 0.42262518405914296 0.71554334647953544 0.52931480668485154 0.78766294009983517 0.69122470356523991 0.36030450090765942 0.3466144986450671 0.37951606139540672 0.44222825765609741
leaf_count=44 10 25 12 19 6 5 12 19 8 11 21 22 27 21 20 20 21 26
internal_value=0 -0.0604357 -0.0373333 0.0668407 -0.0915108 0.105902 0.0892152 -0.119018 0.105181 0.102416 -0.104036 0.10197 -0.103542 -0.103323 0.101813 0.101798 0.101813 0.101778
internal_weight=0 8.80039 7.69849 7.09962 4.96013 5.0904 4.53763 3.84842 4.05366 3.23636 2.9806 2.81373 2.19443 1.47889 2.28442 1.92411 1.13527 0.788843
internal_count=349 141 131 208 106 189 184 94 172 164 88 153 69 48 131 111 65 46
is_linear=0
shrinkage=0.1


Tree=31
num_leaves=18
num_cat=0
split_feature=11 2 4 13 9 10 9 5 14 5 11 13 13 4 10 13 4
split_gain=5.48327 2.73798 3.53612 2.47799 1.22885 1.0131 1.04361 0.238965 0.00921929 0.000431058 0.000320925 2.12339e-05 1.60893e-05 4.80506e-06 4.44164e-07 1.32275e-07 2.54992e-08
threshold=779.80000000000007 584.45000000000016 0.068860000000000018 0.3715500000000001 16.765000000000004 102.65000000000002 15.345000000000001 0.055760000000000011 0.12550000000000003 0.043115000000000007 1270.5000000000002 0.22545000000000001 0.37870000000000009 0.22130000000000002 92.500000000000014 0.14285000000000003 0.023650000000000004
decision_type=2 2 2 2 2 2 2 2 2 2 2 2 2 2 2 2 2
left_child=3 -2 -3 5 -4 6 8 -6 9 11 -9 14 -12 -14 15 16 -1
right_child=1 2 4 -5 7 -7 -8 10 -10 -11 12 -13 13 -15 -16 -17 -18
leaf_value=0.10160616624450702 -0.20708223245936966 0.055592847607783727 0.0033397321368182791 -0.028931144183207688 -0.16791574312146848 0.23821150420076609 -0.060093206243117141 -0.10556169473588767 0.11509719276561614 0.10530121705650333 -0.10360315546097175 0.10239308705090798 -0.10281966410704713 -0.10319888755079661 0.10175205335694507 0.10167749411371207 0.10163527023409613
leaf_weight=0.68445489462465292 1.0643996708095054 2.6976444777101278 1.1114968210458753 2.0078457314521074 0.73607185855507884 0.50094105675816525 0.42867625318467606 0.80400252901017699 0.68175932019948948 0.40213146805763234 0.64977492950856675 0.48008885793387879 0.71472097747027852 0.62745258957147598 0.41727189999073733 0.56458393856883038 0.53739572130143642
leaf_count=44 10 25 12 19 5 4 8 20 7 10 21 22 27 21 25 35 34
internal_value=0 -0.057196 -0.0354639 0.064052 -0.0883632 0.103797 0.0877516 -0.117221 0.104573 0.102248 -0.103875 0.10179 -0.103195 -0.102997 0.101659 0.101637 0.101619
internal_weight=0 8.40556 7.34116 6.70515 4.64352 4.6973 4.19636 3.53202 3.76769 3.08593 2.79595 2.6838 1.99195 1.34217 2.20371 1.78643 1.22185
internal_count=349 141 131 208 106 189 185 94 177 170 89 160 69 48 138 113 78
is_linear=0
shrinkage=0.1


Tree=32
num_leaves=18
num_cat=0
split_feature=11 13 3 5 7 12 11 14 6 14 12 13 14 3 2 7 3
split_gain=4.78171 2.91634 2.22384 1.39727 0.933412 0.497279 0.295971 0.0402332 0.00579714 0.0025724 0.000251448 1.90543e-05 4.83915e-06 2.86998e-06 6.84595e-08 3.64403e-08 1.65175e-08
threshold=705.80000000000007 0.33045000000000008 0.075880000000000017 0.056480000000000009 2.3275000000000006 0.29325000000000007 809.05000000000007 0.14490000000000003 0.42160000000000003 0.12550000000000003 0.33950000000000008 0.22545000000000001 0.08593000000000002 0.18585000000000004 521.90000000000009 2.4940000000000002 0.063520000000000007
decision_type=2 2 2 2 2 2 2 2 2 2 2 2 2 2 2 2 2
left_child=3 2 -2 7 -4 -3 -7 9 -8 10 11 12 14 -10 15 16 -1
right_child=1 5 4 -5 -6 6 8 -9 13 -11 -12 -13 -14 -15 -16 -17 -18
leaf_value=0.10147093804406059 -0.074220837919567878 -0.17056527027975232 0.11159810813120241 -0.03607348467092638 0.0077307246729628135 -0.034696141123621876 -0.11342015501017538 0.13256080713303495 -0.10267442207610344 0.11056261470349218 0.10456561146368742 0.10227345390378223 0.1019090883391895 -0.10295915177671972 0.10151980628234221 0.10149835227005799 0.10144678600556133
leaf_weight=0.55663632694632104 2.2804119884967786 0.96835063211619843 1.5202967673540118 0.82972089201211918 2.0078700557351112 0.76983471214771304 0.78277198225259814 0.54229514300823201 0.90329381451010682 0.40384230017662037 0.34160477854311455 0.43075003288686264 0.30332567822188128 0.58216125145554543 0.29335112031549204 0.29047641996294249 0.57636170834302902
leaf_count=39 28 15 14 7 26 11 14 3 36 5 10 21 18 21 20 20 41
internal_value=0 -0.0425281 0.00274257 0.081322 0.0524875 -0.108162 -0.0882722 0.107376 -0.106456 0.103103 0.102024 0.10167 0.101541 -0.102786 0.101476 0.101467 0.101459
internal_weight=0 9.81499 5.80858 4.56836 3.52817 4.00641 3.03806 3.73864 2.26823 3.19635 2.79251 2.4509 2.02015 1.48546 1.71683 1.42347 1.133
internal_count=349 165 68 184 40 97 82 177 71 174 169 159 138 57 120 100 80
is_linear=0
shrinkage=0.1


Tree=33
num_leaves=18
num_cat=0
split_feature=13 9 13 12 12 14 0 5 5 13 11 3 14 10 13 4 0
split_gain=4.25582 3.50756 1.4276 2.45282 0.732285 0.141571 0.0471564 0.00729504 0.000183009 8.38511e-05 4.89048e-05 4.71437e-06 9.59587e-07 7.84643e-07 5.84068e-08 1.38292e-08 8.55714e-10
threshold=0.19285000000000005 17.720000000000002 0.3715500000000001 0.20550000000000004 0.29645000000000005 0.11275000000000002 16.405000000000005 0.056025000000000012 0.045455000000000002 0.3715500000000001 734.05000000000007 0.14505000000000004 0.22225000000000003 92.500000000000014 0.14285000000000003 0.023650000000000004 11.070000000000002
decision_type=2 2 2 2 2 2 2 2 2 2 2 2 2 2 2 2 2
left_child=6 2 3 -2 -5 -3 8 -7 10 -9 13 -11 -13 14 15 16 -1
right_child=1 5 -4 4 -6 7 -8 9 -10 11 -12 12 -14 -15 -16 -17 -18
leaf_value=0.10131523912376668 -0.043074031230607948 -0.15793149751238972 -0.051763947825571505 0.1469904438921962 0.044449744750215389 -0.1146423345257786 0.13890725196223189 -0.10382651964072261 0.10407493191537143 -0.10215046780725906 0.10275809575157079 -0.10244612644682401 -0.10264574495856593 0.10150079637559564 0.10136672211728387 0.10133463098983622 0.10130740391291618
leaf_weight=0.25619134493172369 2.0944456076249462 0.6484758555889133 2.6990201286971569 1.5181446084752681 1.2867324091494081 0.71111519820988212 0.40293303132057179 0.61840781755745444 0.33956458140164603 0.42708818987011887 0.29570180550217617 0.46482343599200249 0.49969561584293842 0.35439348313957442 0.39634374435991038 0.4411982074379921 0.30573033168911934
leaf_count=20 19 3 32 29 18 9 2 21 10 21 12 20 20 25 30 34 24
internal_value=0 -0.0310235 0.00663559 0.0388077 0.0999501 -0.115944 0.107262 -0.105937 0.101925 -0.102858 0.101568 -0.102427 -0.10255 0.101368 0.101334 0.101321 0.101311
internal_weight=0 10.9679 7.59834 4.89932 2.80488 3.36961 2.79206 2.72113 2.38912 2.01002 2.04956 1.39161 0.964519 1.75386 1.39946 1.00312 0.561922
internal_count=349 192 98 66 47 94 157 91 155 82 145 61 40 133 108 78 44
is_linear=0
shrinkage=0.1


Tree=34
num_leaves=15
num_cat=0
split_feature=9 13 3 5 12 14 9 14 5 11 13 13 3 4
split_gain=3.81637 2.63338 1.99813 0.935482 0.510582 0.722193 0.164057 0.0297988 0.00135981 0.000568547 4.58642e-05 1.78141e-07 1.34448e-08 4.44267e-08
threshold=14.875000000000002 0.31575000000000003 0.073255000000000015 0.056480000000000009 0.36260000000000009 0.17240000000000003 16.98 0.14490000000000003 0.048235000000000007 1067.0000000000002 0.22545000000000001 0.15175000000000002 0.06616000000000001 0.022480000000000003
decision_type=2 2 2 2 2 2 2 2 2 2 2 2 2 2
left_child=3 2 -2 7 6 -6 -3 8 10 -7 11 12 13 -1
right_child=1 4 -4 -5 5 9 -8 -9 -10 -11 -12 -13 -14 -15
leaf_value=0.10118321339112819 -0.060795332716198684 -0.16909117120936601 0.064103690117216935 -0.019680741214603104 0.01787141348271774 -0.10627199171959081 -0.10989852227397912 0.12935145540482934 0.10731983341883217 -0.10231093627492097 0.10230761665081614 0.10127078534182954 0.10117964706361936 0.10123689879183535
leaf_weight=0.42757446970790869 2.2519495924934727 0.78996795415878285 2.9703764598816633 0.72124139592051495 0.72729431279003653 0.68571468070149399 1.1496596904471514 0.50135524570941914 0.50027672573924054 0.7684460561722517 0.51675680186599482 0.41591925639659155 0.41461970005184412 0.24104555230587721
leaf_count=37 34 5 38 6 12 16 37 3 9 35 27 34 36 20
internal_value=0 -0.0369152 0.0102453 0.0826342 -0.0966779 -0.0634874 -0.134006 0.107089 0.102653 -0.104179 0.101495 0.101215 0.101194 0.101203
internal_weight=0 9.34341 5.22233 3.73879 4.12108 2.18146 1.93963 3.01755 2.51619 1.45416 2.01592 1.49916 1.08324 0.66862
internal_count=349 177 72 172 105 63 42 166 163 51 154 127 93 57
is_linear=0
shrinkage=0.1


Tree=35
num_leaves=19
num_cat=0
split_feature=13 9 0 11 5 0 4 14 14 5 14 9 9 8 14 7 4 4
split_gain=3.71246 2.50414 1.78719 2.67119 1.50554 0.032973 0.0188638 0.00487683 0.00194398 0.00039003 0.000137613 4.92981e-05 2.14349e-06 1.84439e-06 1.53903e-07 1.62579e-08 8.45959e-09 1.55964e-12
threshold=0.20795000000000002 17.720000000000002 14.605000000000002 739.85000000000002 0.056480000000000009 16.245000000000001 0.056190000000000011 0.13405000000000003 0.14895000000000003 0.045455000000000002 0.10530000000000002 15.345000000000001 14.765000000000002 77.065000000000012 0.078980000000000009 2.4940000000000002 0.024925000000000003 0.010325000000000003
decision_type=2 2 2 2 2 2 2 2 2 2 2 2 2 2 2 2 2 2
left_child=5 2 3 4 7 9 -3 10 -8 11 -2 12 14 -10 15 16 17 -1
right_child=1 6 -4 -5 -6 -7 8 -9 13 -11 -12 -13 -14 -15 -16 -17 -18 -19
leaf_value=0.1010678859781282 0.10196861198167369 -0.12489339018973121 0.10384521573873953 -0.10393112162078706 -0.059804762564613173 0.13011570405952025 -0.1088028190535279 0.114281799196 -0.10193002628371575 0.10492228682308904 0.10456174634959865 0.10263687568232505 0.10143902403693453 -0.10215610715177424 0.10116251022629535 0.10110499030978 0.10108828317811236 0.1010675422380662
leaf_weight=0.24045112822204984 0.49348650127649152 0.55003602057695422 1.4935194626450536 2.1213978733867407 0.81184460967779148 0.5103127360343932 0.60401679947972331 0.71249896660447121 0.68954261578619458 0.36570467427372921 0.34964616224169731 0.256803698837757 0.21441612858325232 0.75699544884264469 0.30218271631747473 0.23753089085221291 0.31912492774426937 0.29263091273605824
leaf_count=23 30 4 13 27 6 3 9 8 38 10 12 11 16 38 27 22 30 28
internal_value=0 -0.0265249 0.00908814 -0.022439 0.0505827 0.107186 -0.108449 0.108191 -0.104038 0.101936 0.103044 0.10135 0.101145 -0.102048 0.101099 0.101082 0.101075 0.101068
internal_weight=0 8.58298 5.98239 4.48887 2.36748 2.73916 2.60059 1.55563 2.05055 2.22885 0.843133 1.86314 1.60634 1.44654 1.39192 1.08974 0.852207 0.533082
internal_count=355 185 96 83 56 170 89 50 85 167 42 157 146 76 130 103 81 51
is_linear=0
shrinkage=0.1


Tree=36
num_leaves=17
num_cat=0
split_feature=13 9 6 1 11 0 4 14 5 9 9 8 14 7 4 4
split_gain=3.31482 2.26585 1.54822 1.80584 1.1354 0.0235525 0.0135691 0.00142324 0.000288218 3.63809e-05 1.5834e-06 1.36035e-06 1.13744e-07 1.20057e-08 6.24787e-09 1.14347e-12
threshold=0.20795000000000002 17.720000000000002 0.23585000000000003 94.285000000000011 739.85000000000002 16.245000000000001 0.056190000000000011 0.14895000000000003 0.045455000000000002 15.345000000000001 14.765000000000002 77.065000000000012 0.078980000000000009 2.4940000000000002 0.024925000000000003 0.010325000000000003
decision_type=2 2 2 2 2 2 2 2 2 2 2 2 2 2 2 2
left_child=5 2 -2 4 -4 8 -3 -8 9 10 12 -9 13 14 15 -1
right_child=1 6 3 -5 -6 -7 7 11 -10 -11 -12 -13 -14 -15 -16 -17
leaf_value=0.10096523173523859 0.098497866302134945 -0.1220715460138822 -0.0014318665957397431 0.069216830454910561 -0.12848770980978547 0.12651427014641228 -0.10790720500978142 -0.10174315124417384 0.10444213092371549 0.10238072376133352 0.10130036728421273 -0.10194708032909357 0.10105070205191982 0.10099873609545872 0.10098365130472656 0.10096492246826594
leaf_weight=0.21777913067490018 1.436989133246241 0.5086028836667541 1.3399301655590536 1.4493776485323904 1.4803890381008384 0.47421127557754505 0.55084112472832192 0.62501159496605374 0.33234698511660088 0.23291735537350167 0.19426377955824126 0.68629069905728102 0.27371337078511715 0.21514144726097584 0.28904014360159636 0.26503883209079504
leaf_count=23 32 4 31 17 16 3 9 38 10 11 16 38 27 22 30 28
internal_value=0 -0.0254227 0.00871457 -0.0215025 -0.0681236 0.106458 -0.107596 -0.103642 0.10175 0.10122 0.101035 -0.10185 0.100994 0.100978 0.100972 0.100965
internal_weight=0 8.07743 5.70669 4.2697 2.82032 2.49445 2.37075 1.86214 2.02024 1.68789 1.45498 1.3113 1.26071 0.987 0.771858 0.482818
internal_count=355 185 96 64 47 170 89 85 167 157 146 76 130 103 81 51
is_linear=0
shrinkage=0.1


Tree=37
num_leaves=19
num_cat=0
split_feature=14 13 3 13 12 2 0 8 5 5 9 9 12 4 14 7 4 4
split_gain=3.08135 1.51649 2.30387 0.866398 0.793294 0.194566 0.016896 0.00119844 0.000213043 4.76217e-05 2.68585e-05 1.16999e-06 1.09983e-06 5.23966e-07 8.40854e-08 8.86805e-09 4.61449e-09 8.62921e-13
threshold=0.14655000000000004 0.20795000000000002 0.072670000000000012 0.27070000000000005 0.30595000000000006 495.70000000000005 16.245000000000001 30.430000000000003 0.045455000000000002 0.079005000000000006 15.345000000000001 14.765000000000002 0.3544500000000001 0.21305000000000002 0.078980000000000009 2.4940000000000002 0.024925000000000003 0.010325000000000003
decision_type=2 2 2 2 2 2 2 2 2 2 2 2 2 2 2 2 2 2
left_child=1 6 -3 -4 -5 -2 8 -7 10 -9 11 14 -11 -14 15 16 17 -1
right_child=5 2 3 4 -6 7 -8 9 -10 12 -12 -13 13 -15 -16 -17 -18 -19
leaf_value=0.10087253733668183 -0.031291919323561949 -0.11205535853770626 0.10878885111170532 -0.046657945784920517 0.063784693271742257 -0.1072846468715188 0.12342069295937533 -0.10295480864331959 0.1040098949841877 -0.10152325084566352 0.10214991585018661 0.10117522127865174 -0.10164625802266934 -0.10182212299554341 0.10094974994050457 0.10090279353831749 0.10088916973158235 0.10087225500564467
leaf_weight=0.1972265746444466 0.45434756204485927 1.2251292020082472 1.3805422624573114 1.2499833395704629 1.3557949084788559 0.62008197419345412 0.43928166478872288 0.39616675302386273 0.30190598964691151 0.35555977746844269 0.21120428666472424 0.17598349601030339 0.31700589414685965 0.36386734433472157 0.24790116958320141 0.19484371226280928 0.26176679786294699 0.24002615548670292
leaf_count=23 6 14 28 22 20 11 3 18 10 25 11 16 20 21 27 22 30 28
internal_value=0 0.0375939 0.00787931 0.0447392 0.0108057 -0.0905054 0.105808 -0.103612 0.101582 -0.102022 0.101103 0.100935 -0.101666 -0.10174 0.100898 0.100884 0.100879 0.100872
internal_weight=0 7.48159 5.21145 3.98632 2.60578 2.50703 2.27014 2.05268 1.83086 1.4326 1.52895 1.31775 1.03643 0.680873 1.14176 0.893863 0.69902 0.437253
internal_count=355 254 84 70 42 101 170 95 167 84 157 146 66 41 130 103 81 51
is_linear=0
shrinkage=0.1


Tree=38
num_leaves=20
num_cat=0
split_feature=5 6 13 9 3 12 3 13 7 9 13 10 8 11 9 13 13 0 4
split_gain=2.81963 1.66819 1.43638 0.864791 0.610884 2.18854 0.255308 0.257483 0.176528 0.0160561 0.00387914 0.00181301 0.00109664 9.84056e-05 1.04421e-05 6.01794e-06 4.22136e-06 8.94685e-08 1.66799e-08
threshold=0.049230000000000003 0.23585000000000003 0.26490000000000008 17.795000000000005 0.060420000000000008 0.19640000000000005 0.12835000000000002 0.38570000000000004 2.8525000000000005 17.225000000000005 0.36345000000000005 107.80000000000001 31.085000000000004 707.50000000000011 13.885000000000003 0.22545000000000001 0.63875000000000004 12.765000000000002 0.021405000000000004
decision_type=2 2 2 2 2 2 2 2 2 2 2 2 2 2 2 2 2 2 2
left_child=3 -2 -3 4 5 14 -4 -8 9 10 11 13 -9 15 18 17 -14 -6 -1
right_child=1 2 6 -5 8 -7 7 12 -10 -11 -12 -13 16 -15 -16 -17 -18 -19 -20
leaf_value=0.1007901100831292 0.084631041115529576 0.051776265798292358 -0.13705790971409645 -0.031582718687827159 0.10080603521267083 -0.24809102170722863 -0.018346836674108493 -0.10777601225583631 0.041760433275949992 0.12489745569493525 0.11360963918445476 0.1095912324827882 -0.10150617753720602 0.10332428128581098 0.10163781054374539 0.10137246767140973 -0.10198832329260182 0.10089429274469885 0.10083016927591676
leaf_weight=0.26441850652918253 0.76378475874662388 0.70691641326993737 1.4357040561735632 0.86581787839531887 0.40244809538126103 0.24565053824335337 0.48665325064212073 0.5045695826411245 0.4388869423419236 0.58651059865951527 0.51040485966950644 0.36903071776032437 0.40679585840553045 0.23655421193689108 0.23077692743390799 0.32339138258248568 0.32801609020680189 0.16073291748762131 0.17126441048458219
leaf_count=34 9 16 34 8 51 2 15 9 19 4 8 5 28 10 18 26 19 19 21
internal_value=0 -0.0504245 -0.0770884 0.0589087 0.0787939 0.00705107 -0.105901 -0.079984 0.100405 0.110346 0.106084 0.10351 -0.104186 0.101512 0.101094 0.101029 -0.101721 0.100831 0.100806
internal_weight=0 4.63244 3.86866 4.80589 3.94007 0.91211 3.16174 1.72603 3.02796 2.58907 2.00256 1.49216 1.23938 1.12313 0.66646 0.886572 0.734812 0.563181 0.435683
internal_count=355 130 121 225 217 75 105 71 142 123 119 111 56 106 73 96 47 70 55
is_linear=0
shrinkage=0.1


Tree=39
num_leaves=21
num_cat=0
split_feature=13 9 0 11 5 0 7 14 13 14 14 5 9 13 9 3 7 4 3 0
split_gain=2.47784 1.81019 1.19083 1.71971 1.20685 0.0128434 0.00728844 0.00268402 0.000798645 0.000747376 5.77365e-05 4.31302e-05 1.45136e-05 2.0501e-06 8.60934e-07 8.54319e-07 3.01039e-08 7.91771e-09 1.51101e-08 1.72606e-12
threshold=0.20795000000000002 17.720000000000002 14.605000000000002 739.85000000000002 0.056480000000000009 16.405000000000005 1.9150000000000003 0.13405000000000003 0.30355000000000004 0.11415000000000002 0.10175000000000002 0.045455000000000002 15.345000000000001 0.37950000000000006 14.765000000000002 0.14895000000000003 2.5905000000000005 0.024925000000000003 0.068590000000000026 12.085000000000003
decision_type=2 2 2 2 2 2 2 2 2 2 2 2 2 2 2 2 2 2 2 2
left_child=5 2 3 4 7 9 -3 10 -8 11 -2 12 14 -10 16 -15 17 19 -19 -1
right_child=1 6 -4 -5 -6 -7 8 -9 13 -11 -12 -13 -14 15 -16 -17 -18 18 -20 -21
leaf_value=0.10071311141565518 0.10140415202848721 -0.11817188855171237 0.093856017247164539 -0.087864934988046248 -0.0539975755137884 0.12410540599190796 -0.10630220030205978 0.11164363608385597 -0.10164050787124929 0.10774159615890203 0.10329598114509503 0.1025640423778723 0.10175360927986564 -0.10115791221564596 0.10099130222825528 -0.10139665713179169 0.10077106717314528 0.10075821268810414 0.10071744085701101 0.10071266978371957
leaf_weight=0.23903654841706135 0.34164313646033428 0.41094999015331257 1.2336595691740511 1.8690519370138643 0.75237616896629322 0.31085561215877522 0.51180328521877505 0.58494271896779537 0.27922693733125925 0.19333019200712431 0.30563775729387999 0.17937953397631634 0.17346550617367018 0.22236384823918343 0.14798347046598792 0.45982381142675877 0.15859488630667329 0.14899640530347824 0.23310147738084197 0.14052361249923706
leaf_count=34 28 4 13 27 6 2 11 8 20 5 14 8 11 20 16 34 21 20 33 20
internal_value=0 -0.0226654 0.00834548 -0.0190288 0.0457996 0.105492 -0.106396 0.106734 -0.103111 0.101908 0.102297 0.101115 0.100905 -0.101412 0.100767 -0.101319 0.100731 0.100723 0.100733 0.100713
internal_weight=0 6.97148 5.08731 3.85365 1.9846 1.92527 1.88417 1.23222 1.47322 1.61441 0.647281 1.42108 1.2417 0.961415 1.06824 0.682188 0.920253 0.761658 0.382098 0.37956
internal_count=355 185 96 83 56 170 89 50 85 168 42 163 155 74 144 54 128 107 53 54
is_linear=0
shrinkage=0.1


Tree=40
num_leaves=18
num_cat=0
split_feature=9 5 5 0 4 9 11 14 14 14 14 12 9 13 9 12 13
split_gain=2.85928 1.87809 1.41221 1.38794 2.06919 1.36801 0.799266 0.390823 0.00896385 0.000995469 0.000386385 4.88139e-05 2.28014e-05 7.65063e-06 1.20858e-06 2.6292e-07 3.01824e-08
threshold=15.890000000000002 0.055760000000000011 0.054855000000000008 14.125000000000002 0.068860000000000018 16.765000000000004 734.05000000000007 0.11825000000000001 0.14490000000000003 0.15325000000000003 0.12550000000000003 0.34180000000000005 20.840000000000003 0.22545000000000001 14.815000000000003 0.34805000000000003 0.15175000000000002
decision_type=2 2 2 2 2 2 2 2 2 2 2 2 2 2 2 2 2
left_child=1 2 6 -2 -5 -6 8 -7 10 -9 11 13 -11 14 16 -14 -1
right_child=3 -3 -4 4 5 7 -8 9 -10 12 -12 -13 15 -15 -16 -17 -18
leaf_value=0.1006544212916346 -0.15273729664807945 -0.034158707431833725 0.32203467708709155 0.054520242806237899 0.023560270005312918 -0.20667107870406309 -0.085898080543537036 -0.10748904107751922 0.11881827151642269 -0.10227159679427203 0.10559198469221023 0.1026487052868274 -0.1011481316794442 0.10132156208791805 0.10098852957179116 -0.10127679684661506 0.10069705746588008
leaf_weight=0.59343583136797062 1.1105405017733572 1.3993517179042099 0.28012561425566662 1.8193555809557436 0.83125926926732097 0.49568794667720784 0.24676464404910792 0.39354860875755526 0.37638742476701725 0.30256296694278717 0.21795146353542794 0.17054441850632418 0.24687677621841431 0.26202070480212569 0.13559481455013156 0.44525928888469934 0.23053430579602718
leaf_count=92 15 17 3 26 11 2 5 13 3 18 5 8 23 23 15 36 34
internal_value=0 0.0586916 0.110387 -0.0525413 -0.0280026 -0.0832983 0.0838395 -0.130448 0.104925 -0.103232 0.101677 0.101064 -0.101547 0.100843 0.100712 -0.101231 0.100666
internal_weight=0 3.91271 2.51336 5.64509 4.53455 2.71519 2.23323 1.88394 1.98647 1.38825 1.61008 1.39213 0.994699 1.22159 0.959565 0.692136 0.82397
internal_count=349 205 188 144 129 103 185 92 180 90 177 172 77 164 141 59 126
is_linear=0
shrinkage=0.1


Tree=41
num_leaves=19
num_cat=0
split_feature=11 13 10 0 4 1 2 14 2 2 14 13 5 13 3 9 12 13
split_gain=2.45166 1.61628 1.15869 1.15855 1.83292 1.16949 0.776347 0.247922 0.0085428 0.00168856 0.000579098 7.54159e-05 5.71138e-05 4.91638e-06 3.09818e-06 1.38484e-06 2.31294e-07 2.25476e-08
threshold=779.80000000000007 0.3715500000000001 105.65000000000002 14.125000000000002 0.068860000000000018 98.75500000000001 641.85000000000014 0.11825000000000001 610.30000000000007 746.90000000000009 0.12550000000000003 0.34025000000000005 0.050880000000000009 0.22545000000000001 0.18810000000000002 14.875000000000002 0.33950000000000008 0.15175000000000002
decision_type=2 2 2 2 2 2 2 2 2 2 2 2 2 2 2 2 2 2
left_child=1 2 6 -2 -5 -6 8 -7 10 -9 12 -11 13 15 16 17 -13 -1
right_child=3 -3 -4 4 5 7 -8 9 -10 11 -12 14 -14 -15 -16 -17 -18 -19
leaf_value=0.10059162625403724 -0.14794340732471434 -0.024624035948139417 0.31028882166217797 0.049670784806962499 0.022678894000047856 -0.18703983778238728 -0.092099631928414277 -0.11036323065685877 0.12428770964788349 -0.10307565105056174 0.10565180151930037 -0.10095278580489031 0.10274967921125709 0.10116316973029485 -0.10148594964070884 0.10096506389741851 -0.10109458683852895 0.10063029764323786
leaf_weight=0.54300599405542127 0.99528086837381113 1.5522031066939233 0.25096190348267544 1.7749783126637337 0.74162890482693944 0.4929966777563094 0.22620487306267012 0.29466589912772168 0.19229003926739086 0.30024280399084069 0.34218296222388733 0.19641140894964337 0.16636289749294508 0.24114904506132007 0.22573724109679461 0.12241173768416047 0.27761404030025005 0.20872741285711527
leaf_count=93 14 19 2 25 14 2 4 6 3 14 8 22 7 24 18 14 26 34
internal_value=0 0.0541781 0.107515 -0.0507103 -0.028227 -0.0828932 0.082598 -0.126691 0.104357 -0.10371 0.101997 -0.10175 0.101021 0.100763 -0.101181 0.100653 -0.101036 0.100602
internal_weight=0 3.8455 2.2933 5.29956 4.30428 2.5293 2.04233 1.78767 1.81613 1.29467 1.62384 1.00001 1.28166 1.11529 0.699763 0.874145 0.474025 0.751733
internal_count=349 208 189 141 127 102 187 88 183 86 180 80 172 165 66 141 48 127
is_linear=0
shrinkage=0.1


Tree=42
num_leaves=19
num_cat=0
split_feature=9 5 0 9 13 12 14 13 6 0 13 5 13 2 12 4 13 5
split_gain=2.09859 1.61378 1.04729 1.57705 1.31018 0.833316 1.82396 0.0839105 0.0082262 0.00741979 7.43076e-05 7.02532e-05 3.51145e-06 2.69429e-06 3.70451e-07 7.83998e-08 4.60606e-08 6.08093e-09
threshold=15.890000000000002 0.060805000000000005 14.125000000000002 17.720000000000002 0.19285000000000005 0.27155000000000001 0.1358 0.22545000000000001 0.28645000000000004 14.455000000000002 0.33465000000000006 0.047625000000000008 0.22545000000000001 572.05000000000007 0.33950000000000008 0.21475000000000002 0.17885000000000004 0.022750000000000003
decision_type=2 2 2 2 2 2 2 2 2 2 2 2 2 2 2 2 2 2
left_child=1 5 -2 -4 -5 6 9 -6 -9 11 -10 12 13 16 -12 -16 17 -1
right_child=2 -3 3 4 7 -7 -8 8 10 -11 14 -13 -14 -15 15 -17 -18 -19
leaf_value=0.10053321206868193 -0.13891338249249061 -0.093634283285680908 0.035613484861794227 0.11919856408161818 -0.16117467497619117 0.14778979636554176 -0.12182142517769295 -0.11749105509361168 -0.10287222446134824 0.12424343255365965 -0.10085592913543238 0.10313032574523032 0.10115964218984241 0.10106196451801899 -0.10098484582303152 -0.10106680663935917 0.10061047788470845 0.10055511739365493
leaf_weight=0.40053885243833132 0.99800754990428675 0.62269785534590472 2.1238638292998075 0.26822784543037448 0.35595607385039318 1.1985731753520665 0.50039263069629658 0.49178303033113457 0.30203770566731691 0.15705339610576619 0.18495562952011824 0.1366699505597353 0.14587746700271964 0.12132004369050264 0.25040442030876875 0.21858767792582512 0.11069837212562561 0.18538031680509448
leaf_count=76 15 11 35 2 3 27 3 4 15 1 23 6 15 13 26 21 19 34
internal_value=0 0.0526776 -0.0468405 -0.0249403 -0.0870112 0.0834937 0.0396561 -0.117676 -0.106981 0.10391 -0.101575 0.101009 0.100708 0.100627 -0.100976 -0.101023 0.100551 0.10054
internal_weight=0 3.5792 5.19382 4.19582 2.07195 2.9565 1.75793 1.80372 1.44777 1.25754 0.955985 1.10049 0.963815 0.817938 0.653948 0.468992 0.696618 0.585919
internal_count=349 205 144 129 94 194 167 92 89 164 85 163 157 142 70 47 129 110
is_linear=0
shrinkage=0.1


Tree=43
num_leaves=19
num_cat=0
split_feature=9 5 0 4 9 8 0 14 14 1 14 11 12 13 13 11 12 5
split_gain=1.81695 1.46903 0.906983 1.47714 1.02005 0.730232 0.536134 0.136997 0.0047443 0.000423 0.000211047 3.72084e-05 2.04036e-05 2.73676e-06 1.38403e-06 1.3294e-06 1.37814e-07 9.25601e-09
threshold=15.890000000000002 0.055760000000000011 14.125000000000002 0.068860000000000018 16.765000000000004 32.600000000000001 14.405000000000003 0.11825000000000001 0.14490000000000003 100.35000000000001 0.12550000000000003 1300.5000000000002 0.34180000000000005 0.22545000000000001 0.37870000000000009 687.10000000000014 0.37960000000000005 0.029505000000000003
decision_type=2 2 2 2 2 2 2 2 2 2 2 2 2 2 2 2 2 2
left_child=1 5 -2 -4 -5 6 8 -6 10 -9 12 -11 13 15 -13 17 -16 -1
right_child=2 -3 3 4 7 -7 -8 9 -10 11 -12 14 -14 -15 16 -17 -18 -19
leaf_value=0.10048865415241999 -0.13272698322804469 -0.03149259809851112 0.048196445854644832 0.017094673315223321 -0.16686025748699715 -0.064289634603139134 0.26627370455430305 -0.1063535479549975 0.11498380222652921 -0.10244129045462258 0.10415360956524267 -0.10120841330351887 0.10198389584102488 0.10097582979730538 -0.10081362235711909 0.10088935370093 -0.10093360999028325 0.10052189634245248
leaf_weight=0.49704453069716759 0.9429560201242565 1.3181120157241819 1.6668484006077049 0.79318655654788051 0.47913558781146992 0.22909223288297642 0.23451304435729969 0.21976184099912621 0.32551093399524678 0.25306011736392975 0.23226713575422753 0.19625357119366527 0.13002335373312235 0.19326176214963198 0.16498848656192422 0.099310449790209532 0.22801597137004137 0.10073772352188826
leaf_count=103 15 17 26 11 2 10 1 8 3 17 7 19 8 23 21 13 25 20
internal_value=0 0.0508036 -0.0444996 -0.0237075 -0.0750495 0.103932 0.125193 -0.122472 0.104228 -0.102446 0.101433 -0.101427 0.100814 0.100643 -0.100992 0.100551 -0.100883 0.100494
internal_weight=0 3.35987 4.94421 4.00125 2.3344 2.04176 1.81267 1.54122 1.57816 1.06208 1.25264 0.842318 1.02038 0.890354 0.589258 0.697093 0.393004 0.597782
internal_count=349 205 144 129 103 188 178 92 177 90 174 82 167 159 65 136 46 123
is_linear=0
shrinkage=0.1


Tree=44
num_leaves=18
num_cat=0
split_feature=13 9 0 9 6 13 6 0 13 8 1 4 8 3 1 13 3
split_gain=1.69593 1.68949 0.746588 1.66531 0.65495 0.0453951 0.00639599 0.0043899 7.53726e-05 6.62749e-05 1.13205e-05 5.04598e-07 4.19655e-07 1.2112e-07 6.53164e-08 4.55062e-09 5.62271e-10
threshold=0.19285000000000005 17.720000000000002 14.405000000000003 14.875000000000002 0.23585000000000003 0.22305000000000003 0.28645000000000004 16.405000000000005 0.31355000000000005 34.760000000000012 87.200000000000003 0.14655000000000004 28.310000000000006 0.18585000000000004 82.440000000000012 0.14285000000000003 0.062450000000000006
decision_type=2 2 2 2 2 2 2 2 2 2 2 2 2 2 2 2 2
left_child=7 2 3 4 -2 -3 -7 9 -8 10 12 -10 14 -13 15 16 -1
right_child=1 5 -4 -5 -6 6 8 -9 11 -11 -12 13 -14 -15 -16 -17 -18
leaf_value=0.10043784323572968 0.12802983862090508 -0.14982689958904225 0.044238181148176417 -0.10384481887855737 -0.01443333991913584 -0.11610401682973104 -0.10295738482438539 0.11624664193464491 -0.10100665203066786 0.10300960801708502 0.10132617253948505 -0.10076180815398977 0.10069544768226679 -0.10086871022555483 0.10053530324106437 0.10045803403101261 0.10042904948735516
leaf_weight=0.16911737062036969 0.59501403709873579 0.29757918417453755 2.3634274806827307 1.5008569895289836 0.70512160751968622 0.45686645060777642 0.23639210127294064 0.23856980353593826 0.16465775808319449 0.15105093782767653 0.22698445105925202 0.28099527768790722 0.087209888268262148 0.1701672594062984 0.088492332957684994 0.10802762862294912 0.12754934281110764
leaf_count=39 22 2 26 26 24 4 11 2 19 7 22 38 15 20 18 24 30
internal_value=0 -0.0250149 0.00284636 -0.0320793 0.0507657 -0.114572 -0.106557 0.104108 -0.101439 0.101087 0.100727 -0.100857 0.100493 -0.100802 0.100457 0.10044 0.100434
internal_weight=0 6.77108 5.16442 2.80099 1.30014 1.60666 1.30908 1.197 0.852212 0.958432 0.807381 0.61582 0.580397 0.451163 0.493187 0.404694 0.296667
internal_count=349 192 98 72 46 94 92 157 88 155 148 77 126 58 111 93 69
is_linear=0
shrinkage=0.1


Tree=45
num_leaves=20
num_cat=0
split_feature=14 13 3 3 5 7 13 0 8 8 5 9 9 13 3 11 7 14 4
split_gain=1.61616 0.825035 1.20691 0.595428 1.62154 0.195152 0.111431 0.00311612 0.000865378 6.67832e-05 9.20668e-06 8.83331e-06 3.84146e-06 2.14819e-07 1.71601e-07 8.48177e-08 1.02147e-08 3.88924e-09 4.0943e-10
threshold=0.14655000000000004 0.20795000000000002 0.072670000000000012 0.12835000000000002 0.049230000000000003 1.8985000000000001 0.31355000000000005 16.245000000000001 30.430000000000003 35.45000000000001 0.04142500000000001 18.895000000000003 15.345000000000001 0.37870000000000009 0.14505000000000004 662.50000000000011 2.5740000000000003 0.081490000000000021 0.024925000000000003
decision_type=2 2 2 2 2 2 2 2 2 2 2 2 2 2 2 2 2 2 2
left_child=1 7 -3 4 6 -2 -4 9 -7 10 12 -10 15 -13 -15 16 17 18 -1
right_child=5 2 3 -5 -6 8 -8 -9 11 -11 -12 13 -14 14 -16 -17 -18 -19 -20
leaf_value=0.10038996956554905 -0.0011935482524869723 -0.088922018836982031 0.1106682735279001 0.11349799078362657 -0.10735549073554557 -0.10633913490455685 0.051312599961319427 0.11293464725216816 -0.10157542025646843 0.1028348889645562 0.10155847585235867 -0.10085981312315191 0.10108352389744796 -0.10061543493107404 -0.10076195882129516 0.1005166170226145 0.1004358569598882 0.10041728826690562 0.10039722807868146
leaf_weight=0.193472408223897 0.22095150314271439 0.93585306033492122 0.62544339499436341 0.82660311879590143 0.71967478841543187 0.54106584750115849 0.63986675115302205 0.28821578621864319 0.17756757233291864 0.17168605420738459 0.098148145014420152 0.13778110360726714 0.10300888121128082 0.12012721039354801 0.23885724321007729 0.078137525590136647 0.085465350421145558 0.081837948178872466 0.12987977778539062
leaf_count=50 4 14 26 16 9 12 19 3 15 10 8 18 10 20 32 16 20 20 33
internal_value=0 0.0327672 0.00944345 0.042185 0.0124882 -0.0876441 0.0806521 0.103836 -0.10336 0.101051 0.100654 -0.10097 0.100522 -0.100754 -0.100713 0.10042 0.100404 0.100398 0.100393
internal_weight=0 4.97729 3.74744 2.81159 1.98498 1.43635 1.26531 1.22985 1.2154 0.941636 0.76995 0.674333 0.671802 0.496766 0.358984 0.568793 0.490655 0.40519 0.323352
internal_count=355 254 84 70 54 101 45 170 97 167 157 85 149 70 52 139 123 103 83
is_linear=0
shrinkage=0.1


Tree=46
num_leaves=19
num_cat=0
split_feature=14 13 3 13 12 7 0 8 8 5 9 9 13 3 11 7 14 4
split_gain=1.42654 0.758404 1.02285 0.503233 0.555815 0.191346 0.00227098 0.000637105 4.93662e-05 6.8094e-06 6.53507e-06 2.84034e-06 1.59098e-07 1.2685e-07 6.27732e-08 7.55911e-09 2.87838e-09 3.03052e-10
threshold=0.14655000000000004 0.20795000000000002 0.072670000000000012 0.27070000000000005 0.28420000000000006 1.8985000000000001 16.245000000000001 30.430000000000003 35.45000000000001 0.04142500000000001 18.895000000000003 15.345000000000001 0.37870000000000009 0.14505000000000004 662.50000000000011 2.5740000000000003 0.081490000000000021 0.024925000000000003
decision_type=2 2 2 2 2 2 2 2 2 2 2 2 2 2 2 2 2 2
left_child=1 6 -3 -4 -5 -2 8 -7 9 11 -9 14 -12 -14 15 16 17 -1
right_child=5 2 3 4 -6 7 -8 10 -10 -11 12 -13 13 -15 -16 -17 -18 -19
leaf_value=0.10035272092494003 -0.0010743454160745088 -0.082602068000736301 0.10250260303845263 -0.05289407789085801 0.059402463713177048 -0.10571168357514593 0.11156734045415716 -0.10142407629011466 0.10256049412979396 0.10140856510211782 -0.10077747026139837 0.10097941277687955 -0.10055653309272339 -0.1006889299833011 0.10046723505902942 0.10039421194873466 0.10037742331921601 0.10035928469911921
leaf_weight=0.1751227476634083 0.22092208266258229 0.90821067988872561 0.87371091754175756 0.78813359839841701 0.99998670117929578 0.4923341693356631 0.26382046937942505 0.16089733503758907 0.15574242500588298 0.088932715589180589 0.12476618168875575 0.093297497369349003 0.10875602718442678 0.21627575578168035 0.07073474139906466 0.077362694544717669 0.074077950790524483 0.11756225465796888
leaf_count=50 4 14 28 17 25 12 3 15 10 8 18 10 20 32 16 20 20 33
internal_value=0 0.0315317 0.00903397 0.0403 0.00990653 -0.0860213 0.103459 -0.103035 0.100951 0.100591 -0.100877 0.100472 -0.100681 -0.100645 0.10038 0.100366 0.10036 0.100355
internal_weight=0 4.6867 3.57004 2.66183 1.78812 1.32395 1.11665 1.10303 0.852833 0.697091 0.610695 0.608158 0.449798 0.325032 0.51486 0.444126 0.366763 0.292685
internal_count=355 254 84 70 42 101 170 97 167 157 85 149 70 52 139 123 103 83
is_linear=0
shrinkage=0.1


Tree=47
num_leaves=21
num_cat=0
split_feature=14 10 4 0 1 2 10 12 10 6 5 9 9 5 13 11 3 0 10 7
split_gain=1.26353 1.00286 0.918781 0.480083 0.383972 0.0865812 0.0474715 0.00369712 0.00248689 0.000167564 0.000145251 2.5631e-05 1.41194e-05 4.03879e-06 1.64946e-06 1.17637e-06 6.9795e-08 2.74657e-08 1.54862e-08 8.41546e-09
threshold=0.111 87.065000000000012 0.10250000000000001 15.515000000000002 94.805000000000021 382.9500000000001 106.30000000000003 0.20440000000000003 107.80000000000001 0.30295000000000005 0.065995000000000012 16.225000000000005 19.810000000000006 0.040810000000000006 0.22545000000000001 705.80000000000007 0.13115000000000002 19.710000000000004 88.835000000000022 2.4940000000000002
decision_type=2 2 2 2 2 2 2 2 2 2 2 2 2 2 2 2 2 2 2 2
left_child=3 -2 4 8 -3 -4 -7 -8 10 -9 11 13 -11 14 15 18 -14 -18 19 -1
right_child=1 2 5 -5 -6 6 7 9 -10 12 -12 -13 16 -15 -16 -17 17 -19 -20 -21
leaf_value=0.10032334376463398 0.12876803509636589 -0.042160235679457848 -0.16102964206471576 -0.017198430383591368 0.043259526920962528 -0.05744381421882782 -0.11682824103410738 -0.10446463559425104 0.11078811632087536 -0.10175913640339591 0.10474522704351558 0.10226002303942738 -0.10053298941014457 0.10118870910343114 0.10076472838536571 0.10076214694019497 -0.10059776710175279 -0.1006637951150766 0.10037429658612157 0.10036104250473377
leaf_weight=0.28875308134593047 0.37536217458546195 1.1029658704064793 0.23535810410976399 0.4319421350955962 1.0064101917669175 0.26622940599918343 0.21757747977972031 0.18411933211609721 0.36607090849429358 0.14930225070565939 0.10137615725398064 0.10023001534864306 0.10541243338957429 0.091548437252640724 0.16058598412200809 0.077178222825750709 0.12951299967244267 0.12266890937462449 0.10740756569430232 0.074489360442385077
leaf_count=90 7 24 1 5 20 9 2 7 6 16 3 6 21 10 25 11 22 19 30 21
internal_value=0 -0.0266098 -0.043181 0.0747079 -0.00140538 -0.10567 -0.0945791 -0.10546 0.103735 -0.101881 0.101157 0.100753 -0.100942 0.100564 0.100483 0.1004 -0.100601 -0.10063 0.100341 0.100331
internal_weight=0 3.89492 3.51956 1.79958 2.10938 1.41018 1.17482 0.908593 1.36764 0.691016 1.00157 0.900193 0.506897 0.799963 0.708414 0.547828 0.357594 0.252182 0.47065 0.363242
internal_count=355 148 141 207 44 97 96 87 202 85 196 193 78 187 177 152 62 41 141 111
is_linear=0
shrinkage=0.1


Tree=48
num_leaves=19
num_cat=0
split_feature=14 13 3 13 12 0 0 8 8 5 5 9 3 11 10 7 14 4
split_gain=1.15302 0.673614 0.870248 0.42541 0.394313 0.26405 0.00168758 0.000400285 3.24167e-05 3.94903e-06 3.87754e-06 1.54521e-06 7.28211e-08 3.34753e-08 2.44249e-08 3.75343e-09 2.93018e-09 1.66075e-10
threshold=0.14655000000000004 0.20795000000000002 0.072670000000000012 0.27070000000000005 0.28420000000000006 11.755000000000001 16.245000000000001 30.430000000000003 35.45000000000001 0.04142500000000001 0.075500000000000012 15.345000000000001 0.18585000000000004 662.50000000000011 152.45000000000002 2.5740000000000003 0.081490000000000021 0.024925000000000003
decision_type=2 2 2 2 2 2 2 2 2 2 2 2 2 2 2 2 2 2
left_child=1 6 -3 -4 -5 -2 8 -7 9 11 -9 13 14 15 -12 16 17 -1
right_child=5 2 3 4 -6 7 -8 10 -10 -11 12 -13 -14 -15 -16 -17 -18 -19
leaf_value=0.10028858651743944 0.045036133814360148 -0.078851945930913173 0.098917917570831626 -0.044374995919725289 0.052471931830647439 -0.10474837076311477 0.11049720893598713 -0.10117871931162468 0.1022247266380745 0.10116833609358925 -0.1005558592257795 0.10080008331068145 -0.10062221755636686 0.10038220634550726 -0.10049174971831859 0.10032250643141744 0.10031523699522621 0.10029395491315517
leaf_weight=0.1434641012456267 0.13776861131191231 0.86159141873940859 0.78055555722676251 0.75172701338306047 0.95385119738057256 0.48684918647632003 0.24159174785017967 0.14003057242371142 0.13222906901501119 0.074212489882484078 0.13647012761794031 0.076486098114401102 0.12394068902358413 0.05795717635191977 0.10526749351993203 0.063379496801644564 0.061331857228651643 0.096310989931225777
leaf_count=50 2 14 28 17 25 14 3 16 10 8 26 10 21 16 22 20 20 33
internal_value=0 0.0288196 0.0077561 0.0377709 0.00978702 -0.0846948 0.103284 -0.102702 0.100813 0.100488 -0.100731 0.100386 -0.10056 0.100312 -0.100528 0.1003 0.100296 0.100291
internal_weight=0 4.29469 3.34773 2.48613 1.70558 1.13033 0.946963 0.992558 0.705371 0.573142 0.505709 0.49893 0.365678 0.422444 0.241738 0.364486 0.301107 0.239775
internal_count=355 254 84 70 42 101 170 99 167 157 85 149 69 139 48 123 103 83
is_linear=0
shrinkage=0.1


Tree=49
num_leaves=22
num_cat=0
split_feature=14 10 4 0 1 1 10 12 10 8 5 9 5 4 9 11 3 10 9 8 4
split_gain=1.04657 0.831001 0.763486 0.436347 0.277959 0.0597231 0.0525898 0.00234497 0.00203302 8.89176e-05 7.86505e-05 1.75606e-05 1.6047e-05 2.32597e-06 9.91357e-07 6.10539e-07 5.05368e-08 1.96876e-08 2.6869e-09 2.75784e-09 4.15155e-10
threshold=0.111 87.065000000000012 0.10250000000000001 15.515000000000002 94.805000000000021 77.500000000000014 105.95000000000002 0.20440000000000003 107.80000000000001 31.085000000000004 0.065995000000000012 16.305000000000003 0.079005000000000006 0.041415000000000007 13.660000000000002 705.80000000000007 0.18585000000000004 152.45000000000002 14.195000000000002 23.330000000000002 0.024925000000000003
decision_type=2 2 2 2 2 2 2 2 2 2 2 2 2 2 2 2 2 2 2 2 2
left_child=3 -2 4 8 -3 -4 -7 -8 10 -9 11 13 -11 15 -15 18 17 -14 19 20 -1
right_child=1 2 5 -5 -6 6 7 9 -10 12 -12 -13 16 14 -16 -17 -18 -19 -20 -21 -22
leaf_value=0.10026107663430273 0.12459385938682158 -0.037884597077408655 -0.14969752046402421 -0.017144580888541771 0.036634710545153847 -0.049971176526209131 -0.11436675033463828 -0.10374218815605961 0.11019989270392896 -0.10184396847558314 0.10388333700849328 0.10211694126685206 -0.10050675530636988 0.10053289792447673 0.10089167860724471 0.10062874120744768 -0.1005626998634275 -0.10044447991061799 0.10029559993705071 0.10029016945302523 0.10027008242903464
leaf_weight=0.10908159962855257 0.33630946651101146 1.0569324167445309 0.22177137434482563 0.40163615718483914 0.95085149444639672 0.22664567362517096 0.18999722972512245 0.14456308912485838 0.33440131600946188 0.1255145042669028 0.083971625193953514 0.074321141466498375 0.11508274357765913 0.16459875507280231 0.14473457238636911 0.057680927915498614 0.11220917059108615 0.090831470210105181 0.051900292979553342 0.05695996549911797 0.096446088748052716
leaf_count=42 7 24 1 5 20 8 2 6 6 14 3 5 24 39 23 10 21 21 18 20 36
internal_value=0 -0.0250128 -0.0405687 0.072828 -0.00259355 -0.102728 -0.0923621 -0.104708 0.103606 -0.101588 0.10098 0.100657 -0.100886 0.100498 0.100701 0.10033 -0.100509 -0.100479 0.100275 0.100271 0.100265
internal_weight=0 3.57071 3.2344 1.57573 2.00778 1.22662 1.00484 0.778198 1.1741 0.588201 0.839695 0.755723 0.443638 0.681402 0.309333 0.372069 0.318123 0.205914 0.314388 0.262488 0.205528
internal_count=355 148 141 207 44 97 96 88 202 86 196 193 80 188 62 126 66 45 116 98 78
is_linear=0
shrinkage=0.1


Tree=50
num_leaves=20
num_cat=0
split_feature=11 10 5 4 11 12 13 10 4 4 10 11 14 13 4 11 3 2 7
split_gain=1.67821 1.17972 0.805763 0.588226 0.637149 0.159941 0.0698437 0.00493107 0.00247277 0.000641685 0.00028266 2.63449e-05 2.42813e-05 1.68268e-06 8.11787e-07 3.83465e-07 5.30053e-08 6.23978e-09 4.43854e-09
threshold=779.80000000000007 108.55000000000001 0.052205000000000008 0.068860000000000018 811.85000000000002 0.19260000000000002 0.26765000000000005 104.75000000000001 0.085335000000000008 0.28405000000000008 110.35000000000001 945.55000000000007 0.111 0.22545000000000001 0.13765000000000002 698.20000000000016 0.18585000000000004 521.90000000000009 2.4940000000000002
decision_type=2 2 2 2 2 2 2 2 2 2 2 2 2 2 2 2 2 2 2
left_child=1 2 7 -2 -5 -6 -7 9 -8 12 -10 -12 13 15 -13 17 -16 18 -1
right_child=3 -3 -4 4 5 6 8 -9 10 -11 11 14 -14 -15 16 -17 -18 -19 -20
leaf_value=0.10023874032787208 -0.0085187888266335422 0.24808734957961356 -0.016692077227067875 0.024767765534312293 -0.16418118963906919 -0.024479083679527228 -0.11446325492747306 0.12180643455397029 -0.10591771096742331 0.11006797748034024 -0.10221204800093274 -0.10078180034512421 0.10177273759185167 0.1007235133731173 -0.10042002931184119 0.10053634455227434 -0.10051274695655654 0.10028370372113582 0.10027105594398467
leaf_weight=0.22059751581400711 1.7475437638349833 0.28263945505022992 1.3745107264257965 0.39032475184649218 0.50966988736763574 0.12231932673603296 0.21637947857379913 0.14697523415088654 0.15055216918699443 0.083103686571121216 0.12782603874802589 0.10568013857118785 0.17264198837801814 0.11921152705326676 0.16793683939613402 0.055093668401241302 0.097430814523249865 0.049046933185309172 0.052645887015387416
leaf_count=93 29 2 26 8 4 6 2 1 4 1 9 18 14 21 41 12 20 18 20
internal_value=0 0.0554092 0.0314591 -0.0503289 -0.0890261 -0.118681 -0.0952118 0.105053 -0.105205 0.10178 -0.10212 -0.100974 0.100751 0.100396 -0.100547 0.100293 -0.100454 0.100251 0.100245
internal_weight=0 2.55647 2.27383 3.63566 1.88812 1.49779 0.988125 0.899316 0.865805 0.752341 0.649426 0.498874 0.669238 0.496596 0.371048 0.377384 0.265368 0.32229 0.273243
internal_count=349 208 206 141 112 104 100 180 94 179 92 88 178 164 79 143 61 131 113
is_linear=0
shrinkage=0.1


Tree=51
num_leaves=19
num_cat=0
split_feature=11 11 14 0 4 1 14 1 10 14 11 5 13 13 11 3 10 7
split_gain=1.40982 0.960468 0.791079 0.554653 1.03073 0.688811 0.0783404 0.00490643 0.000601756 6.96062e-05 4.31057e-05 7.92002e-06 3.30584e-06 1.12639e-06 2.19121e-07 1.97506e-08 7.92613e-09 3.6307e-09
threshold=779.80000000000007 764.75000000000011 0.1358 14.125000000000002 0.068860000000000018 98.75500000000001 0.11825000000000001 94.230000000000004 119.60000000000001 0.12550000000000003 1270.5000000000002 0.048235000000000007 0.22545000000000001 0.3715500000000001 698.20000000000016 0.14505000000000004 92.500000000000014 2.4940000000000002
decision_type=2 2 2 2 2 2 2 2 2 2 2 2 2 2 2 2 2 2
left_child=1 2 7 -2 -5 -6 -7 9 -8 11 -10 12 14 -12 16 -15 17 -1
right_child=3 -3 -4 4 5 6 8 -9 10 -11 13 -13 -14 15 -16 -17 -18 -19
leaf_value=0.10021737498462624 -0.12643575776532157 0.23807380149677126 -0.017474740185660375 0.039615782537897333 0.016540657226226062 -0.15758107606411706 -0.10876876373346429 0.12119634974976574 -0.10255004734545226 0.1032055892753871 -0.10079053405269418 0.10138006968890773 0.1008056098352209 -0.10034724635565576 0.1004693631673006 -0.10041409861029396 0.1002675161402905 0.10024848848766335
leaf_weight=0.20504687970969904 0.70055912248790297 0.2485773586668073 1.3444700632244346 1.2750887232832613 0.49014255451038469 0.4633442163467405 0.13716927543282509 0.14430519938468933 0.16297521977685392 0.12340254243463278 0.11053162347525358 0.10825869021937251 0.16505366866476834 0.067875152919441462 0.043932597851380706 0.12665619072504342 0.047748638549819589 0.045901150908321142
leaf_count=95 14 2 19 25 14 2 2 1 15 5 18 9 28 20 11 31 19 19
internal_value=0 0.0516319 0.0308317 -0.0467616 -0.0270648 -0.0816129 -0.126636 0.10433 -0.102944 0.101038 -0.101237 0.100604 0.100438 -0.100536 0.100261 -0.100391 0.10023 0.100223
internal_weight=0 2.4767 2.22812 3.53434 2.83378 1.55869 1.06855 0.883649 0.605207 0.739344 0.468038 0.615942 0.507683 0.305063 0.342629 0.194531 0.298697 0.250948
internal_count=349 208 206 141 127 102 88 187 86 186 84 181 172 69 144 51 133 114
is_linear=0
shrinkage=0.1


Tree=52
num_leaves=19
num_cat=0
split_feature=11 13 0 0 1 4 10 14 1 14 10 14 11 5 13 13 11 3
