tree
version=v4
num_class=1
num_tree_per_iteration=1
label_index=0
max_feature_idx=14
objective=tweedie
feature_names=mean_radius mean_perimeter mean_area mean_compactness mean_concavity mean_concave_points radius_error perimeter_error area_error worst_radius worst_perimeter worst_area worst_compactness worst_concavity worst_concave_points
feature_infos=[6.9809999999999999:27.420000000000002] [43.789999999999999:186.90000000000001] [143.5:2501] [0.019380000000000001:0.34539999999999998] [0:0.42680000000000001] [0:0.20119999999999999] [0.1115:2.5470000000000002] [0.75700000000000001:18.649999999999999] [6.8019999999999996:542.20000000000005] [7.9299999999999997:36.039999999999999] [50.409999999999997:251.19999999999999] [185.19999999999999:4254] [0.027289999999999998:1.0580000000000001] [0:1.252] [0:0.29099999999999998]
tree_sizes=744 741 839 847 960 961 1174 1283 1275 1606 1493 1372 1391 1390 1397 1614 1299 1396 1507 1375 1286 1612 1406 1406 1406 1503 1389 1604 1615 1606 1619 1492 1607 1673 1590 1505 1624 1515 1615 1627 1508 1503 1617 1513 1730 1524 1741 1618 1722 1738 1808 1508 1705 1706 1701 1944 1838 1836 1958 1723 1627 1731 1740 1741 1633 1736 1642 1734 1744 1627 1736 1746 1845 1755 1737 1962 1755 1861 1861 1523 1527 1744 1631 1637 1522 1750 1753 1545 1637 1432 1528 1631 1746 1749 1510 1767 1658 1853 1645 1855

Tree=0
num_leaves=6
num_cat=0
split_feature=14 10 1 14 0
split_gain=180.205 9.17678 4.42894 0.558155 2.84217e-14
threshold=0.14655000000000004 107.80000000000001 94.285000000000011 0.111 19.540000000000003
decision_type=2 2 2 2 2
left_child=1 3 -2 -1 -4
right_child=2 -3 4 -5 -6
leaf_value=-0.39927722303779845 -0.56711436496860557 -0.46497412717054859 -0.64285264017978472 -0.4154462878044739 -0.64285264017978472
leaf_weight=184.43073034286499 9.8855327665805799 25.254760295152664 22.839186698198318 24.144283652305603 12.421312063932417
leaf_count=180 20 35 57 26 31
internal_value=-0.442853 -0.408042 -0.626268 -0.401149 -0.642853
internal_weight=0 233.83 45.146 208.575 35.2605
internal_count=349 241 108 206 88
is_linear=0
shrinkage=1


Tree=1
num_leaves=6
num_cat=0
split_feature=14 10 6 14 0
split_gain=158.417 7.47174 5.23276 0.459951 7.10543e-15
threshold=0.14655000000000004 107.80000000000001 0.33200000000000007 0.111 12.895000000000001
decision_type=2 2 2 2 2
left_child=1 3 -2 4 -1
right_child=2 -3 -4 -5 -6
leaf_value=0.039405597960807968 -0.11508892076893014 -0.019933813612450623 -0.20000000000000001 0.024712290707438671 0.039405597960807968
leaf_weight=131.57922863960266 9.3828375339508039 25.22540682554245 32.044948041439056 24.101210117340088 52.019695043563843
leaf_count=129 20 35 88 26 51
internal_value=0 0.0314589 -0.180769 0.0377006 0.0394056
internal_weight=0 232.926 41.4278 207.7 183.599
internal_count=349 241 108 206 180
is_linear=0
shrinkage=0.1


Tree=2
num_leaves=7
num_cat=0
split_feature=14 10 7 14 1 0
split_gain=139.173 6.07777 5.99404 0.377828 1.42109e-14 3.55271e-15
threshold=0.14655000000000004 107.80000000000001 2.4325000000000006 0.111 121.00000000000001 13.065000000000003
decision_type=2 2 2 2 2 2
left_child=1 3 -2 5 -4 -1
right_child=2 -3 4 -5 -6 -7
leaf_value=0.035603745695046665 -0.10681256606855777 -0.017958337498642944 -0.19999999999999996 0.022275195976381557 -0.20000000000000001 0.035603745695046665
leaf_weight=141.25626647472382 9.0559177398681623 25.20160123705864 13.608463555574419 24.066253066062927 15.418593138456343 41.665517449378967
leaf_count=139 20 35 41 26 47 41
internal_value=0 0.0284087 -0.177841 0.0340541 -0.2 0.0356037
internal_weight=0 232.19 38.083 206.988 29.0271 182.922
internal_count=349 241 108 206 88 180
is_linear=0
shrinkage=0.1


Tree=3
num_leaves=7
num_cat=0
split_feature=10 14 11 11 14 0
split_gain=123.725 8.864 0.99 0.718822 0.0168858 1.42109e-14
threshold=118.15000000000002 0.13235000000000002 779.80000000000007 1216.0000000000002 0.10530000000000002 18.910000000000004
decision_type=2 2 2 2 2 2
left_child=1 2 4 -2 -1 -5
right_child=3 -3 -4 5 -6 -7
leaf_value=0.032145606591374838 -0.16352017761714877 -0.034848552731608938 0.011177403468706409 -0.19999999999999996 0.03507344658303925 -0.20000000000000001
leaf_weight=166.16029119491577 7.049743294715884 23.368051528930664 24.637638449668884 10.155233234167101 22.347482323646545 12.947985440492628
leaf_count=164 20 38 29 33 22 43
internal_value=0 0.0236188 0.0300288 -0.191471 0.0324927 -0.2
internal_weight=0 236.513 213.145 30.153 188.508 23.1032
internal_count=349 253 215 96 186 76
is_linear=0
shrinkage=0.1


Tree=4
num_leaves=8
num_cat=0
split_feature=10 14 11 11 14 0 0
split_gain=109.845 7.19902 0.896675 0.807701 0.0138724 1.42109e-14 1.77636e-15
threshold=118.15000000000002 0.13235000000000002 1216.0000000000002 779.80000000000007 0.10530000000000002 18.020000000000007 13.445000000000002
decision_type=2 2 2 2 2 2 2
left_child=1 3 -2 4 6 -4 -1
right_child=2 -3 5 -5 -6 -7 -8
leaf_value=0.029006249286409175 -0.15772449614305184 -0.031459554781231781 -0.1999999999999999 0.010062819446955751 0.031663829741042079 -0.20000000000000001 0.029006249286409175
leaf_weight=142.50671482086182 6.6015388965606716 23.300648957490921 6.4779314994812038 24.630327671766281 22.282188415527344 14.426724702119825 23.245776176452637
leaf_count=141 20 38 23 29 22 53 23
internal_value=0 0.0213091 -0.189854 0.0270907 0.0293212 -0.2 0.0290062
internal_weight=0 235.966 27.5062 212.665 188.035 20.9047 165.752
internal_count=349 253 96 215 186 76 164
is_linear=0
shrinkage=0.1


Tree=5
num_leaves=8
num_cat=0
split_feature=14 9 14 4 12 4 5
split_gain=109.161 1.86295 2.68191 1.53276 0.101598 0.0212259 0.00409672
threshold=0.14655000000000004 15.780000000000001 0.10975000000000001 0.24435000000000004 0.28105000000000008 0.068410000000000012 0.030815000000000002
decision_type=2 2 2 2 2 2 2
left_child=1 4 -3 -2 5 6 -1
right_child=3 2 -4 -5 -6 -7 -8
leaf_value=0.026160849164419769 -0.19999999999999998 0.029140821203224244 -0.02558131495333589 -0.13867833619421124 0.033107131642942628 0.022942133588615719 0.027680178123530297
leaf_weight=146.25661015510559 22.02005642652512 18.094025760889053 17.733943045139313 5.0020417869091025 22.329133152961731 20.596160501241684 20.198225736618042
leaf_count=145 84 19 27 17 22 21 20
internal_value=0 0.023126 0.00205474 -0.188649 0.0267316 0.0259705 0.0263452
internal_weight=0 245.208 35.828 27.0221 209.38 187.051 166.455
internal_count=355 254 46 101 208 186 165
is_linear=0
shrinkage=0.1


Tree=6
num_leaves=10
num_cat=0
split_feature=14 13 9 12 14 1 4 5 0
split_gain=96.6317 1.87854 1.5286 0.235409 0.337809 0.0056848 4.66492e-05 4.69273e-06 8.88178e-16
threshold=0.14655000000000004 0.69325000000000014 16.375000000000004 0.28420000000000006 0.099515000000000006 87.860000000000014 0.060070000000000005 0.027600000000000003 12.285000000000002
decision_type=2 2 2 2 2 2 2 2 2
left_child=2 -2 3 4 5 6 7 8 -1
right_child=1 -3 -4 -5 -6 -7 -8 -9 -10
leaf_value=0.023585266181255823 -0.19999999999999996 -0.12954809973389381 -0.0034698156651853441 0.03269171840298031 0.011103392750946689 0.025385421283509214 0.023737238651932821 0.023532826840012715 0.023585266181255823
leaf_weight=77.541053771972656 20.031553700566295 4.666401892900466 23.37422576546669 24.365451335906982 23.807839155197144 20.168787121772766 21.149496793746948 20.139904260635376 34.238906860351562
leaf_count=77 85 16 32 24 26 20 21 20 34
internal_value=0 -0.186689 0.0208514 0.023419 0.0222724 0.0238073 0.0235994 0.0235773 0.0235853
internal_weight=0 24.698 244.786 221.411 197.046 173.238 153.069 131.92 111.78
internal_count=355 101 254 222 198 172 152 131 111
is_linear=0
shrinkage=0.1


Tree=7
num_leaves=11
num_cat=0
split_feature=14 13 5 5 2 14 13 1 5 3
split_gain=85.5019 2.2018 1.3858 0.19758 0.253539 0.018243 0.000205503 2.22926e-06 1.30409e-06 3.37586e-09
threshold=0.14655000000000004 0.69325000000000014 0.049230000000000003 0.034615000000000007 562.55000000000007 0.091335000000000013 0.19100000000000003 61.895000000000003 0.025410000000000005 0.07444000000000002
decision_type=2 2 2 2 2 2 2 2 2 2
left_child=2 -2 3 4 5 6 7 -1 9 -9
right_child=1 -3 -4 -5 -6 -7 -8 8 -10 -11
leaf_value=0.021286726916790344 -0.19999999999999996 -0.12171084298792406 -0.0039769275063481864 0.028513916536297586 0.011476562291247614 0.024425354497116504 0.020910693348771901 0.021256406174582691 0.021227479662983634 0.021254903803525991
leaf_weight=20.114255905151367 18.125299423933033 4.4802704602479926 24.09814190864563 32.239709138870239 29.199696183204651 20.162775993347168 20.110354781150818 58.330385208129883 20.113613247871399 20.113909482955933
leaf_count=20 85 16 31 33 32 20 20 58 20 20
internal_value=0 -0.184484 0.0187911 0.0212807 0.0200412 0.0216146 0.0212063 0.0212564 0.0212502 0.021256
internal_weight=0 22.6056 244.483 220.385 188.145 158.945 138.783 118.672 98.5579 78.4443
internal_count=355 101 254 223 190 158 138 118 98 78
is_linear=0
shrinkage=0.1


Tree=8
num_leaves=11
num_cat=0
split_feature=14 4 8 3 12 1 2 14 1 5
split_gain=75.6028 2.87728 1.21214 0.124602 0.295158 0.181026 0.0319292 0.0248789 0.00931621 2.22338e-07
threshold=0.14655000000000004 0.25160000000000005 34.495000000000005 0.071875000000000008 0.15625000000000003 86.290000000000006 372.95000000000005 0.096235000000000015 82.550000000000011 0.016825000000000003
decision_type=2 2 2 2 2 2 2 2 2 2
left_child=2 -2 3 4 8 6 -5 -8 9 -1
right_child=1 -3 -4 5 -6 -7 7 -9 -10 -11
leaf_value=0.019151645705511849 -0.19999999999999996 -0.10482456187908483 -0.0043991039587323207 0.016903278988729894 0.0074272136719243827 0.028293445228214826 0.019087392472913644 0.023543018416367929 0.021662886102223392 0.019164765692208787
leaf_weight=36.166196823120117 16.80638594925404 3.9166084080934516 24.022851645946503 35.579004555940628 25.694996476173401 29.243578791618347 33.151360392570496 20.148200631141663 20.135084867477417 20.092459559440613
leaf_count=36 86 15 31 36 28 30 33 20 20 20
internal_value=0 -0.182012 0.0169304 0.0192573 0.0166986 0.0214687 0.0192231 0.0207717 0.019817 0.0191563
internal_weight=0 20.723 244.234 220.211 102.089 118.122 88.8786 53.2996 76.3937 56.2587
internal_count=355 101 254 223 104 119 89 53 76 56
is_linear=0
shrinkage=0.1


Tree=9
num_leaves=14
num_cat=0
split_feature=14 13 9 12 14 2 6 5 12 3 3 12 5
split_gain=66.8235 3.30919 1.16435 0.201292 0.268733 0.00837803 0.00272268 0.00040203 0.00055138 0.00120478 7.95163e-06 7.62944e-06 7.10543e-15
threshold=0.14655000000000004 0.70085000000000008 16.375000000000004 0.28420000000000006 0.099515000000000006 572.05000000000007 0.39145000000000002 0.028735000000000004 0.15625000000000003 0.076450000000000004 0.056290000000000007 0.086675000000000016 0.074490000000000015
decision_type=2 2 2 2 2 2 2 2 2 2 2 2 2
left_child=2 12 3 4 5 6 7 8 10 -10 11 -1 -2
right_child=1 -3 -4 -5 -6 -7 -8 -9 9 -11 -12 -13 -14
leaf_value=0.017285629114391771 -0.19999999999999984 -0.095107253017847393 -0.0059986104709250114 0.026092857527995873 0.0064646133936163228 0.019726680509088507 0.018639804379664254 0.016978214336914196 0.018310922084637346 0.01730407288098448 0.017320731514199474 0.017201518730110929 -0.20000000000000001
leaf_weight=22.082638621330261 3.9268975704908398 3.7450010329484931 23.320520997047424 24.248915195465088 23.759519219398499 20.103574991226196 20.088016629219055 20.072531580924988 20.084400534629822 29.109180569648743 20.075429201126099 21.078111052513123 11.349497303366659
leaf_count=22 20 14 32 24 26 20 20 20 20 29 20 21 67
internal_value=0 -0.179348 0.0152515 0.0174969 0.0164359 0.0178077 0.0175549 0.0173905 0.0174641 0.0177151 0.0172687 0.0172446 -0.2
internal_weight=0 19.0214 244.023 220.702 196.453 172.694 152.59 132.502 112.43 49.1936 63.2362 43.1607 15.2764
internal_count=355 101 254 222 198 172 152 132 112 49 63 43 87
is_linear=0
shrinkage=0.1


Tree=10
num_leaves=13
num_cat=0
split_feature=10 5 5 13 5 6 13 11 1 10 12 14
split_gain=60.6875 4.471 1.81814 3.64582 0.787162 0.104913 0.305248 0.107285 0.00229981 0.000341456 0.000104296 6.45503e-05
threshold=116.25000000000001 0.055760000000000011 0.049230000000000003 0.26490000000000008 0.037415000000000004 0.23875000000000005 0.19285000000000005 689.00000000000011 82.700000000000003 83.875000000000014 0.12430000000000001 0.045700000000000011
decision_type=2 2 2 2 2 2 2 2 2 2 2 2
left_child=2 -2 4 -4 5 6 8 9 10 11 -1 -7
right_child=1 -3 3 -5 -6 7 -8 -9 -10 -11 -12 -13
leaf_value=0.015539484245976773 -0.088895023644279467 -0.20000000000000001 0.022860517176904394 -0.049167202092153632 0.034692784113843841 0.015600319794369608 0.0023400083470708276 0.023875904586379629 0.016997439291363849 0.015905720306922187 0.015854162931068422 0.015352747806428238
leaf_weight=21.063676834106445 4.8634536266326931 14.187965437769888 15.570420771837236 12.808154582977293 23.244688481092453 21.064182639122009 21.691779226064682 20.184574127197266 20.073618412017822 33.105533957481384 21.066375613212585 21.062331557273865
leaf_count=21 12 88 16 29 23 21 24 20 20 33 21 21
internal_value=0 -0.171637 0.0140575 -0.00964789 0.0173786 0.0151341 0.0125545 0.0174023 0.0161165 0.0156654 0.0156968 0.0154765
internal_weight=0 19.0514 230.935 28.3786 202.557 179.312 83.8955 95.4166 62.2037 75.232 42.1301 42.1265
internal_count=349 100 249 45 204 181 86 95 62 75 42 42
is_linear=0
shrinkage=0.1


Tree=11
num_leaves=12
num_cat=0
split_feature=10 5 5 4 5 8 2 1 14 3 12
split_gain=53.3559 4.87508 1.47422 3.43607 0.642148 0.0875903 0.313727 0.0664192 0.00641471 0.000400961 0.00114149
threshold=116.25000000000001 0.055760000000000011 0.049230000000000003 0.092575000000000018 0.037415000000000004 23.23 552.05000000000007 82.700000000000003 0.091335000000000013 0.072230000000000003 0.11440000000000002
decision_type=2 2 2 2 2 2 2 2 2 2 2
left_child=2 -2 4 -4 5 6 8 -7 9 10 -1
right_child=1 -3 3 -5 -6 7 -8 -9 -10 -11 -12
leaf_value=0.013984461282763939 -0.081622835907234792 -0.20000000000000001 0.025084882848847231 -0.04465494811595265 0.031318079450802339 0.014045858141138116 0.0016156504264972045 0.021689875769048864 0.016145930494437792 0.013916907033631801 0.014940599029872423
leaf_weight=33.080968856811523 4.7721453607082394 12.837802514433859 14.57590724527836 13.7097982019186 23.178239524364471 26.064583301544189 22.683290213346481 20.158517479896545 20.068514466285706 37.090020775794983 20.056279182434082
leaf_count=33 12 88 16 29 23 26 25 20 20 37 20
internal_value=0 -0.167921 0.0126667 -0.00871731 0.0156555 0.0136296 0.0123262 0.0173795 0.0145289 0.0141692 0.0143453
internal_weight=0 17.6099 230.666 28.2857 202.38 179.202 132.979 46.2231 110.296 90.2273 53.1372
internal_count=349 100 249 45 204 181 135 46 110 90 53
is_linear=0
shrinkage=0.1


Tree=12
num_leaves=12
num_cat=0
split_feature=10 14 13 1 2 14 6 5 13 8 12
split_gain=46.8359 7.30127 1.19528 0.481672 0.337914 0.055773 0.00124709 0.00398841 0.00084191 9.01532e-05 0.000114235
threshold=116.25000000000001 0.12115000000000002 0.33465000000000006 91.040000000000006 560.10000000000014 0.099515000000000006 0.37195000000000006 0.028400000000000005 0.17545000000000002 20.045000000000005 0.13285000000000002
decision_type=2 2 2 2 2 2 2 2 2 2 2
left_child=2 -2 3 4 5 6 7 8 9 10 -1
right_child=1 -3 -4 -5 -6 -7 -8 -9 -10 -11 -12
leaf_value=0.012607718447313055 -0.039849946558610683 -0.20000000000000001 -0.01011180176182312 0.025671531862393654 8.0759466594740605e-05 0.017896725626329098 0.013393765980989198 0.011258593140431136 0.013388683259736765 0.012481872695574513 0.012913944870677966
leaf_weight=31.061781287193298 3.6743345260620144 12.638403810560702 23.203506633639336 29.430584907531738 21.419619679450989 24.112103939056396 20.046369194984436 20.032708406448364 20.045372009277344 21.041094064712524 20.041903376579285
leaf_count=31 7 93 37 32 24 24 20 20 20 21 20
internal_value=0 -0.163927 0.0114117 0.0138216 0.0118601 0.0134736 0.0126673 0.0125375 0.0128154 0.0126561 0.0127278
internal_weight=0 16.3127 230.435 207.232 177.801 156.381 132.269 112.223 92.1902 72.1448 51.1037
internal_count=349 100 249 212 180 156 132 112 92 72 51
is_linear=0
shrinkage=0.1


Tree=13
num_leaves=12
num_cat=0
split_feature=11 14 5 13 14 0 14 7 14 13 3
split_gain=35.3421 14.6585 1.72372 3.41525 0.619558 0.0562756 0.0356793 0.00205566 0.00122636 0.000926084 7.19271e-05
threshold=930.75000000000011 0.11575000000000002 0.049230000000000003 0.26490000000000008 0.11415000000000002 13.630000000000001 0.091795000000000015 1.6850000000000003 0.069645000000000026 0.13545000000000004 0.059925000000000006
decision_type=2 2 2 2 2 2 2 2 2 2 2
left_child=2 -2 4 -4 5 6 7 9 10 -1 -9
right_child=1 -3 3 -5 -6 -7 -8 8 -10 -11 -12
leaf_value=0.011587576398811961 -0.0026688519173513297 -0.20000000000000001 0.019103311391772983 -0.050143613107059171 0.029179648024605927 0.016071315836370687 0.0070904316890946064 0.01125911948886453 0.010461731967482159 0.012383734761293036 0.011496853855630207
leaf_weight=35.059115648269653 5.5066737234592464 11.897974304854868 15.533851593732836 13.153012230992315 22.552379161119461 24.089548349380493 21.458680182695389 24.038145661354065 20.028109312057495 25.04833722114563 27.044792771339417
leaf_count=35 8 92 16 33 23 24 22 24 20 25 27
internal_value=0 -0.137566 0.0102722 -0.0126466 0.0135708 0.0115794 0.0108707 0.0114888 0.011125 0.0119194 0.011385
internal_weight=0 17.4046 228.006 28.6869 199.319 176.767 152.677 131.219 71.111 60.1075 51.0829
internal_count=349 100 249 49 200 177 153 131 71 60 51
is_linear=0
shrinkage=0.1


Tree=14
num_leaves=12
num_cat=0
split_feature=11 4 5 4 14 0 14 7 14 12 13
split_gain=29.0567 17.9569 0.997109 2.63423 0.624544 0.0457293 0.0306445 0.00166789 0.000994869 0.000753769 6.32126e-05
threshold=888.50000000000011 0.065925000000000025 0.049230000000000003 0.092575000000000018 0.11275000000000002 13.630000000000001 0.091795000000000015 1.6850000000000003 0.069645000000000026 0.15625000000000003 0.055235000000000006
decision_type=2 2 2 2 2 2 2 2 2 2 2
left_child=2 -2 4 -4 5 6 7 9 10 -1 -9
right_child=1 -3 3 -5 -6 -7 -8 8 -10 -11 -12
leaf_value=0.010399910130527625 -0.004297406439950446 -0.20000000000000001 0.021759060551628621 -0.039570147284966703 0.028649632768363943 0.014473564465847974 0.0061819413738841839 0.01011129965776016 0.0094181451086605694 0.011109851829694489 0.010339180604933995
leaf_weight=32.043570876121521 8.0626555383205432 11.203543454408644 14.542162716388704 13.51003712415695 21.056906968355179 24.074770927429199 20.45474436879158 20.025630354881287 20.022903561592102 28.043579578399658 31.041580319404602
leaf_count=32 12 95 16 29 21 24 21 20 20 28 31
internal_value=0 -0.118101 0.0098606 -0.0077773 0.0123752 0.0104248 0.00978203 0.0103434 0.0100156 0.0107313 0.0102498
internal_weight=0 19.2662 224.816 28.0522 196.764 175.707 151.632 131.177 71.0901 60.0872 51.0672
internal_count=349 107 242 45 197 176 152 131 71 60 51
is_linear=0
shrinkage=0.1


Tree=15
num_leaves=14
num_cat=0
split_feature=11 4 5 13 14 2 14 6 12 6 5 13 5
split_gain=22.7879 16.7359 1.24661 2.80058 0.3692 0.0517213 0.0273985 0.0011415 0.00167163 0.000634094 0.000423527 6.94944e-05 7.10543e-15
threshold=888.50000000000011 0.071150000000000005 0.049230000000000003 0.22305000000000003 0.11275000000000002 589.45000000000016 0.091795000000000015 0.23445000000000002 0.15625000000000003 0.37765000000000004 0.023115000000000004 0.087680000000000022 0.094575000000000006
decision_type=2 2 2 2 2 2 2 2 2 2 2 2 2
left_child=2 -2 4 -4 5 6 7 8 -1 10 11 -9 -3
right_child=1 12 3 -5 -6 -7 -8 9 -10 -11 -12 -13 -14
leaf_value=0.0093502900815030082 -0.0038678446691929689 -0.20000000000000007 0.02189283347283422 -0.045152952547055043 0.023801136304778953 0.014437154770836428 0.0057290382877944841 0.0092116951712098525 0.010380007599544945 0.0097785517151729451 0.0087750966376933474 0.0094606543341452329 -0.19999999999999996
leaf_weight=31.034137487411499 8.0623019337654132 5.8399557396769506 12.095748901367189 12.847935006022452 20.345975399017334 20.068208932876587 21.453929662704468 24.025500297546387 32.043650269508362 22.026592016220093 20.019749999046326 21.023626446723938 3.6102560237050056
leaf_count=31 12 51 12 30 20 20 22 24 32 22 20 21 38
internal_value=0 -0.109706 0.00850539 -0.012641 0.010993 0.00963354 0.00907186 0.00954942 0.00987339 0.00931479 0.00915781 0.00932788 -0.2
internal_weight=0 17.5125 236.985 24.9437 212.041 191.695 171.627 150.173 63.0778 87.0955 65.0689 45.0491 9.45021
internal_count=355 101 254 42 212 192 172 150 63 87 65 45 89
is_linear=0
shrinkage=0.1


Tree=16
num_leaves=11
num_cat=0
split_feature=9 4 5 12 0 14 10 3 12 3
split_gain=17.4822 19.684 0.858261 0.29598 0.0441831 0.0308753 0.000822754 0.00151327 0.00023137 4.60646e-05
threshold=16.850000000000005 0.071150000000000005 0.049230000000000003 0.29325000000000007 13.835000000000003 0.091795000000000015 84.640000000000015 0.073255000000000015 0.16210000000000005 0.059570000000000005
decision_type=2 2 2 2 2 2 2 2 2 2
left_child=2 -2 3 4 5 6 8 -8 9 -1
right_child=1 -3 -4 -5 -6 -7 7 -9 -10 -11
leaf_value=0.008214415274306967 0.0038199687675446398 -0.20000000000000001 -0.010360282931290977 0.021274500490209507 0.012896051884090884 0.0047522734662363963 0.0092876093555960496 0.0082753508270737141 0.0086453482523576857 0.0083970606744163869
leaf_weight=37.031249284744263 10.089702427387239 8.9336508437991125 23.469069585204124 20.310782551765442 21.05973482131958 24.451644778251648 36.039451837539673 25.022156357765198 25.023474454879761 22.019471168518066
leaf_count=37 14 91 39 20 21 25 36 25 25 22
internal_value=0 -0.0918969 0.00778049 0.00979865 0.00857606 0.00803959 0.00859342 0.0088728 0.00839051 0.00828252
internal_weight=0 19.0234 234.427 210.958 190.647 169.587 145.136 61.0616 84.0742 59.0507
internal_count=355 105 250 211 191 170 145 61 84 59
is_linear=0
shrinkage=0.1


Tree=17
num_leaves=12
num_cat=0
split_feature=9 4 5 12 2 0 13 3 13 8 3
split_gain=14.9204 18.5739 0.695403 0.240356 0.0360954 0.0239169 0.00259847 0.0009665 0.000361056 0.000238071 5.83229e-06
threshold=16.850000000000005 0.071150000000000005 0.049230000000000003 0.29325000000000007 589.45000000000016 13.185 0.19285000000000005 0.088165000000000007 0.13790000000000002 24.195000000000004 0.054290000000000012
decision_type=2 2 2 2 2 2 2 2 2 2 2
left_child=2 -2 3 4 5 6 7 8 9 10 -1
right_child=1 -3 -4 -5 -6 -7 -8 -9 -10 -11 -12
leaf_value=0.0073900240857207276 0.0034380962305288324 -0.20000000000000001 -0.0093267670379562836 0.019168819285522731 0.011733530140381497 0.0040396659648238168 0.0085730857272264677 0.006872633263707871 0.0079760011992732732 0.007817417441691548 0.0074524969446724213
leaf_weight=32.02186918258667 10.089352786540987 8.0835018306970579 23.463086940348148 20.288949489593506 20.050359129905701 20.447711139917374 27.026481032371521 21.012883901596069 22.017779469490051 20.01548159122467 28.019470572471619
leaf_count=32 14 91 39 20 20 21 27 21 22 20 28
internal_value=0 -0.0870536 0.00700448 0.00882136 0.00771996 0.00724815 0.00768519 0.00749024 0.00761738 0.00751874 0.00741918
internal_weight=0 18.1729 234.364 210.901 190.612 170.562 150.114 123.087 102.075 80.0568 60.0413
internal_count=355 105 250 211 191 171 150 123 102 80 60
is_linear=0
shrinkage=0.1


Tree=18
num_leaves=13
num_cat=0
split_feature=9 4 5 12 0 14 9 12 1 8 12 0
split_gain=12.7077 17.4898 0.563415 0.195092 0.0307205 0.0246215 0.000656828 0.000593307 0.000275986 0.000226811 5.73775e-05 3.55271e-15
threshold=16.850000000000005 0.071150000000000005 0.049230000000000003 0.29325000000000007 13.655000000000003 0.091795000000000015 13.885000000000003 0.18895000000000003 77.810000000000016 23.125000000000004 0.13590000000000002 18.235000000000003
decision_type=2 2 2 2 2 2 2 2 2 2 2 2
left_child=2 -2 3 4 5 6 7 8 9 10 -1 -3
right_child=1 11 -4 -5 -6 -7 -8 -9 -10 -11 -12 -13
leaf_value=0.0066702312212201451 0.0030943790325288359 -0.20000000000000001 -0.0083959235797586695 0.017267857663395902 0.010290158078928344 0.003535303736261289 0.00746000537584248 0.0073324755914210881 0.006436750728831573 0.0071336199538800729 0.0068824955538108919 -0.19999999999999996
leaf_weight=35.019485116004944 10.089069440960886 3.9153115674853316 23.458239406347275 20.271243453025818 24.047823429107666 24.447786003351212 23.016759634017944 23.01572859287262 20.010525703430176 21.013539791107178 20.011884212493896 3.3989432379603386
leaf_count=35 14 45 39 20 24 25 23 23 20 21 20 46
internal_value=0 -0.082262 0.00630552 0.0079411 0.00694907 0.00646662 0.00697098 0.00687645 0.00676719 0.00685414 0.00674742 -0.2
internal_weight=0 17.4033 234.313 210.855 190.584 166.536 142.088 119.071 96.0554 76.0449 55.0314 7.31425
internal_count=355 105 250 211 191 167 142 119 96 76 55 91
is_linear=0
shrinkage=0.1


Tree=19
num_leaves=12
num_cat=0
split_feature=9 4 14 9 8 14 6 9 14 9 3
split_gain=10.8006 16.4344 0.489324 2.47092 0.201531 0.0169044 0.00326968 0.00598342 0.00204967 0.000740273 0.000113994
threshold=16.850000000000005 0.071150000000000005 0.111 14.875000000000002 33.695000000000007 0.094525000000000012 0.22990000000000002 13.885000000000003 0.076285000000000006 12.06 0.065090000000000023
decision_type=2 2 2 2 2 2 2 2 2 2 2
left_child=2 -2 4 -4 5 6 7 9 10 -1 -8
right_child=1 -3 3 -5 -6 -7 8 -9 -10 -11 -12
leaf_value=0.0055774215401418227 0.0027850090115569964 -0.20000000000000001 0.018027665843154888 -0.037268300879661799 0.017016326827022043 0.0091375413950894116 0.0058751164343728794 0.0080999125307629552 0.0048654840821641017 0.0063738097580421597 0.0061297195286965523
leaf_weight=20.008052825927734 10.088840007781984 6.618211403489112 18.906948521733284 14.113455757498739 20.141900420188904 21.029040575027466 39.017102956771851 20.017951965332031 21.007495522499084 28.014472484588623 32.015096187591553
leaf_count=20 14 91 20 29 20 21 39 20 21 28 32
internal_value=0 -0.0775448 0.00567606 -0.00560673 0.00752729 0.00647198 0.00612181 0.00664745 0.00573324 0.006042 0.00598987
internal_weight=0 16.7071 234.272 33.0204 201.251 181.109 160.08 68.0405 92.0397 48.0225 71.0322
internal_count=355 105 250 49 201 181 160 68 92 48 71
is_linear=0
shrinkage=0.1


Tree=20
num_leaves=11
num_cat=0
split_feature=9 4 0 9 5 12 13 14 8 4
split_gain=12.0267 16.6013 0.432088 1.09338 0.58759 0.0116072 0.00197244 0.000219429 4.30672e-05 5.95662e-05
threshold=16.765000000000004 0.068860000000000018 14.405000000000003 14.975000000000003 0.039275000000000004 0.25190000000000007 0.18105000000000002 0.066800000000000012 23.23 0.012795000000000003
decision_type=2 2 2 2 2 2 2 2 2 2
left_child=2 -2 3 4 5 6 7 8 9 -1
right_child=1 -3 -4 -5 -6 -7 -8 -9 -10 -11
leaf_value=0.0055917858216005673 -0.0042824365068766862 -0.20000000000000001 0.020150254666602464 -0.015617889960360957 0.021800071634506944 0.003098747616219331 0.0065725655205302507 0.0057406485827285487 0.0053040873105034397 0.0053860614585647835
leaf_weight=24.009547591209412 11.596108034253122 6.9203387647867194 20.937521427869797 22.683865636587143 25.331337124109268 20.006258845329285 21.012242317199707 31.013165712356567 21.007440686225891 34.012352824211121
leaf_count=24 17 98 24 32 27 20 21 31 21 34
internal_value=0 -0.0774299 0.0064853 0.00504811 0.00770574 0.00534227 0.00568476 0.00551523 0.00542677 0.00547119
internal_weight=0 18.5164 220.014 199.076 176.392 151.061 131.055 110.043 79.0293 58.0219
internal_count=349 115 234 210 178 151 131 110 79 58
is_linear=0
shrinkage=0.1


Tree=21
num_leaves=14
num_cat=0
split_feature=9 4 3 3 12 14 2 7 14 3 9 1 3
split_gain=10.1707 15.6434 0.360494 0.142786 0.341209 0.193813 0.00695395 0.000731555 0.000197802 0.000500062 3.90774e-05 3.55271e-15 1.77636e-15
threshold=16.765000000000004 0.068860000000000018 0.12905000000000003 0.11125000000000002 0.24730000000000005 0.094525000000000012 562.55000000000007 2.4940000000000002 0.057475000000000005 0.073255000000000015 11.965000000000002 118.55000000000003 0.15420000000000003
decision_type=2 2 2 2 2 2 2 2 2 2 2 2 2
left_child=2 -2 3 4 5 6 7 8 10 -10 -1 -3 -13
right_child=1 11 -4 -5 -6 -7 -8 -9 9 -11 -12 12 -14
leaf_value=0.0049410068979702576 -0.0038543701065615922 -0.20000000000000001 0.01787679669260659 -0.0032259269442446469 0.017456875778754832 -0.0050472116631069749 0.0067973126099223199 0.0043400057745886277 0.0054442319524744404 0.0047965483815104069 0.0047499095494345509 -0.19999999999999982 -0.1999999999999999
leaf_weight=23.007025480270386 11.595603026449682 3.3987032063305369 22.349115520715714 21.450202807784081 20.758863121271133 21.329777628183365 23.019195318222046 20.005253434181213 26.009808540344238 22.006345748901367 20.005651712417603 1.3849939256906512 1.4780844114720819
leaf_count=23 17 44 30 25 21 24 23 20 26 22 20 26 28
internal_value=0 -0.0726338 0.0058389 0.00447733 0.00541541 0.0038067 0.00521548 0.00488754 0.00500787 0.00514739 0.00485213 -0.2 -0.2
internal_weight=0 17.8574 219.941 197.592 176.142 155.383 134.053 111.034 91.0288 48.0162 43.0127 6.26178 2.86308
internal_count=349 115 234 204 179 158 134 111 91 48 43 98 54
is_linear=0
shrinkage=0.1


Tree=22
num_leaves=12
num_cat=0
split_feature=9 4 0 9 5 12 13 14 13 12 0
split_gain=8.58415 14.7008 0.341084 0.886891 0.47039 0.0182094 0.00286832 0.000381928 0.000123283 4.38958e-05 3.55271e-15
threshold=16.765000000000004 0.068860000000000018 14.405000000000003 14.975000000000003 0.039275000000000004 0.25190000000000007 0.18105000000000002 0.066800000000000012 0.093985000000000013 0.096885000000000013 18.910000000000004
decision_type=2 2 2 2 2 2 2 2 2 2 2
left_child=2 -2 3 4 5 6 7 8 9 -1 -3
right_child=1 10 -4 -5 -6 -7 -8 -9 -10 -11 -12
leaf_value=0.0043715303863648232 -0.0034690630165603309 -0.20000000000000001 0.017410893156297302 -0.014634975390515909 0.018997963382683038 0.0014507386625212566 0.0057605906565473021 0.0047828858863391398 0.0041677045970593051 0.0045492483614403591 -0.19999999999999993
leaf_weight=33.008018851280212 11.595193885266783 3.5797536894679061 20.893604069948196 22.677690401673317 25.284622207283974 20.004509449005127 21.009718179702759 31.009268879890442 22.00485372543335 24.006283760070801 2.0861405171453953
leaf_count=33 17 55 24 32 27 20 21 31 22 24 43
internal_value=0 -0.0679797 0.00525617 0.00398004 0.00637415 0.00426091 0.00468992 0.00448547 0.00436876 0.00444636 -0.2
internal_weight=0 17.2611 219.899 199.005 176.327 151.043 131.038 110.028 79.0192 57.0143 5.66589
internal_count=349 115 234 210 178 151 131 110 79 57 98
is_linear=0
shrinkage=0.1


Tree=23
num_leaves=12
num_cat=0
split_feature=9 4 0 9 5 12 13 14 13 13 0
split_gain=7.23111 13.7791 0.276602 0.718663 0.381613 0.0147518 0.00232409 0.000309442 9.98831e-05 3.57803e-05 3.55271e-15
threshold=16.765000000000004 0.068860000000000018 14.405000000000003 14.975000000000003 0.039275000000000004 0.25190000000000007 0.18105000000000002 0.066800000000000012 0.093985000000000013 0.055235000000000006 19.540000000000003
decision_type=2 2 2 2 2 2 2 2 2 2 2
left_child=2 -2 3 4 5 6 7 8 9 -1 -3
right_child=1 10 -4 -5 -6 -7 -8 -9 -10 -11 -12
leaf_value=0.0039436775844774999 -0.0031222509272497284 -0.20000000000000001 0.015681731574591382 -0.013178560529197914 0.017113665173921606 0.0013056716932971176 0.0051849632151572114 0.0043048443648102891 0.003751097707124171 0.0041096738809616685 -0.19999999999999987
leaf_weight=37.007342457771301 11.594862475991251 3.7257186844944945 20.878561615943909 22.666154459118843 25.262948095798492 20.004409551620483 21.008062601089478 31.007584452629089 22.00394594669342 20.004282116889954 1.4009943716228006
leaf_count=37 17 66 24 32 27 20 21 31 22 20 32
internal_value=0 -0.0634835 0.00473187 0.00358283 0.00573779 0.00383501 0.00422116 0.00403713 0.00393207 0.00400192 -0.2
internal_weight=0 16.7216 219.843 198.965 176.299 151.036 131.031 110.023 79.0156 57.0116 5.12671
internal_count=349 115 234 210 178 151 131 110 79 57 98
is_linear=0
shrinkage=0.1


Tree=24
num_leaves=12
num_cat=0
split_feature=9 4 13 12 13 9 4 14 10 12 0
split_gain=6.07988 12.8832 0.26907 0.672983 0.0932362 0.0379128 0.00142999 0.000177655 0.00012083 2.90073e-05 3.55271e-15
threshold=16.765000000000004 0.068860000000000018 0.33045000000000008 0.26535000000000003 0.18940000000000004 14.525000000000002 0.040560000000000006 0.07234500000000002 84.640000000000015 0.10795000000000002 18.640000000000004
decision_type=2 2 2 2 2 2 2 2 2 2 2
left_child=2 -2 3 4 5 6 7 8 9 -1 -3
right_child=1 10 -4 -5 -6 -7 -8 -9 -10 -11 -12
leaf_value=0.0035196655251215625 -0.0028100944124217625 -0.20000000000000001 -0.0058411700903611627 0.021463672155825245 -0.0021946093928849053 0.0071738493642219715 0.0026387775131886532 0.0038352429845031032 0.0032895023732974825 0.0036731730161842038 -0.19999999999999993
leaf_weight=32.004958868026733 11.594594255089762 2.8532405570149413 23.547247067093849 23.203222945332527 25.986172467470169 35.040508627891541 20.006360173225403 20.003847599029541 20.002775430679321 20.003389954566956 1.7856013067066667
leaf_count=32 17 53 35 24 28 35 20 20 20 20 45
internal_value=0 -0.0591588 0.00425964 0.00547159 0.00332728 0.00430301 0.00340501 0.00357161 0.00349837 0.00357871 -0.2
internal_weight=0 16.2334 219.798 196.251 173.048 147.062 112.021 92.015 72.0111 52.0083 4.63884
internal_count=349 115 234 199 175 147 112 92 72 52 98
is_linear=0
shrinkage=0.1


Tree=25
num_leaves=13
num_cat=0
split_feature=5 14 3 13 3 10 14 3 9 3 13 0
split_gain=5.00764 15.8098 0.280831 0.603953 1.10891 0.29167 0.203237 0.00281628 0.00146721 0.000137102 3.78902e-05 3.55271e-15
threshold=0.055760000000000011 0.14655000000000004 0.10895000000000001 0.20795000000000002 0.076930000000000012 98.135000000000005 0.098275000000000015 0.080635000000000012 13.950000000000001 0.061180000000000005 0.071570000000000009 16.245000000000001
decision_type=2 2 2 2 2 2 2 2 2 2 2 2
left_child=2 -2 3 5 -5 7 -4 8 9 10 -1 -3
right_child=1 11 6 4 -6 -7 -8 -9 -10 -11 -12 -13
leaf_value=0.0032522693764188712 0.010076067439840367 -0.20000000000000001 0.0033934340650101434 -0.037039759286556881 0.00081595588544070518 0.015893102918366275 0.018116042505579671 0.0021588795557486102 0.0042234404651100132 0.0034388485783256335 0.003087145048374458 -0.19999999999999993
leaf_weight=33.004392623901367 12.052391514182093 2.9709674082696429 17.003674149513245 10.303193084895609 31.081825211644173 21.226832509040833 20.902648076415062 20.002834916114807 20.005323052406311 33.005066633224487 24.002896308898926 2.1266191452741623
leaf_count=33 19 33 17 16 34 21 23 20 20 33 24 62
internal_value=0 -0.052366 0.003644 0.00209574 -0.00860858 0.00502471 0.0115119 0.00325036 0.00344881 0.00327665 0.00318274 -0.2
internal_weight=0 17.15 230.539 192.632 41.385 151.247 37.9063 130.021 110.018 90.0124 57.0073 5.09759
internal_count=355 114 241 201 50 151 40 130 110 90 57 95
is_linear=0
shrinkage=0.1


Tree=26
num_leaves=12
num_cat=0
split_feature=5 14 11 13 14 10 4 13 6 3 0
split_gain=4.21556 14.5802 0.281868 0.990858 0.279578 0.0109174 0.00532199 0.00658234 0.00037359 0.000162537 3.55271e-15
threshold=0.055760000000000011 0.14655000000000004 739.85000000000002 0.19285000000000005 0.111 91.960000000000022 0.062650000000000011 0.17545000000000002 0.22485000000000002 0.061180000000000005 19.175000000000004
decision_type=2 2 2 2 2 2 2 2 2 2 2
left_child=2 -2 4 -4 5 6 7 8 -1 -10 -3
right_child=1 10 3 -5 -6 -7 -8 -9 9 -11 -12
leaf_value=0.0026261273602760085 0.0090707713356747693 -0.20000000000000001 0.017880332550776624 -0.019638970761540728 0.015478759768806008 0.004906357580008007 0.0015277708640957805 0.0048755626753106381 0.0028825823474295624 0.0031969997723960289 -0.19999999999999984
leaf_weight=35.003425240516663 12.049485422670843 3.5795802548527709 11.185457825660707 18.987308397889137 21.262845516204834 36.013664722442627 22.004267454147339 20.007441163063049 35.003704905509949 31.004087805747986 1.0329067800194023
leaf_count=35 19 62 11 30 21 36 22 20 35 31 33
internal_value=0 -0.0488057 0.00328038 -0.00573005 0.0046377 0.00335018 0.00295833 0.00321845 0.00289022 0.00303027 -0.2
internal_weight=0 16.662 230.472 30.1728 200.299 179.037 143.023 121.019 101.011 66.0078 4.61249
internal_count=355 114 241 41 200 179 143 121 101 66 95
is_linear=0
shrinkage=0.1


Tree=27
num_leaves=14
num_cat=0
split_feature=5 14 11 0 14 9 4 4 4 6 7 3 0
split_gain=3.54229 13.4319 0.228393 0.822928 0.226686 0.00887942 0.00409783 0.00384455 0.00188774 0.000250982 0.000229281 0.00013797 3.55271e-15
threshold=0.055760000000000011 0.14655000000000004 739.85000000000002 14.750000000000002 0.111 13.885000000000003 0.062650000000000011 0.040705000000000005 0.035185000000000008 0.24355000000000002 1.2835000000000003 0.061180000000000005 18.235000000000003
decision_type=2 2 2 2 2 2 2 2 2 2 2 2 2
left_child=2 -2 4 -4 5 6 7 9 -7 10 -1 -11 -3
right_child=1 12 3 -5 -6 8 -8 -9 -10 11 -12 -13 -14
leaf_value=0.0026225804688489018 0.0081653798833436503 -0.20000000000000001 -0.023648570560538901 0.0096040574183885018 0.013939263987848137 0.0035839834222796199 0.0013750018104886136 0.0040875954769886945 0.0049261438952384294 0.0026084356650958457 0.0021683380188410703 0.0029498277374985261 -0.19999999999999984
leaf_weight=25.002191424369812 12.047130636870863 2.9623721595853558 13.386742331087591 16.760137766599655 21.250746011734009 20.004140496253967 22.004145264625549 21.005697011947632 22.008711338043213 29.002524256706238 20.001562476158142 20.002290964126587 1.2111787237226961
leaf_count=25 19 52 21 20 21 20 22 21 22 29 20 20 43
internal_value=0 -0.0453952 0.0029529 -0.00516179 0.00417434 0.00301526 0.00262529 0.00286449 0.00428708 0.0025912 0.0024207 0.00274778 -0.2
internal_weight=0 16.2207 230.429 30.1469 200.282 179.031 137.018 115.014 42.0129 94.0086 45.0038 49.0048 4.17355
internal_count=355 114 241 41 200 179 137 115 42 94 45 49 95
is_linear=0
shrinkage=0.1


Tree=28
num_leaves=14
num_cat=0
split_feature=5 14 3 13 3 9 14 3 13 7 7 4 0
split_gain=2.97132 12.3609 0.212303 0.454153 0.865342 0.232988 0.141987 0.00345132 0.000991988 0.00014758 9.78134e-05 2.3962e-05 1.77636e-15
threshold=0.055760000000000011 0.14655000000000004 0.10895000000000001 0.20795000000000002 0.076930000000000012 15.020000000000001 0.098275000000000015 0.080635000000000012 0.13080000000000003 1.3545000000000003 1.7385000000000004 0.016545000000000004 19.175000000000004
decision_type=2 2 2 2 2 2 2 2 2 2 2 2 2
left_child=2 -2 3 5 -5 7 -4 8 9 -1 -11 -12 -3
right_child=1 12 6 4 -6 -7 -8 -9 -10 10 11 -13 -14
leaf_value=0.0021020237156824163 0.0073500709866047495 -0.19999999999999998 0.0027203994110182659 -0.033188180408795169 0.00032889705165118298 0.013569999844822021 0.015032098398043744 0.0010569504970732399 0.0030246770214978035 0.0025805632807524119 0.0023891607248303897 0.002236223306563331 -0.19999999999999982
leaf_weight=23.001318454742432 12.045223094522951 2.9307124279439445 17.002671241760254 10.24185800924897 31.072884574532509 21.204518914222717 20.859202481806278 20.002346992492676 26.00387179851532 20.001810312271118 20.001460433006287 21.001361846923828 0.84567255713045586
leaf_count=23 19 62 17 16 34 21 23 20 26 20 20 21 33
internal_value=0 -0.0421413 0.00265797 0.00131182 -0.00797993 0.00385047 0.00950327 0.00226525 0.00248495 0.00231788 0.00239927 0.00231083 -0.2
internal_weight=0 15.8216 230.393 192.531 41.3147 151.217 37.8619 130.012 110.01 84.006 61.0046 41.0028 3.77638
internal_count=355 114 241 201 50 151 40 130 110 84 61 41 95
is_linear=0
shrinkage=0.1


Tree=29
num_leaves=14
num_cat=0
split_feature=5 14 0 11 0 13 9 5 13 12 13 5 0
split_gain=2.4882 8.84113 4.95649 0.190801 0.67331 0.188806 0.0120054 0.0119891 0.00365933 0.000102017 7.01682e-05 3.43478e-05 1.77636e-15
threshold=0.055760000000000011 0.14235000000000003 10.890000000000002 739.85000000000002 14.660000000000002 0.30975000000000003 14.250000000000002 0.030630000000000001 0.17665000000000003 0.15625000000000003 0.085770000000000013 0.011860000000000001 16.405000000000005
decision_type=2 2 2 2 2 2 2 2 2 2 2 2 2
left_child=3 -2 -3 5 -5 6 7 8 9 10 11 -1 -4
right_child=1 2 12 4 -6 -7 -8 -9 -10 -11 -12 -13 -14
leaf_value=0.0020561084004912188 0.012978299053520584 0.046550486528373604 -0.1999999999999999 -0.02300148700290202 0.007421770909864827 0.011985056835207564 0.0040544660342448635 -0.00021820973414116995 0.0036054359270337715 0.0022797059944859423 0.001901026008140434 0.0022241922246371043 -0.1999999999999999
leaf_weight=31.001662969589233 10.493571601808069 1.028239607810973 2.3979494217783217 12.316587366163732 17.769851993769407 23.227172613143921 35.011637926101685 21.006810784339905 20.006090998649597 30.002029776573181 20.000934362411499 20.001262903213501 1.5409313105046747
leaf_count=31 15 1 35 19 22 23 35 21 20 30 20 20 63
internal_value=0 -0.0390489 -0.148962 0.00239255 -0.0050327 0.00350812 0.0023959 0.00198702 0.00236983 0.0021251 0.00205977 0.00212202 -0.2
internal_weight=0 15.4607 4.96712 230.344 30.0864 200.258 177.03 142.019 121.012 101.006 71.0039 51.0029 3.93888
internal_count=355 114 99 241 41 200 177 142 121 101 71 51 98
is_linear=0
shrinkage=0.1


Tree=30
num_leaves=14
num_cat=0
split_feature=9 13 14 10 10 4 5 13 10 10 3 12 0
split_gain=2.82783 6.55173 6.83562 0.610182 0.294227 0.0700048 0.0169242 0.00450804 0.000301952 0.000150977 3.83977e-05 1.42147e-05 1.77636e-15
threshold=16.765000000000004 0.22305000000000003 0.11575000000000002 104.35000000000001 98.135000000000005 0.078800000000000023 0.031045000000000003 0.18430000000000002 91.370000000000019 86.100000000000009 0.065090000000000023 0.084340000000000012 19.635000000000002
decision_type=2 2 2 2 2 2 2 2 2 2 2 2 2
left_child=3 -2 -3 4 5 6 7 8 9 10 11 -1 -4
right_child=1 2 12 -5 -6 -7 -8 -9 -10 -11 -12 -13 -14
leaf_value=0.0019088359995023956 0.03015014276114953 -0.012858152770544348 -0.19999999999999993 0.019241983864521521 -0.0099382343464626613 0.007545182538334385 -0.00072189206085068009 0.0035494237204759041 0.002267496960427327 0.0015955980820098793 0.0020006699571125993 0.0017923542340261029 -0.19999999999999976
leaf_weight=20.000911712646484 6.650038465857504 3.9679271876811981 3.1437375564128165 20.610921993851662 21.306794218719006 23.807382434606552 24.008418917655945 20.00755500793457 20.002020359039307 20.000726699829102 27.001387000083923 22.000891804695129 0.69759881123900402
leaf_count=20 8 6 70 30 25 26 24 20 20 20 27 22 31
internal_value=0 -0.0427951 -0.104912 0.00286659 0.00116316 0.0025008 0.00171599 0.00216966 0.00191641 0.00183751 0.00190763 0.00184782 -0.2
internal_weight=0 14.4593 7.80926 218.747 198.136 176.829 153.022 129.013 109.006 89.0039 69.0032 42.0018 3.84134
internal_count=349 115 107 234 204 179 153 129 109 89 69 42 101
is_linear=0
shrinkage=0.1


Tree=31
num_leaves=13
num_cat=0
split_feature=5 14 0 14 14 5 14 13 7 9 14 0
split_gain=1.94258 7.76143 4.60155 0.492243 0.304801 0.151586 0.0637989 0.0068865 0.00379005 0.00483189 8.67566e-05 1.77636e-15
threshold=0.055760000000000011 0.14235000000000003 10.890000000000002 0.12195000000000002 0.1072 0.031545000000000011 0.083645000000000011 0.17545000000000002 1.6210000000000002 14.195000000000002 0.047760000000000004 16.150000000000002
decision_type=2 2 2 2 2 2 2 2 2 2 2 2
left_child=3 -2 -3 4 5 6 7 8 -1 10 -10 -4
right_child=1 2 11 -5 -6 -7 -8 -9 9 -11 -12 -13
leaf_value=0.00093867693836630734 0.009734377523161376 0.0414028253583422 -0.19999999999999987 0.017319932278118302 -0.010265104159958856 0.010076805065520894 -0.0039333640113763252 0.0037485312439341821 0.0017902392731994447 0.0034838488225828338 0.0015343143208871313 -0.19999999999999987
leaf_weight=39.004455089569092 11.591788336634638 1.0221416950225819 2.0241475105285649 20.323796190321445 21.497288644313812 22.185575366020203 20.683184772729874 20.010065317153931 26.001066327095032 20.005508184432983 27.000907301902771 1.4469873569905756
leaf_count=39 14 1 30 29 26 22 22 20 26 20 27 73
internal_value=0 -0.0335136 -0.145085 0.00250486 0.00097168 0.00235289 0.00123073 0.00203976 0.0017345 0.00215967 0.00165986 -0.2
internal_weight=0 16.0851 4.49328 216.712 196.388 174.891 152.705 132.022 112.012 73.0075 53.002 3.47113
internal_count=349 118 104 231 202 176 154 132 112 73 53 103
is_linear=0
shrinkage=0.1


Tree=32
num_leaves=14
num_cat=0
split_feature=9 12 10 12 14 10 1 5 13 10 8 12 0
split_gain=1.7707 4.46967 4.57179 0.430253 0.555554 0.162967 0.0372386 0.0533747 0.00793845 0.000524663 0.000136992 0.000169959 1.77636e-15
threshold=16.485000000000003 0.25585000000000008 112.05000000000001 0.27155000000000001 0.12035000000000001 98.855000000000018 84.230000000000018 0.033375000000000009 0.17665000000000003 86.100000000000009 19.875000000000004 0.10270000000000001 16.875000000000004
decision_type=2 2 2 2 2 2 2 2 2 2 2 2 2
left_child=3 -2 -3 5 -5 6 7 8 9 10 11 -1 -4
right_child=1 2 12 4 -6 -7 -8 -9 -10 -11 -12 -13 -14
leaf_value=0.0015709575528382357 0.00085710787990897475 -0.010192894135568011 -0.19999999999999984 0.00061537006601940789 0.025969235931879969 -0.0076558164109982582 0.005497326414952845 -0.0036622182856936199 0.003705958126323539 0.0011518981479078578 0.0014800760913447348 0.001968675403782 -0.19999999999999984
leaf_weight=21.000650525093079 13.169530315324666 2.4252620488405219 1.6094747167080643 18.05194365978241 16.580469459295273 21.190480686724186 22.025092005729675 20.318651974201202 20.005697965621948 28.000648140907288 25.00072455406189 22.001301646232605 1.0522468481212852
leaf_count=21 31 5 24 18 28 24 22 21 20 28 25 22 60
internal_value=0 -0.0298949 -0.109508 0.00254851 0.0127537 0.000580022 0.00168213 0.00106574 0.00189383 0.00151621 0.00166622 0.00177444 -0.2
internal_weight=0 18.2565 5.08698 214.176 34.6324 179.543 158.353 136.328 116.009 96.0033 68.0027 43.002 2.66172
internal_count=349 120 89 229 46 183 159 137 116 96 68 43 84
is_linear=0
shrinkage=0.1


Tree=33
num_leaves=15
num_cat=0
split_feature=5 14 0 14 14 8 8 5 13 6 0 1 0 12
split_gain=1.62742 6.23971 4.16112 0.81633 0.640409 0.158409 0.0573674 0.0794232 0.0326869 0.00210412 0.00139662 3.04141e-05 3.55271e-15 8.88178e-16
threshold=0.056480000000000009 0.14235000000000003 10.890000000000002 0.12385 0.1072 28.915000000000003 21.945000000000004 0.022750000000000003 0.20795000000000002 0.18535000000000004 12.315000000000003 68.575000000000017 14.865 0.35635000000000006
decision_type=2 2 2 2 2 2 2 2 2 2 2 2 2 2
left_child=3 -2 -3 4 5 6 8 -8 9 -1 11 -11 -4 -14
right_child=1 2 12 -5 -6 -7 7 -9 -10 10 -12 -13 13 -15
leaf_value=0.00072683420795257984 0.010246342732351046 0.034911531988083194 -0.19999999999999984 0.020985409154149277 -0.015893859905327278 0.010454487059818853 0.0020874698967975262 -0.0065471762794272505 0.0057661901398303591 0.0014926299978493479 0.0024236142324839641 0.0013203245813289198 -0.19999999999999979 -0.19999999999999973
leaf_weight=31.002058625221252 9.449388921260832 1.015592455863952 1.4301353525370362 20.642998591065407 22.253414608538151 20.150810956954956 22.00251567363739 20.650966644287109 21.04578959941864 20.000578880310059 20.002627491950989 21.000478625297546 0.73115597851574399 0.76679697912186384
leaf_count=31 10 1 19 29 30 20 22 22 21 20 20 21 38 45
internal_value=0 -0.0338489 -0.139505 0.00206099 8.90658e-05 0.0021116 0.00103189 -0.00209305 0.00221091 0.00139766 0.00173858 0.00140438 -0.2 -0.2
internal_weight=0 13.3931 3.94368 218.752 198.109 175.856 155.705 42.6535 113.052 92.0057 61.0037 41.0011 2.92809 1.49795
internal_count=349 113 103 236 207 177 157 44 113 92 61 41 102 83
is_linear=0
shrinkage=0.1


Tree=34
num_leaves=14
num_cat=0
split_feature=5 14 0 14 14 5 14 10 4 2 9 14 0
split_gain=1.3628 5.56431 3.9269 0.662064 0.51904 0.132998 0.0524301 0.00619888 0.00139641 0.00051181 9.35743e-05 3.97289e-05 1.77636e-15
threshold=0.056480000000000009 0.14235000000000003 10.890000000000002 0.12385 0.1072 0.031545000000000011 0.083645000000000011 96.560000000000016 0.041415000000000007 495.70000000000005 12.860000000000001 0.038995000000000009 17.100000000000005
decision_type=2 2 2 2 2 2 2 2 2 2 2 2 2
left_child=3 -2 -3 4 5 6 7 8 9 10 11 -1 -4
right_child=1 2 12 -5 -6 -7 -8 -9 -10 -11 -12 -13 -14
leaf_value=0.0012118527479106926 0.0092241385391253743 0.031516752415758201 -0.19999999999999984 0.018907761441318546 -0.014313546829026323 0.008959190282621746 -0.0038563523478492437 0.0031369583636050541 0.0019772065911112086 0.00065600824979980283 0.0010669451711117031 0.0014041449421042034 -0.19999999999999984
leaf_weight=21.000397682189941 9.4470327198505384 1.0126525163650506 1.6490091700106861 20.621407266706228 22.240063019096851 23.175430059432983 20.652102142572403 21.013200879096985 22.00354015827179 21.000392198562622 25.000459790229797 22.000570058822632 1.0004347097128627
leaf_count=21 10 1 35 29 30 23 22 21 22 21 25 22 67
internal_value=0 -0.0313394 -0.13598 0.00185534 8.01274e-05 0.00190056 0.000829061 0.00156202 0.00126388 0.00108753 0.00122079 0.00131024 -0.2
internal_weight=0 13.1091 3.6621 218.708 198.086 175.846 152.671 132.019 111.005 89.0018 68.0014 43.001 2.64944
internal_count=349 113 103 236 207 177 154 132 111 89 68 43 102
is_linear=0
shrinkage=0.1


Tree=35
num_leaves=13
num_cat=0
split_feature=5 14 14 5 10 7 14 8 4 8 7 0
split_gain=1.27651 4.29045 4.70877 0.268964 0.0889901 0.00859691 0.0167367 0.00437791 0.00323491 0.00146819 0.000865396 1.77636e-15
threshold=0.049230000000000003 0.14235000000000003 0.14655000000000004 0.038060000000000004 100.05500000000002 1.8985000000000001 0.08593000000000002 15.895000000000001 0.054175000000000008 25.785000000000004 1.1895000000000002 14.660000000000002
decision_type=2 2 2 2 2 2 2 2 2 2 2 2
left_child=3 -2 -3 4 5 6 7 10 9 -7 -1 -4
right_child=1 2 11 -5 -6 8 -8 -9 -10 -11 -12 -13
leaf_value=0.0013890324150722484 -0.001100025913691068 -0.0039026964159662859 -0.19999999999999984 0.012546952363262469 -0.005204635470697232 0.0015692167451069423 0.0047651798914042278 0.002414200209642775 -0.00032415138734459477 0.000520816275887322 0.00052594917110732834 -0.19999999999999984
leaf_weight=21.000701189041138 19.507433298975233 2.3583193011581889 1.426769611425698 21.715230852365494 21.796204969286919 34.001794934272766 20.007879137992859 33.00533664226532 20.002896308898926 22.000327467918396 26.000905871391296 1.1202311310917137
leaf_count=21 26 5 22 23 26 34 20 33 20 22 26 77
internal_value=0 -0.0221222 -0.105723 0.00198248 0.000822772 0.00156913 0.00217836 0.00153146 0.000767454 0.00115735 0.000911582 -0.2
internal_weight=0 24.4128 4.90532 219.531 197.816 176.02 100.015 80.0069 76.005 56.0021 47.0016 2.547
internal_count=355 130 104 225 202 176 100 80 76 56 47 99
is_linear=0
shrinkage=0.1


Tree=36
num_leaves=14
num_cat=0
split_feature=5 13 14 5 10 9 4 14 4 1 10 0 3
split_gain=1.05343 2.59573 5.89111 0.217971 0.0720857 0.00754783 0.0070649 0.00638295 0.00356301 0.000279906 0.000188279 3.90286e-05 1.77636e-15
threshold=0.049230000000000003 0.26490000000000008 0.14655000000000004 0.038060000000000004 100.05500000000002 13.885000000000003 0.062650000000000011 0.082050000000000012 0.035185000000000008 76.840000000000018 79.745000000000019 10.225000000000001 0.12965000000000002
decision_type=2 2 2 2 2 2 2 2 2 2 2 2 2
left_child=3 -2 -3 4 5 6 7 9 -7 10 11 -1 -4
right_child=1 2 12 -5 -6 8 -8 -9 -10 -11 -12 -13 -14
leaf_value=0.00090756576851810846 0.0071460641625280029 -0.01723732237935785 -0.19999999999999971 0.011296719856455965 -0.0046844901578330786 0.0016451878548779308 -0.00068319830290092742 0.0029290529505241656 0.0035099915500844377 0.0012799300679489074 0.00063638812279172242 0.0010880649572316851 -0.19999999999999987
leaf_weight=23.000271916389465 14.24360754992813 7.6329521238803846 0.86751671787351403 21.707111395895481 21.794802725315094 20.002279162406921 20.003063321113586 21.004388928413391 21.005955815315247 26.001276612281799 20.000337362289429 25.000402212142944 1.426156618632376
leaf_count=23 18 14 31 23 26 20 20 21 21 26 20 25 67
internal_value=0 -0.0202117 -0.059467 0.00178435 0.000740507 0.00141224 0.00105134 0.00135303 0.00260041 0.00100087 0.000894168 0.00100158 -0.2
internal_weight=0 24.1702 9.92663 219.52 197.813 176.018 135.01 115.007 41.0082 94.0023 68.001 48.0007 2.29367
internal_count=355 130 112 225 202 176 135 115 41 94 68 48 98
is_linear=0
shrinkage=0.1


Tree=37
num_leaves=13
num_cat=0
split_feature=5 13 9 14 5 10 14 10 13 6 4 3
split_gain=0.868829 2.17678 5.50071 4.62501 0.179304 0.0633405 0.00608271 0.00106829 0.00331222 0.000928658 0.00121997 1.77636e-15
threshold=0.049230000000000003 0.26490000000000008 14.875000000000002 0.12115000000000002 0.037415000000000004 99.570000000000007 0.087895000000000015 83.875000000000014 0.10485000000000001 0.27785000000000004 0.023650000000000004 0.12455000000000001
decision_type=2 2 2 2 2 2 2 2 2 2 2 2
left_child=4 -2 -3 -4 5 6 7 9 -9 10 -1 -5
right_child=1 2 3 11 -6 -7 -8 8 -10 -11 -12 -13
leaf_value=0.00096647081464434578 0.0064322818931678641 0.01270716744601378 0.035327830853599182 -0.19999999999999982 0.0096314144814312521 -0.004365798182678792 0.0027210078667994106 0.00053901444922976795 0.0019198047506569648 0.0011045235131512063 -0.00013803273295977863 -0.19999999999999993
leaf_weight=20.000238299369812 14.241880109533669 5.3659802675247175 1.1291118338704107 1.3209417909383776 24.705769628286362 22.789656728506088 24.008127331733704 32.000542640686035 38.004535436630249 38.000839114189148 20.001034498214722 1.8869331460446117
leaf_count=20 18 7 2 28 26 27 24 32 38 38 20 75
internal_value=0 -0.0184546 -0.0549831 -0.138734 0.001606 0.000588193 0.00124453 0.00100503 0.00128862 0.000750514 0.000414208 -0.2
internal_weight=0 23.9448 9.70297 4.33699 219.511 194.805 172.015 148.007 70.0051 78.0021 40.0013 3.20787
internal_count=355 130 112 105 225 199 172 148 70 78 40 103
is_linear=0
shrinkage=0.1


Tree=38
num_leaves=14
num_cat=0
split_feature=5 13 6 1 7 10 14 2 3 13 1 8 3
split_gain=0.722724 1.86014 5.28345 0.150089 0.0699176 0.0501303 0.0187894 0.00506569 0.00317111 0.0033253 0.000267317 4.21093e-05 8.88178e-16
threshold=0.049230000000000003 0.33465000000000006 0.23585000000000003 91.905000000000015 2.8075000000000006 69.075000000000003 0.091795000000000015 552.05000000000007 0.082435000000000022 0.14285000000000003 78.090000000000018 17.73 0.10675000000000001
decision_type=2 2 2 2 2 2 2 2 2 2 2 2 2
left_child=3 -2 -3 4 5 -1 7 8 9 10 11 -7 -4
right_child=1 2 12 -5 -6 6 -8 -9 -10 -11 -12 -13 -14
leaf_value=0.005995910793770081 -0.0019510374056899097 0.0075334819446459802 -0.19999999999999951 0.0088061906638436018 -0.0050241434879142186 0.00099301679244054005 -0.0017566329383414928 0.0025499123180640574 -0.00019610139592017063 0.0021964337262601785 0.00045043271794192397 0.00079027016964106273 -0.1999999999999999
leaf_weight=19.118893623352051 18.374412784352902 3.3089741058647624 0.34650536254048336 24.597538366913795 20.392337791621685 20.000272274017334 28.383345156908035 20.004442095756531 24.002708673477173 21.003478050231934 21.000122308731079 21.000198602676392 1.6028808094561098
leaf_count=19 36 6 6 28 22 20 29 20 24 21 21 21 82
internal_value=0 -0.0169594 -0.0694036 0.00144546 0.000516521 0.00116396 0.000569465 0.00108928 0.000816223 0.00110896 0.000740567 0.000889171 -0.2
internal_weight=0 23.6328 5.25836 219.503 194.906 174.513 155.395 127.011 107.007 83.0041 62.0006 41.0005 1.94939
internal_count=355 130 94 225 197 175 156 127 107 83 62 41 88
is_linear=0
shrinkage=0.1


Tree=39
num_leaves=14
num_cat=0
split_feature=5 13 9 14 5 10 14 9 13 3 10 12 0
split_gain=0.595477 1.66878 4.70765 4.30197 0.141818 0.0617275 0.00622091 0.00144331 0.00130428 0.00396061 0.000358123 3.13973e-05 1.77636e-15
threshold=0.049230000000000003 0.26490000000000008 14.875000000000002 0.12115000000000002 0.037415000000000004 99.570000000000007 0.087895000000000015 10.845000000000001 0.10485000000000001 0.072230000000000003 86.100000000000009 0.086675000000000016 13.835000000000003
decision_type=2 2 2 2 2 2 2 2 2 2 2 2 2
left_child=4 -2 -3 -4 5 6 7 -1 10 -10 11 -9 -5
right_child=1 2 3 12 -6 -7 -8 8 9 -11 -12 -13 -14
leaf_value=5.4362231152267858e-05 0.0059845896291076135 0.012306832943239077 0.032085036084025895 -0.19999999999999973 0.0084404482794160369 -0.0044946590952076098 0.0025370840611852862 0.00070901721526185277 0.0023374631281656666 0.0006432411260734476 0.00031049903236662283 0.00087813807603385097 -0.1999999999999999
leaf_weight=22.000365138053894 14.240889367647471 5.3319451659917814 1.1259404122829439 1.0033327629789712 24.6926214620471 22.788431748747826 24.007623553276062 21.000164031982422 22.003322124481201 37.001904845237732 23.000425577163696 23.000246286392212 1.7445442099124191
leaf_count=22 18 7 2 14 26 27 24 21 22 37 23 23 89
internal_value=0 -0.0154651 -0.0486467 -0.132544 0.00130097 0.000395994 0.00104391 0.000801706 0.00093219 0.00127502 0.000630268 0.000797421 -0.2
internal_weight=0 23.4467 9.20576 3.87382 219.495 194.802 172.014 148.006 126.006 59.0052 67.0008 44.0004 2.74788
internal_count=355 130 112 105 225 199 172 148 126 59 67 44 103
is_linear=0
shrinkage=0.1


Tree=40
num_leaves=13
num_cat=0
split_feature=9 9 13 14 2 5 10 3 4 6 11 2
split_gain=0.916847 2.96568 8.2705 0.934166 0.0558501 0.0444375 0.0217797 0.0034997 0.0078633 0.00018874 9.3843e-05 1.77636e-15
threshold=16.485000000000003 17.720000000000002 0.19285000000000005 0.12195000000000002 566.25000000000011 0.037135000000000008 92.500000000000014 0.09223000000000002 0.03759500000000001 0.18535000000000004 517.95000000000016 884.40000000000009
decision_type=2 2 2 2 2 2 2 2 2 2 2 2
left_child=3 -2 -3 4 5 6 7 8 9 -1 -11 -4
right_child=1 2 11 -5 -6 -7 -8 -9 -10 10 -12 -13
leaf_value=0.00083017575488575747 0.0049495924642631575 0.062149840660268567 -0.19999999999999984 0.022487867367174119 0.0045846540289476417 -0.0047338638247163894 -0.0027401973420743235 -0.000246791814086824 0.0026766151338205204 0.00056879106561925159 0.00029862707777128647 -0.19999999999999984
leaf_weight=20.000254392623901 12.173296825494619 2.113435983657836 1.6239445251412692 21.203891631215811 27.050087332725525 20.018928647041321 20.375287353992462 26.003325700759888 23.005370378494263 36.000198721885681 20.000103712081909 1.1711256699636576
leaf_count=20 24 2 21 36 27 20 21 26 23 36 20 73
internal_value=0 -0.0215089 -0.0871272 0.002567 0.000372184 -0.000316724 0.000291501 0.000785638 0.0010568 0.000566481 0.000472304 -0.2
internal_weight=0 17.0818 4.90851 213.657 192.454 165.403 145.385 125.009 99.0059 76.0006 56.0003 2.79507
internal_count=349 120 96 229 193 166 146 125 99 76 56 94
is_linear=0
shrinkage=0.1


Tree=41
num_leaves=13
num_cat=0
split_feature=9 9 13 12 14 5 4 7 2 9 9 3
split_gain=0.764376 2.61131 7.53577 0.842696 0.980497 0.19335 0.0174146 0.0153766 0.0339929 0.010673 0.000293262 1.77636e-15
threshold=16.485000000000003 17.720000000000002 0.19285000000000005 0.27155000000000001 0.12115000000000002 0.039275000000000004 0.048450000000000007 1.6210000000000002 506.60000000000008 14.405000000000003 13.065000000000003 0.070655000000000009
decision_type=2 2 2 2 2 2 2 2 2 2 2 2
left_child=3 -2 -3 5 -5 6 7 8 -1 10 -9 -4
right_child=1 2 11 4 -6 -7 -8 9 -10 -11 -12 -13
leaf_value=0.00091450420343016042 0.0044549074954640085 0.056482099832968251 -0.19999999999999973 0.0014964814226918588 0.035468182970733363 -0.0094918360332264824 0.0031731385645611416 0.00069987679653665195 -0.0040947004747416233 0.0032225197972311648 0.00021985885394414369 -0.1999999999999999
leaf_weight=37.001415252685547 12.172588485758753 2.0940448045730582 0.89309708774089847 19.04534113407135 15.338136270642279 20.85270007327199 25.009939312934875 35.000862121582031 21.372157633304596 20.008098840713501 20.000090599060059 1.6359870401211081
leaf_count=37 24 2 4 19 27 24 25 35 22 20 20 90
internal_value=0 -0.0198451 -0.0838265 0.00231075 0.0166509 -0.00044004 0.000751647 0.000297605 -0.000919502 0.00124478 0.000525327 -0.2
internal_weight=0 16.7957 4.62313 213.629 34.3835 179.245 158.393 133.383 58.3736 75.0091 55.001 2.52908
internal_count=349 120 96 229 46 183 159 134 59 75 55 94
is_linear=0
shrinkage=0.1


Tree=42
num_leaves=14
num_cat=0
split_feature=9 9 13 12 14 5 4 4 13 7 12 8 2
split_gain=0.636552 2.29118 6.87489 0.683809 0.798135 0.15665 0.0146207 0.0254685 0.00903617 0.0028754 0.00185506 0.00047423 1.77636e-15
threshold=16.485000000000003 17.720000000000002 0.19285000000000005 0.27155000000000001 0.12115000000000002 0.039275000000000004 0.031515000000000008 0.025430000000000005 0.18720000000000001 2.0250000000000008 0.12320000000000002 19.575000000000006 712.30000000000007
decision_type=2 2 2 2 2 2 2 2 2 2 2 2 2
left_child=3 -2 -3 5 -5 6 7 10 9 -8 11 -1 -4
right_child=1 2 12 4 -6 -7 8 -9 -10 -11 -12 -13 -14
leaf_value=0.00016336363717989535 0.0040096158728560229 0.051243982105669883 -0.19999999999999946 0.0013468406190617918 0.032022435823551403 -0.0085445837624844711 0.0002878908548773202 -0.0031847783689136289 0.0033795901132303583 0.0018697261596769658 0.0015865809524230003 0.00080581505461772016 -0.19999999999999993
leaf_weight=27.000408172607422 12.172014888841661 2.078176498413085 0.48793589603155885 19.045239567756653 15.292307518422602 20.84823839366436 27.003119111061096 21.369013905525208 23.010225892066956 20.004719257354736 20.002208113670349 20.000810861587524 1.8004740262404082
leaf_count=27 24 2 7 19 27 24 27 22 23 20 20 20 87
internal_value=0 -0.0182835 -0.0804262 0.00208056 0.0150083 -0.000396062 0.000676491 -0.000178705 0.00175587 0.000961059 0.000780004 0.000436751 -0.2
internal_weight=0 16.5386 4.36659 213.576 34.3375 179.239 158.391 88.3724 70.0181 47.0078 67.0034 47.0012 2.28841
internal_count=349 120 96 229 46 183 159 89 70 47 67 47 94
is_linear=0
shrinkage=0.1


Tree=43
num_leaves=13
num_cat=0
split_feature=9 9 13 12 5 5 12 1 13 7 4 3
split_gain=0.529524 2.00327 6.27878 0.554695 0.666411 0.12691 0.0123941 0.0262245 0.00434891 0.000273753 0.00012226 1.77636e-15
threshold=16.485000000000003 17.720000000000002 0.19285000000000005 0.27155000000000001 0.037415000000000004 0.039275000000000004 0.20550000000000004 86.040000000000006 0.13080000000000003 1.5165000000000002 0.023170000000000003 0.069630000000000011
decision_type=2 2 2 2 2 2 2 2 2 2 2 2
left_child=3 -2 -3 5 -5 6 7 8 9 -1 -11 -4
right_child=1 2 11 4 -6 -7 -8 -9 -10 10 -12 -13
leaf_value=0.00066012712073200322 0.0036088003813323877 0.046425416894862889 -0.19999999999999951 -0.0013692960374291263 0.026569296752745566 -0.0076915345443190619 0.0023328410167924264 -0.0030354285754374787 0.0018260413877281092 0.00011043128752609302 0.00043073542628232391 -0.1999999999999999
leaf_weight=26.000227093696594 12.171550011262299 2.0652141571044913 0.52495090663433108 16.01580274105072 18.284417629241943 20.844623018056154 33.009995222091675 21.372627347707748 30.005874991416931 26.000175595283508 22.000142097473145 1.54568799957633
leaf_count=26 24 2 3 16 30 24 33 22 30 26 22 91
internal_value=0 -0.0168221 -0.0769489 0.00187315 0.0135239 -0.000356475 0.000608848 0.000154953 0.000810555 0.000398793 0.000257237 -0.2
internal_weight=0 16.3074 4.13585 213.534 34.3002 179.234 158.389 125.379 104.006 74.0005 48.0003 2.07064
internal_count=349 120 96 229 46 183 159 126 104 74 48 94
is_linear=0
shrinkage=0.1


Tree=44
num_leaves=15
num_cat=0
split_feature=13 9 5 5 8 14 10 3 13 13 12 11 10 12
split_gain=0.527976 2.72322 2.47743 0.738367 1.51723 0.202292 0.06987 0.0126989 0.00639894 0.000588219 0.00066786 0.000202709 0.000158061 8.88178e-16
threshold=0.36000000000000004 14.875000000000002 0.050880000000000009 0.05302500000000001 25.330000000000002 0.10910000000000002 98.855000000000018 0.10370000000000001 0.18720000000000001 0.14055000000000004 0.14265000000000003 546.4000000000002 73.565000000000012 0.33200000000000007
decision_type=2 2 2 2 2 2 2 2 2 2 2 2 2 2
left_child=3 -2 -3 5 -5 6 7 8 9 10 11 12 -1 -4
right_child=1 2 13 4 -6 -7 -8 -9 -10 -11 -12 -13 -14 -15
leaf_value=0.00018073406967347572 0.0098824207502290484 -0.031357857101890478 -0.19999999999999965 0.05772074344879146 -0.0012147684609799083 -0.0091687490630541074 0.0062083330578492271 -0.0019786581630208077 0.0022169447499685124 -0.00015031070899244626 0.00087766447269036884 -4.8689662627235213e-06 0.00056019268220356766 -0.19999999999999979
leaf_weight=21.000033497810364 9.5224044620990735 2.5129150152206416 0.44086464587599017 6.9464484453201321 11.76861638529226 21.96907589957118 22.53558786213398 22.004230618476868 21.004792451858521 22.000128030776978 24.000444293022156 20.000374555587769 23.000131487846375 0.89241917012259364
leaf_count=21 11 4 18 6 36 32 24 22 21 22 24 20 23 65
internal_value=0 -0.0188017 -0.0898176 0.00167648 0.0206603 -0.000122284 0.00100986 0.000244217 0.000617579 0.000312179 0.000427801 0.0002591 0.000379088 -0.2
internal_weight=0 13.3686 3.8462 216.23 18.7151 197.515 175.546 153.01 131.006 110.001 88.001 64.0005 44.0002 1.33328
internal_count=349 98 87 251 42 209 177 153 131 110 88 64 44 83
is_linear=0
shrinkage=0.1


Tree=45
num_leaves=13
num_cat=0
split_feature=5 13 9 14 1 2 14 3 14 3 14 3
split_gain=0.495918 1.39631 3.10428 3.91824 0.113078 0.0624241 0.0587867 0.00869877 0.00388549 0.000582625 0.000499107 1.77636e-15
threshold=0.048235000000000007 0.26490000000000008 14.875000000000002 0.12115000000000002 91.905000000000015 562.55000000000007 0.099515000000000006 0.085745000000000016 0.076285000000000006 0.060420000000000008 0.048405000000000011 0.084140000000000006
decision_type=2 2 2 2 2 2 2 2 2 2 2 2
left_child=4 -2 -3 -4 5 6 7 8 9 10 -1 -5
right_child=1 2 3 11 -6 -7 -8 -9 -10 -11 -12 -13
leaf_value=0.00025672352445917302 0.0057897606391890772 -0.0053965181097040439 0.032303526431275459 -0.19999999999999929 0.0076201641235158508 -0.0051287429315796974 0.0059025183066478545 -0.0011394501402263552 0.0017210848845564553 -4.5252407012844448e-05 0.00087015948672811952 -0.19999999999999993
leaf_weight=36.000104546546936 15.163192325737329 7.3337331190705282 1.0889825746417048 0.36731332540512118 23.062844455242157 19.660632930696011 20.095156311988831 39.005499243736267 24.002874135971069 33.000242233276367 21.000606417655945 1.8114065192639826
leaf_count=36 19 9 2 4 27 22 20 39 24 33 21 99
internal_value=0 -0.0136758 -0.0415173 -0.122583 0.00100269 0.000210964 0.00081743 0.000149591 0.000590626 0.000289137 0.00048273 -0.2
internal_weight=0 25.7646 10.6014 3.2677 215.828 192.765 173.104 153.009 114.004 90.001 57.0007 2.17872
internal_count=355 133 114 105 222 195 173 153 114 90 57 103
is_linear=0
shrinkage=0.1


Tree=46
num_leaves=15
num_cat=0
split_feature=5 13 9 14 1 2 14 3 14 13 6 8 11 0
split_gain=0.409946 1.16862 2.79134 3.67758 0.0916087 0.0505666 0.0476222 0.0070635 0.00510072 0.00306864 0.000166746 4.76541e-05 5.60809e-05 8.88178e-16
threshold=0.048235000000000007 0.26490000000000008 14.875000000000002 0.12115000000000002 91.905000000000015 562.55000000000007 0.099515000000000006 0.08179500000000002 0.078460000000000016 0.15450000000000003 0.21365000000000003 18.530000000000005 514.65000000000009 13.655000000000003
decision_type=2 2 2 2 2 2 2 2 2 2 2 2 2 2
left_child=4 -2 -3 -4 5 6 7 9 -9 10 -1 -12 -13 -5
right_child=1 2 3 13 -6 -7 -8 8 -10 -11 11 12 -14 -15
leaf_value=0.00052600014516394672 0.0052112228963553057 -0.0048572211419280762 0.029149494823722893 -0.19999999999999962 0.0068591473177069227 -0.0046161734873955392 0.0053127309203091734 0.00017072969760484943 -0.0019589825335490779 0.0016912451055050431 0.00010096597107938901 0.0004090896544442796 0.00017511233277882045 -0.1999999999999999
leaf_weight=27.000133275985718 15.161985548678787 7.3332258090376836 1.0862835720181467 0.44858264178037632 23.059664234519005 19.659404866397381 20.093493580818176 22.000277638435364 23.005266904830933 20.00308084487915 20.000017523765564 20.000091552734375 21.000125527381897 1.5228046206757424
leaf_count=27 19 9 2 9 27 22 20 22 23 20 20 20 21 94
internal_value=0 -0.0124925 -0.0383251 -0.118591 0.000902457 0.000189872 0.000735698 0.000134632 -0.000917905 0.000573229 0.000319096 0.000227516 0.000289248 -0.2
internal_weight=0 25.5529 10.3909 3.05767 215.822 192.762 173.102 153.009 45.0055 108.003 88.0004 61.0002 41.0002 1.97139
internal_count=355 133 114 105 222 195 173 153 45 108 88 61 41 103
is_linear=0
shrinkage=0.1


Tree=47
num_leaves=14
num_cat=0
split_feature=14 8 12 13 5 5 8 14 14 11 9 6 11
split_gain=0.345314 1.33802 3.42156 1.113 0.913649 0.232679 0.129866 0.0237519 0.0391246 0.00423112 0.000884585 0.000915401 0.000907394
threshold=0.111 29.535000000000004 0.28420000000000006 0.26765000000000005 0.050880000000000009 0.047625000000000008 33.065000000000005 0.094525000000000012 0.082840000000000011 662.50000000000011 10.845000000000001 0.23750000000000002 514.65000000000009
decision_type=2 2 2 2 2 2 2 2 2 2 2 2 2
left_child=6 5 -3 -4 -5 -2 7 8 9 10 -1 -12 -13
right_child=1 2 3 4 -6 -7 -8 -9 -10 -11 11 12 -14
leaf_value=-0.00034587244146637181 0.0058376331155242482 -0.20000000000000001 0.021656519723989895 -0.030826740528693282 -0.19999999999999962 -0.011969513967670042 0.0083570883639562023 0.0033268681648803882 -0.003949562236607934 0.0018155871173904858 0.00074392660266429521 0.00049371124002718116 -0.00030536534658521033
leaf_weight=21.0004563331604 18.699376285076145 1.2508324580267061 3.0287222703918815 1.0120944976806638 0.46633122791536141 12.07695480622351 22.151060365140438 22.041810870170593 23.437456220388412 20.010138750076294 39.001654267311096 30.000207424163818 27.000865340232849
leaf_count=21 20 28 4 1 68 27 23 22 25 20 39 30 27
internal_value=0 -0.00942774 -0.0536717 -0.0130624 -0.0841881 -0.00115008 0.00112649 0.000248831 -0.000174012 0.000471833 0.000242021 0.000370622 0.000115196
internal_weight=0 36.5343 5.75798 4.50715 1.47843 30.7763 204.644 182.493 160.451 137.013 117.003 96.0027 57.0011
internal_count=355 148 101 73 69 47 207 184 162 137 117 96 57
is_linear=0
shrinkage=0.1


Tree=48
num_leaves=15
num_cat=0
split_feature=14 8 12 13 7 5 8 5 5 14 1 9 4 3
split_gain=0.283667 1.13692 3.19052 0.934687 0.630798 0.188526 0.105214 0.0192589 0.0335129 0.023842 0.0106102 0.000944226 0.000878551 7.09721e-05
threshold=0.111 29.535000000000004 0.28420000000000006 0.26765000000000005 4.955000000000001 0.047625000000000008 33.065000000000005 0.032445000000000009 0.028655000000000003 0.081490000000000021 83.855000000000004 13.145000000000001 0.035675000000000005 0.054290000000000012
decision_type=2 2 2 2 2 2 2 2 2 2 2 2 2 2
left_child=6 5 -3 -4 -5 -2 7 8 9 10 11 12 13 -1
right_child=1 2 3 4 -6 -7 -8 -9 -10 -11 -12 -13 -14 -15
leaf_value=0.00013077647711352678 0.0052543192470080038 -0.20000000000000001 0.019513831909008843 -0.19999999999999948 -0.042278214671187829 -0.010776436569017684 0.0075226979053120355 -0.0027037128176681164 0.004413448470256414 -0.0026643467830644503 0.0027582447061843419 0.00071550368308356772 -0.00053130429458127053 0.00037418179156198557
leaf_weight=23.000021457672119 18.697863146662716 1.1318000152241428 3.0253484668210149 0.32932390877977002 1.1024402382317928 12.072845643851904 22.147386401891708 20.006016969680786 20.038796901702881 26.436834424734116 20.00734007358551 28.001117587089539 20.000683903694153 25.000093460083008
leaf_count=23 20 28 4 42 27 27 23 20 20 28 20 28 20 25
internal_value=0 -0.00857147 -0.050063 -0.0119893 -0.0785562 -0.00103533 0.00101387 0.00022395 0.00058442 4.57657e-05 0.000663361 0.000226776 2.5529e-05 0.00025755
internal_weight=0 36.3596 5.58891 4.45711 1.43176 30.7707 204.638 182.491 162.485 142.446 116.009 96.0019 68.0008 48.0001
internal_count=355 148 101 73 69 47 207 184 164 144 116 96 68 48
is_linear=0
shrinkage=0.1


Tree=49
num_leaves=15
num_cat=0
split_feature=5 13 5 0 3 5 10 2 12 14 6 5 12 0
split_gain=0.233878 0.802401 0.869617 2.47028 0.371381 0.0884233 0.0285327 0.00588521 0.00667437 0.00547014 0.00075652 0.000465967 0.000152787 8.88178e-16
threshold=0.048235000000000007 0.34440000000000009 0.050880000000000009 10.890000000000002 0.13295000000000004 0.037415000000000004 99.570000000000007 546.35000000000002 0.24335000000000004 0.074420000000000014 0.36515000000000003 0.020820000000000002 0.11565000000000002 13.785000000000002
decision_type=2 2 2 2 2 2 2 2 2 2 2 2 2 2
left_child=5 4 -3 -4 -2 6 7 8 9 10 11 12 -1 -5
right_child=1 2 3 13 -6 -7 -8 -9 -10 -11 -12 -13 -14 -15
leaf_value=0.00024305355996272399 -0.014211766720448275 -0.01064040852207691 0.018096492954721596 -0.19999999999999979 0.013010921460171958 0.0067678473963467232 -0.0033704681773606888 0.0020451723927368166 -0.0014817245797650483 0.0015933873892876164 -0.00042597112535449244 0.00066643691834049432 -8.6488998880011924e-05 -0.19999999999999946
leaf_weight=34.000044465065002 9.9621944124810451 3.0137660503387442 1.0041188001632693 0.70970915444195248 10.084068965166805 21.410247065126896 22.28190191835165 20.002670407295227 20.002889752388 33.003207921981812 21.00028669834137 20.000538349151611 24.000157237052917 0.36597825633361936
leaf_count=34 30 3 1 12 12 23 27 20 20 33 21 20 24 75
internal_value=0 -0.00952319 -0.0449653 -0.0947042 -0.00051767 0.000668652 -3.45741e-06 0.0004327 0.000220515 0.000478459 0.000106783 0.000250218 0.000106691 -0.2
internal_weight=0 25.1398 5.09357 2.07981 20.0463 215.702 194.292 172.01 152.007 132.004 99.001 78.0007 58.0002 1.07569
internal_count=355 133 91 88 42 222 199 172 152 132 99 78 58 87
is_linear=0
shrinkage=0.1


Tree=50
num_leaves=16
num_cat=0
split_feature=14 3 13 4 3 14 8 9 8 14 11 3 14 7 0
split_gain=0.745947 2.9924 1.49976 0.77787 1.68382 0.211203 0.0731227 0.0703125 0.0263433 0.0576729 0.0246504 0.00497717 0.00170118 0.00031487 4.44089e-16
threshold=0.13405000000000003 0.10215 0.77040000000000008 0.10435000000000001 0.16470000000000004 0.111 32.600000000000001 15.125000000000002 21.945000000000004 0.070515000000000008 631.30000000000007 0.090945000000000012 0.076285000000000006 1.5055000000000003 14.235000000000001
decision_type=2 2 2 2 2 2 2 2 2 2 2 2 2 2 2
left_child=5 -2 3 -3 14 6 8 -6 10 -10 11 12 13 -1 -5
right_child=1 2 -4 4 7 -7 -8 -9 9 -11 -12 -13 -14 -15 -16
leaf_value=0.00041809001042516315 0.102081601935225 0.00030741577421690804 0.072717507857719382 -0.19999999999999907 -0.001471130443184274 -0.0091524876361493961 0.0060587520667938887 -0.036150889094213809 0.00083111221816649069 -0.0060568339923353746 0.0037886589213800173 -0.0012857064684786857 0.0012475722885220109 -7.4417683845953256e-05 -0.19999999999999951
leaf_weight=25.000433921813965 3.6084250649437335 7.4899104647338373 2.2671745414845637 0.27870114427059922 1.093151926994324 24.789045244455338 22.192155979573727 1.2567534775007514 30.00165855884552 20.436504766345024 22.033805251121521 21.004091620445251 20.001624345779419 27.000065207481384 0.38873833022080362
leaf_count=25 9 16 7 6 3 34 23 37 30 22 22 21 20 27 47
internal_value=0 0.0216684 -0.00104608 -0.0169622 -0.0598304 -0.000477269 0.000668625 -0.0200182 -5.42408e-05 -0.00195974 0.000781207 6.87215e-05 0.000463828 0.000162367 -0.2
internal_weight=0 16.3829 12.7744 10.5073 3.01734 212.459 187.67 2.34991 165.478 50.4382 115.04 93.0062 72.0021 52.0005 0.667439
internal_count=349 125 116 109 93 224 190 40 167 52 115 93 72 52 53
is_linear=0
shrinkage=0.1


Tree=51
num_leaves=13
num_cat=0
split_feature=14 8 7 10 14 8 8 14 1 3 14 3
split_gain=0.611011 2.6938 0.912026 0.334227 0.171112 0.0597368 0.0227662 0.0408854 0.0205076 0.0037912 0.00170711 0.000222009
threshold=0.13405000000000003 22.550000000000001 3.0240000000000005 110.35000000000001 0.111 31.085000000000004 21.945000000000004 0.067945000000000019 85.175000000000026 0.090945000000000012 0.076285000000000006 0.060420000000000008
decision_type=2 2 2 2 2 2 2 2 2 2 2 2
left_child=4 -2 -3 -4 5 6 8 -8 9 10 11 -1
right_child=1 2 3 -5 -6 -7 7 -9 -10 -11 -12 -13
leaf_value=0.00028352720041717325 0.048413905814166713 -0.092705881967643816 0.018576844349430816 -0.045316412601840474 -0.0082389705182866185 0.0053532207356913122 0.00065325906178759414 -0.0051498006865862075 0.0036107064599423498 -0.0010957324248489549 0.001189533201919856 -0.00013870325811933003
leaf_weight=33.000429630279541 10.833887502085419 1.9541968884877849 2.0435669366270308 1.3659561676904557 24.784113351255655 23.190343350172043 28.00135862827301 21.434852495789528 20.033075332641602 21.00400698184967 21.001518368721008 20.000071048736572
leaf_count=33 14 30 3 78 34 24 28 23 20 21 21 20
internal_value=0 0.0197195 -0.0382389 -0.00702069 -0.000429572 0.000601779 -6.81552e-05 -0.00186287 0.000703093 8.99909e-05 0.000426535 0.000124196
internal_weight=0 16.1976 5.36372 3.40952 212.45 187.666 164.475 49.4362 115.039 95.006 74.002 53.0005
internal_count=349 125 111 81 224 190 166 51 115 95 74 53
is_linear=0
shrinkage=0.1


Tree=52
num_leaves=15
num_cat=0
split_feature=14 14 3 13 14 8 8 14 8 11 10 14 0 0
split_gain=0.498171 2.5371 3.54692 3.40417 0.138625 0.0483908 0.0184411 0.0331199 0.0167596 0.00187468 0.00229194 0.000470343 4.44089e-16 1.11022e-16
threshold=0.13405000000000003 0.15510000000000002 0.10215 0.77040000000000008 0.111 31.085000000000004 21.945000000000004 0.067945000000000019 19.575000000000006 598.50000000000011 83.875000000000014 0.048405000000000011 14.235000000000001 20.110000000000003
decision_type=2 2 2 2 2 2 2 2 2 2 2 2 2 2
left_child=4 -2 -3 12 5 6 8 -8 9 10 11 -1 -4 -14
right_child=1 2 3 -5 -6 -7 7 -9 -10 -11 -12 -13 13 -15
leaf_value=0.00021409532961089075 -0.0087820341271367588 0.17427567001338157 -0.19999999999999932 0.062508860106173833 -0.0074163367228400074 0.0048182451957762169 0.00058793378494546985 -0.004635129137825161 0.0032614999850393116 -0.00075523255142608101 0.0010084572542809855 -0.00043392338230828666 -0.19999999999999893 -0.19999999999999685
leaf_weight=21.000105619430542 11.093965033302085 2.1425294452346852 0.38950118585489724 2.2169232275336981 24.780117556452751 23.188765063881874 28.001329660415649 21.433502241969109 20.030606985092163 21.003580451011658 29.001677751541138 24.002372145652771 0.18304583011195064 0.063086254289373755
leaf_count=21 30 3 14 7 34 24 28 23 20 21 29 24 49 22
internal_value=0 0.0178639 0.077044 0.00401419 -0.000386635 0.000541613 -6.13419e-05 -0.00167663 0.000632789 7.85746e-05 0.000315223 -0.00013153 -0.2 -0.2
internal_weight=0 16.0891 4.99509 2.85256 212.442 187.662 164.473 49.4348 115.038 95.0077 74.0042 45.0025 0.635633 0.246132
internal_count=349 125 95 92 224 190 166 51 115 95 74 45 85 71
is_linear=0
shrinkage=0.1


Tree=53
num_leaves=15
num_cat=0
split_feature=14 14 3 5 13 14 14 14 9 1 12 1 9 0
split_gain=0.412293 2.17711 3.19854 0.839347 2.69596 0.112302 0.0464924 0.0409093 0.0247574 0.00432901 0.00197751 0.000307436 0.000453777 4.44089e-16
threshold=0.13405000000000003 0.15510000000000002 0.10215 0.043115000000000007 1.1375000000000002 0.111 0.098275000000000015 0.084940000000000015 15.020000000000001 82.550000000000011 0.19400000000000003 77.225000000000009 12.325000000000001 15.960000000000003
decision_type=2 2 2 2 2 2 2 2 2 2 2 2 2 2
left_child=5 -2 -3 -4 13 6 7 8 9 10 11 12 -1 -5
right_child=1 2 3 4 -6 -7 -8 -9 -10 -11 -12 -13 -14 -15
leaf_value=9.3748092098900295e-05 -0.0079053602552496428 0.16974857882954608 0.072731996272810545 -0.19999999999999973 0.059143626175103728 -0.0066756242495001174 0.0047884813113223974 -0.0042769901224592411 0.0037636146119555854 -0.0012948913542845518 0.0010453087387897015 0.00032639149849158702 -0.00049745927671389128 -0.19999999999999885
leaf_weight=37.000131845474243 11.091932830633594 1.9877803567796934 1.0735007524490359 0.4824178968556222 1.046818733215332 24.776880783960223 22.164263881742954 20.439473479986191 20.050775766372681 22.001880884170532 24.00156581401825 22.000431656837463 20.0004061460495 0.16875421395525336
leaf_count=37 30 3 1 25 1 34 23 22 20 22 24 22 20 65
internal_value=0 0.0163706 0.0729479 0.00352016 -0.0402368 -0.000347987 0.00048746 -8.85646e-05 0.000501619 -2.16068e-05 0.000250373 8.86139e-06 -0.000113695 -0.2
internal_weight=0 15.8512 4.75927 2.77149 1.69799 212.436 187.659 165.495 145.055 125.004 103.003 79.001 57.0005 0.651172
internal_count=349 125 95 92 91 224 190 167 145 125 103 79 57 90
is_linear=0
shrinkage=0.1


Tree=54
num_leaves=15
num_cat=0
split_feature=14 14 3 5 13 14 8 7 14 13 12 6 5 0
split_gain=0.3406 1.86488 2.86231 0.700905 2.41926 0.0909753 0.0384051 0.0157023 0.07922 0.0261071 0.00330232 0.0013355 0.000966497 4.44089e-16
threshold=0.13405000000000003 0.15510000000000002 0.10215 0.043115000000000007 1.1375000000000002 0.111 32.600000000000001 1.5275000000000001 0.082840000000000011 0.18430000000000002 0.18635000000000002 0.29695000000000005 0.019225000000000003 16.875000000000004
decision_type=2 2 2 2 2 2 2 2 2 2 2 2 2 2
left_child=5 -2 -3 -4 13 6 7 9 10 12 11 -9 -1 -5
right_child=1 2 3 4 -6 -7 -8 8 -10 -11 -12 -13 -14 -15
leaf_value=0.00021836319746968035 -0.0071159401547699203 0.16464652065584237 0.066338936263483084 -0.19999999999999973 0.053700455239247435 -0.0060087338596532276 0.0043455604219516794 0.00068329120228678957 -0.0064293097796424342 0.0041236590357006109 0.0015970626849390994 -0.00028851838244252695 -0.00070184237047055977 -0.19999999999999857
leaf_weight=25.000279784202576 11.09028654778376 1.8515796868596215 1.0600106716156008 0.4511344586499032 1.0381207466125488 24.774258254095912 22.186709851026535 26.001268148422241 20.431560635566711 20.029926180839539 22.002101898193359 31.001725077629089 21.002419829368591 0.13807043805718422
leaf_count=25 30 3 1 31 1 34 23 26 22 20 22 31 21 59
internal_value=0 0.0149825 0.0689774 0.00306123 -0.0381567 -0.0003132 0.000438722 -8.51209e-05 -0.000878954 0.00111029 0.000556427 0.000154762 -0.000201754 -0.2
internal_weight=0 15.6292 4.53892 2.68734 1.62733 212.43 187.656 165.469 99.4367 66.0326 79.0051 57.003 46.0027 0.589205
internal_count=349 125 95 92 91 224 190 167 101 66 79 57 46 90
is_linear=0
shrinkage=0.1


Tree=55
num_leaves=17
num_cat=0
split_feature=3 3 14 5 13 7 5 13 3 5 3 2 14 6 8 8
split_gain=0.0936526 0.238265 0.215961 0.465384 0.73381 1.00232 1.88465 0.210697 0.25654 0.073382 0.178327 0.0768152 0.00773179 0.00258976 0.000629147 0.000897965
threshold=0.13295000000000004 0.14895000000000003 0.11575000000000002 0.047625000000000008 0.24475000000000005 1.5345000000000002 0.049230000000000003 0.33795000000000003 0.16630000000000003 0.028810000000000002 0.085745000000000016 562.55000000000007 0.083645000000000011 0.37195000000000006 15.895000000000001 18.530000000000005
decision_type=2 2 2 2 2 2 2 2 2 2 2 2 2 2 2 2
left_child=2 -2 9 -4 -5 -6 -7 -3 -9 11 -11 12 13 14 -1 -16
right_child=1 7 3 4 5 6 -8 8 -10 10 -12 -13 -14 -15 15 -17
leaf_value=-0.00025365381210470776 0.021071294022157166 0.0079765027159442274 -0.00018139974344584411 0.0014234233495586468 0.011242612958335252 -0.0091680811857333469 -0.19999999999999984 -0.0013678211983366004 -0.05794626492020203 0.01032902826064757 -0.001750197781538617 -0.0063807015445161907 0.0019652030662172708 -0.0011995395538163065 0.00078554200293172731 -4.6135114345953785e-05
leaf_weight=39.000629901885986 7.0642867843853336 6.0299895820207876 13.514399535954 3.0871466184034935 1.0730989426374438 1.0010523796081545 1.0714197562774641 2.0759999790461738 1.3052970767021177 22.279278591275215 27.074016585946083 20.793018475174904 20.004570841789246 20.001371264457703 21.001014232635498 34.000246286392212
leaf_count=39 12 7 17 6 2 1 45 18 39 23 28 23 20 20 21 34
internal_value=0 0.00719096 -0.000620959 -0.0106068 -0.0332123 -0.0672047 -0.107824 -0.00322788 -0.023209 0.00034494 0.00370266 -0.000725561 0.000151905 -0.000166281 5.35725e-05 0.000271422
internal_weight=0 16.4756 223.901 19.7471 6.23272 3.14557 2.07247 9.41129 3.3813 204.154 49.3533 154.801 134.008 114.003 94.0019 55.0013
internal_count=355 76 279 71 54 48 46 64 57 208 51 157 134 114 94 55
is_linear=0
shrinkage=0.1


Tree=56
num_leaves=16
num_cat=0
split_feature=5 3 13 7 8 10 3 2 8 13 13 6 9 7 0
split_gain=0.0841806 0.402721 0.518986 1.40954 2.12635 0.094767 0.0856334 0.127014 0.0184286 0.0460319 0.0164807 0.00901877 0.00371209 0.00132029 0.00122544
threshold=0.049230000000000003 0.13295000000000004 0.18430000000000002 1.5345000000000002 16.870000000000005 104.35000000000001 0.14895000000000003 649.60000000000014 19.205000000000002 0.19515000000000002 0.22545000000000001 0.29820000000000008 13.295000000000002 1.3410000000000004 11.680000000000001
decision_type=2 2 2 2 2 2 2 2 2 2 2 2 2 2 2
left_child=5 2 -2 -4 -5 8 -3 -8 10 11 13 -10 -13 -1 -15
right_child=1 6 3 4 -6 -7 7 -9 9 -11 -12 12 -14 14 -16
leaf_value=-0.00038089882318150962 -0.00015129189620824681 0.014258106379790352 0.010738381351913332 0.00070680612278957455 -0.19999999999999984 0.0066974011591473346 -0.01612979765355986 0.012054945996879233 0.0017706284770037562 -0.0054189347135784284 0.0032200293542537293 -5.9966814464748826e-05 -0.0017965219852219283 -3.8058768785320263e-05 0.00097599374353746584
leaf_weight=35.0011887550354 5.0028970241546649 6.0284145190380496 2.0744049176573753 1.0000061988830569 1.1179681246867401 22.218422248959541 3.2706905289087445 3.1281106644310057 20.002858757972717 20.362551331520081 21.03319251537323 32.000520586967468 20.004617810249329 26.000196695327759 22.001375913619995
leaf_count=35 5 11 3 1 49 28 17 44 20 21 21 32 20 26 22
internal_value=0 -0.00603356 -0.0218991 -0.0478514 -0.105236 0.000507268 0.00570582 -0.00235144 -0.000192988 -0.00122099 0.000719744 -3.38861e-05 -0.000727961 8.61629e-05 0.000426729
internal_weight=0 21.6225 9.19528 4.19238 2.11797 218.625 12.4272 6.3988 196.407 92.3705 104.036 72.008 52.0051 83.0028 48.0016
internal_count=355 130 58 53 50 225 72 61 197 93 104 72 52 83 48
is_linear=0
shrinkage=0.1


Tree=57
num_leaves=16
num_cat=0
split_feature=5 3 13 7 8 4 1 1 3 2 7 14 13 8 10
split_gain=0.0696896 0.333231 0.441792 1.2339 2.02433 0.0816494 0.217056 0.0938274 0.0694012 0.102941 0.0266159 0.0121576 0.00409951 0.00141439 0.000149359
threshold=0.049230000000000003 0.13295000000000004 0.18430000000000002 1.5345000000000002 16.870000000000005 0.043460000000000006 88.385000000000019 86.040000000000006 0.14895000000000003 649.60000000000014 2.3090000000000006 0.087895000000000015 0.13080000000000003 24.195000000000004 78.035000000000011
decision_type=2 2 2 2 2 2 2 2 2 2 2 2 2 2 2
left_child=5 2 -2 -4 -5 7 10 12 -3 -10 11 -7 13 14 -1
right_child=1 8 3 4 -6 6 -8 -9 9 -11 -12 -13 -14 -15 -16
leaf_value=-9.6356942423267582e-05 -0.00013616261627494135 0.012838844972613027 0.0096673405314288644 0.00063612626882752208 -0.19999999999999984 -0.00028743697313703408 0.01184229573683078 -0.0067563017753318952 -0.014526300494720788 0.010853409068582738 -0.0028832168383534302 0.0031562085980359755 0.0012320771155732609 -0.00091766449301929553 0.00020771439886334327
leaf_weight=35.000372529029846 5.0028967857360858 6.0255038981558737 2.0738367885351181 1.0000050067901614 1.0115793806035069 20.001734018325806 20.551382794976234 23.789817228913307 3.2686696010641754 3.1270310973050073 21.240471377968788 21.032365798950195 27.003269672393799 20.000715017318726 30.000126004219055
leaf_count=35 5 11 3 1 49 20 23 26 17 44 23 21 27 20 30
internal_value=0 -0.00550894 -0.0200601 -0.0444584 -0.100259 0.000456554 0.00293106 -0.00105274 0.00513781 -0.00211747 -9.75661e-06 0.00147763 0.0001587 -0.000182292 4.39832e-05
internal_weight=0 21.5095 9.08832 4.08542 2.01158 218.62 82.826 135.794 12.4212 6.3957 62.2746 41.0341 112.004 85.0012 65.0005
internal_count=355 130 58 53 50 225 87 138 72 61 64 41 112 85 65
is_linear=0
shrinkage=0.1


Tree=58
num_leaves=17
num_cat=0
split_feature=3 14 5 9 12 9 3 13 9 14 13 2 6 5 8 8
split_gain=0.0597304 0.149688 0.331101 0.834371 0.659182 1.76171 0.145312 0.151902 0.279471 0.0389658 0.0313451 0.0207049 0.00290436 0.000262371 8.55477e-05 5.42373e-05
threshold=0.13295000000000004 0.10975000000000001 0.045455000000000002 15.125000000000002 0.15625000000000003 15.495000000000003 0.14895000000000003 0.33795000000000003 13.715000000000002 0.087895000000000015 0.18105000000000002 562.55000000000007 0.36880000000000007 0.022585000000000004 14.675000000000002 18.530000000000005
decision_type=2 2 2 2 2 2 2 2 2 2 2 2 2 2 2 2
left_child=1 9 -3 -4 -5 -6 -2 -8 -9 10 11 12 13 14 -1 -16
right_child=6 2 3 4 5 -7 7 8 -10 -11 -12 -13 -14 -15 15 -17
leaf_value=0.00017688386066526545 0.016592851169514668 -0.00069681191035593298 0.0030771809683289835 -0.0029826295095284026 -0.008894169763538148 -0.19999999999999982 0.0071077462571545735 0.0043560618337015033 -0.054314530889037385 0.0034106554754060343 -0.0032396280762285279 0.0032965014131114017 -0.001182425363356232 0.00040592578100095164 -0.00018272408132116518 4.0249998302999972e-05
leaf_weight=23.000033497810364 7.0508075421676066 18.908852316439155 4.1484668254852286 1.0643702056258919 1.0009902715682981 0.93104593141470093 6.0249616680666787 2.0046166181564335 1.3645386187126858 36.043931245803833 28.432537391781807 21.040816068649292 21.001331925392151 24.000273108482361 20.000042319297791 24.000078082084656
leaf_count=23 12 23 5 3 1 48 7 2 55 36 30 21 21 24 20 24
internal_value=0 -0.000501956 -0.00762644 -0.0259656 -0.0661749 -0.100988 0.00574249 -0.00240131 -0.0194061 0.000437797 -0.000225794 0.000418293 -0.000122412 0.000122221 2.05947e-05 -6.11018e-05
internal_weight=0 223.573 26.0537 7.14487 2.99641 1.93204 16.4449 9.39412 3.36916 197.519 161.475 133.043 112.002 91.0004 67.0002 44.0001
internal_count=355 279 80 57 52 49 76 64 57 199 163 133 112 91 67 44
is_linear=0
shrinkage=0.1


Tree=59
num_leaves=15
num_cat=0
split_feature=5 13 6 4 4 0 1 3 7 13 8 10 0 8
split_gain=0.057356 0.270985 0.700743 1.66312 0.0697072 0.178679 0.08229 0.0218996 0.0147199 0.0033705 0.000952061 0.000105354 4.44089e-16 2.22045e-16
threshold=0.049230000000000003 0.33465000000000006 0.22060000000000005 0.09888000000000001 0.043460000000000006 13.630000000000001 86.040000000000006 0.11035000000000002 1.9315000000000002 0.13080000000000003 24.195000000000004 78.035000000000011 14.125000000000002 48.430000000000007
decision_type=2 2 2 2 2 2 2 2 2 2 2 2 2 2
left_child=4 -2 -3 -4 6 7 9 8 -6 10 11 -1 -5 -14
right_child=1 2 3 12 5 -7 -8 -9 -10 -11 -12 -13 13 -15
leaf_value=-8.911095062371403e-05 0.00020734368355299505 0.0090084233173729159 0.0038237158262637242 -0.19999999999999954 0.00070880790010409162 0.010789846547117746 -0.0063240084316460348 0.0027550877657460042 -0.0030299828558168237 0.0011255770126627697 -0.00076022146954849595 0.00016626863680180759 -0.19999999999999893 -0.19999999999999807
leaf_weight=35.000417113304138 17.546049826545644 2.1065968349575992 1.0001828670501707 0.37904036883264769 20.002571225166321 20.528717681765556 23.786308407783508 20.032368540763855 22.23697879165411 27.003037452697754 20.000624895095825 30.00010359287262 0.18453428568318486 0.10392015788238496
leaf_count=35 36 4 1 14 20 23 26 20 24 27 20 30 19 56
internal_value=0 -0.00502147 -0.0293295 -0.0777576 0.000412306 0.00269917 -0.00098215 3.19767e-05 -0.00125948 0.0001523 -0.000156889 2.8756e-05 -0.2 -0.2
internal_weight=0 21.3203 3.77427 1.66768 218.591 82.8006 135.79 62.2719 42.2396 112.004 85.0011 65.0005 0.667495 0.288454
internal_count=355 130 94 90 225 87 138 64 44 112 85 65 89 75
is_linear=0
shrinkage=0.1


Tree=60
num_leaves=14
num_cat=0
split_feature=5 5 13 7 14 9 14 14 1 14 12 6 6
split_gain=1.62522 3.01022 0.642191 1.37106 0.242335 0.20534 0.34353 0.0949883 0.0172076 0.00802023 0.00125869 0.000954761 0.000158405
threshold=0.054855000000000008 0.055760000000000011 0.26765000000000005 2.3585000000000007 0.12115000000000002 15.780000000000001 0.10910000000000002 0.10975000000000001 86.040000000000006 0.08593000000000002 0.18635000000000002 0.34690000000000004 0.22485000000000002
decision_type=2 2 2 2 2 2 2 2 2 2 2 2 2
left_child=5 -2 -3 -4 -5 7 -7 8 9 10 11 12 -1
right_child=1 2 3 4 -6 6 -8 -9 -10 -11 -12 -13 -14
leaf_value=0.0001746499667366852 0.10265554216216857 0.018693736984780225 -0.19999999999999982 0.031343032294129769 -0.033869251808507687 0.0018523378142297016 -0.02096553377921237 0.0073507276393942889 0.0028133794295100555 -0.0019063538209903579 0.00055786533540085666 -0.00077396932605028714 -0.00013760367181949617
leaf_weight=32.00042712688446 4.428519248962405 10.239862132351844 0.42892318544909303 1.0125107765197756 1.3034109788713975 14.488645538687708 12.115211389958857 20.087132811546326 20.004273176193237 26.004189848899841 33.001885771751404 20.000889658927917 33.000174641609192
leaf_count=32 3 15 13 1 89 16 28 20 20 26 33 20 33
internal_value=0 0.031461 0.0071797 -0.0357743 -0.00535873 -0.000326641 -0.00853876 0.00086008 6.5147e-05 -0.000316613 3.37148e-05 -0.000169787 1.61218e-05
internal_weight=0 17.4132 12.9847 2.74484 2.31592 210.703 26.6039 184.099 164.012 144.008 118.003 85.0015 65.0006
internal_count=349 121 118 103 90 228 44 184 164 144 118 85 65
is_linear=0
shrinkage=0.1


Tree=61
num_leaves=15
num_cat=0
split_feature=5 6 8 9 14 14 13 7 14 1 14 12 9 12
split_gain=1.33072 2.88263 0.52818 0.166421 0.278665 0.141351 0.277007 0.474805 0.0769527 0.0139384 0.00649645 0.00101954 0.000841365 6.51157e-05
threshold=0.054855000000000008 0.25260000000000005 24.195000000000004 15.780000000000001 0.10910000000000002 0.14115000000000003 0.22545000000000001 3.0240000000000005 0.10975000000000001 86.040000000000006 0.08593000000000002 0.18635000000000002 13.020000000000001 0.10465000000000001
decision_type=2 2 2 2 2 2 2 2 2 2 2 2 2 2
left_child=3 -2 -3 8 -5 -4 -7 -8 9 10 11 12 13 -1
right_child=1 2 5 4 -6 6 7 -9 -10 -11 -12 -13 -14 -15
leaf_value=2.7841341640717462e-05 0.10863918612470225 0.04304024030523515 0.0031086043573151177 0.0016671182371073138 -0.018889813737174511 0.015378297254084969 -0.19999999999999907 -0.03016500072533649 0.0066165519497913758 0.0025320917970288598 -0.00171573407806156 0.00050207919717171721 -0.00049448754801120981 0.00026670030650924125
leaf_weight=25.000041484832764 3.5684761395677951 3.2325943366158745 8.063233436085282 14.488527521491052 12.102563571184872 1.0029692649841302 0.19106997200287867 1.1887656209291888 20.08455491065979 20.003897070884705 26.003965139389038 33.001861214637756 39.001363396644592 21.000054001808167
leaf_count=25 5 7 10 16 28 1 23 75 20 20 26 33 39 21
internal_value=0 0.0285975 0.00771626 -0.000294058 -0.00768908 -0.00321497 -0.0246135 -0.0536826 0.000774091 5.86328e-05 -0.000284953 3.03433e-05 -0.000152808 0.000136886
internal_weight=0 17.2471 13.6786 210.687 26.5911 10.446 2.3828 1.37984 184.096 164.011 144.007 118.003 85.0015 46.0001
internal_count=349 121 116 228 44 109 99 98 184 164 144 118 85 46
is_linear=0
shrinkage=0.1


Tree=62
num_leaves=15
num_cat=0
split_feature=5 6 8 9 14 14 13 10 10 12 5 14 7 10
split_gain=1.08883 2.43333 0.430385 0.134864 0.225985 0.116266 0.229261 0.0693674 0.0104125 0.0127677 0.00260101 0.00263232 0.000997214 0.00021662
threshold=0.054855000000000008 0.25260000000000005 24.195000000000004 15.780000000000001 0.10910000000000002 0.14115000000000003 0.22545000000000001 96.925000000000011 68.355000000000018 0.25190000000000007 0.032445000000000009 0.074420000000000014 2.2660000000000005 85.615000000000023
decision_type=2 2 2 2 2 2 2 2 2 2 2 2 2 2
left_child=3 -2 -3 7 -5 -4 -7 8 -1 10 11 12 13 -10
right_child=1 2 5 4 -6 6 -8 -9 9 -11 -12 -13 -14 -15
leaf_value=0.0020373505405708479 0.10075594317215485 0.038917082660849561 0.0027978116118169121 0.0015004167428603985 -0.017016067833835018 0.0138486852628398 -0.049190936430355492 0.0058270834291191346 2.2429315950633527e-05 -0.0026880036931995551 -0.0010003605327794189 0.0011373956531227352 -0.00065211086690096097 0.00043498093552579655
leaf_weight=21.024028778076172 3.4683982538990703 3.2183711554389438 8.0630483105778676 14.488431811332704 12.092307001352308 1.0024060010910028 1.3590836717630734 23.054136872291565 35.00006377696991 20.008439064025879 20.003713369369507 25.001629233360291 20.000647783279419 20.000458598136902
leaf_count=21 5 7 10 16 28 1 98 23 35 20 20 25 20 20
internal_value=0 0.0259651 0.0069513 -0.000264712 -0.00692324 -0.00291751 -0.0224319 0.000696696 -3.77636e-05 -0.000349354 4.05647e-05 0.000248783 -4.74365e-05 0.00017245
internal_weight=0 17.1113 13.6429 210.674 26.5807 10.4245 2.36149 184.093 161.039 140.015 120.007 100.003 75.0012 55.0005
internal_count=349 121 116 228 44 109 99 184 161 140 120 100 75 55
is_linear=0
shrinkage=0.1


Tree=63
num_leaves=15
num_cat=0
split_feature=5 5 13 7 14 9 13 14 1 3 10 4 7 9
split_gain=0.889525 2.27322 0.658192 1.2103 0.296636 0.109281 0.299698 0.0614664 0.00840042 0.00488179 0.00125395 0.0011175 0.000175079 0.000292355
threshold=0.054855000000000008 0.055760000000000011 0.26765000000000005 2.3585000000000007 0.12115000000000002 15.780000000000001 0.20795000000000002 0.10975000000000001 86.040000000000006 0.10175000000000002 89.795000000000002 0.040705000000000005 1.5055000000000003 12.975000000000003
decision_type=2 2 2 2 2 2 2 2 2 2 2 2 2 2
left_child=5 -2 -3 -4 -5 7 -7 8 9 10 11 12 -1 -14
right_child=1 2 3 4 -6 6 -8 -9 -10 -11 -12 -13 13 -15
leaf_value=0.00014640547684987711 0.088245878422072599 0.01449612205247184 -0.19999999999999979 0.027699357762952761 -0.044817200523900397 0.0053499971297820076 -0.01597021139525345 0.0058492030543039735 0.0019079131513075208 -0.0015808996553459483 -0.00072052043963453331 0.00079791629298039599 5.010541515608778e-05 -0.00045048194259425197
leaf_weight=31.000105619430542 4.1152458190917995 10.197714341105891 0.40683697315398548 1.0097309350967409 1.278123472467996 12.135736539959909 14.436609243042765 20.080548524856567 20.003134250640869 24.003723382949829 21.000958323478699 20.001693964004517 28.000079035758972 20.000311017036438
leaf_count=31 3 15 13 1 89 13 31 20 20 24 21 20 28 20
internal_value=0 0.0235365 0.0028813 -0.0410735 -0.0128124 -0.000238285 -0.00623315 0.000627038 -1.23371e-05 -0.000279068 -1.86677e-05 0.000130214 -3.88382e-05 -0.000158474
internal_weight=0 17.0077 12.8924 2.69469 2.28785 210.663 26.5723 184.091 164.01 144.007 120.003 99.0022 79.0005 48.0004
internal_count=349 121 118 103 90 228 44 184 164 144 120 99 79 48
is_linear=0
shrinkage=0.1


Tree=64
num_leaves=14
num_cat=0
split_feature=5 6 8 14 13 6 4 11 14 12 4 8 7
split_gain=0.726035 2.11584 0.324964 0.109756 0.21111 0.0925616 0.190179 0.213907 0.153529 0.00756244 0.00425919 0.00199907 0.000331992
threshold=0.054855000000000008 0.25260000000000005 24.195000000000004 0.14115000000000003 0.22545000000000001 0.40315000000000006 0.054925000000000009 603.05000000000007 0.084940000000000015 0.19775000000000001 0.030410000000000003 21.945000000000004 1.3260000000000003
decision_type=2 2 2 2 2 2 2 2 2 2 2 2 2
left_child=5 -2 -3 -4 -5 6 8 -8 9 10 11 12 -1
right_child=1 2 3 4 -6 -7 7 -9 -10 -11 -12 -13 -14
leaf_value=-0.00045396217673322411 0.093449559779959002 0.031817220132355682 0.00091453098878139854 0.011025213051232156 -0.049692047823822007 -0.0065362290586737995 -7.2749404496677301e-05 0.013720951863488335 -0.0085383330500675442 0.0018482802086977374 -0.0013295674763377778 0.00097938827941088623 6.118873463620488e-05
leaf_weight=22.000699162483215 3.2787032388150719 3.2012192746624342 8.0610811058431846 1.0015228986740106 1.337245129747316 20.866790898144245 25.031208753585815 20.408954054117203 24.333283238112926 22.00494110584259 25.003769755363464 22.001577019691467 29.000091075897217
leaf_count=22 5 7 10 1 98 30 25 24 29 22 25 22 29
internal_value=0 0.0213398 0.00395686 -0.00461895 -0.0236913 -0.000214498 0.000480575 0.00612254 -0.00129554 0.000173002 -0.000203142 0.000182666 -0.000161037
internal_weight=0 16.8798 13.6011 10.3998 2.33877 210.651 189.785 45.4402 144.344 120.011 98.0061 73.0024 51.0008
internal_count=349 121 116 109 99 228 198 49 149 120 98 73 51
is_linear=0
shrinkage=0.1


Tree=65
num_leaves=15
num_cat=0
split_feature=5 3 13 7 10 0 11 4 9 10 5 14 7 10
split_gain=0.174004 0.272282 0.370648 1.1488 0.109477 0.0643868 0.0435863 0.0760221 0.0296296 0.00713346 0.0074984 0.00343161 0.000639906 0.00063858
threshold=0.049230000000000003 0.13295000000000004 0.18430000000000002 1.5345000000000002 104.35000000000001 14.605000000000002 831.85000000000014 0.073925000000000005 14.915000000000001 67.860000000000014 0.031045000000000003 0.074420000000000014 1.5055000000000003 84.640000000000015
decision_type=2 2 2 2 2 2 2 2 2 2 2 2 2 2
left_child=4 2 -2 -4 8 -3 -7 -8 9 -1 11 12 -11 -14
right_child=1 5 3 -5 -6 6 7 -9 -10 10 -12 -13 13 -15
